{"learner":{"attributes":{"scikit_learn":"{\"_estimator_type\": \"regressor\"}"},"feature_names":["year_built","garage","stories","beds","baths","type","lot_sqft","sqft","total_sqft","building_ratio","garage_1_or_more","central_air","community_outdoor_space","dishwasher","basement","fireplace","forced_air","single_story","two_or_more_stories","garage_2_or_more","hardwood_floors","laundry_room","washer_dryer","shopping","recreation_facilities","dining_room","community_security_features","view","central_heat","family_room","city_view","fenced_yard","big_lot","floor_plan","new_roof","rental_property","updated_kitchen","community_swimming_pool","farm","ensuite","corner_lot","ranch","big_yard","modern_kitchen","energy_efficient","open_floor_plan","encoded_city","encoded_state"],"feature_types":["int","int","int","int","int","int","float","float","float","float","int","int","int","int","int","int","int","int","int","int","int","int","int","int","int","int","int","int","int","int","int","int","int","int","int","int","int","int","int","int","int","int","int","int","int","int","float","float"],"gradient_booster":{"model":{"gbtree_model_param":{"num_parallel_tree":"1","num_trees":"500"},"iteration_indptr":[0,1,2,3,4,5,6,7,8,9,10,11,12,13,14,15,16,17,18,19,20,21,22,23,24,25,26,27,28,29,30,31,32,33,34,35,36,37,38,39,40,41,42,43,44,45,46,47,48,49,50,51,52,53,54,55,56,57,58,59,60,61,62,63,64,65,66,67,68,69,70,71,72,73,74,75,76,77,78,79,80,81,82,83,84,85,86,87,88,89,90,91,92,93,94,95,96,97,98,99,100,101,102,103,104,105,106,107,108,109,110,111,112,113,114,115,116,117,118,119,120,121,122,123,124,125,126,127,128,129,130,131,132,133,134,135,136,137,138,139,140,141,142,143,144,145,146,147,148,149,150,151,152,153,154,155,156,157,158,159,160,161,162,163,164,165,166,167,168,169,170,171,172,173,174,175,176,177,178,179,180,181,182,183,184,185,186,187,188,189,190,191,192,193,194,195,196,197,198,199,200,201,202,203,204,205,206,207,208,209,210,211,212,213,214,215,216,217,218,219,220,221,222,223,224,225,226,227,228,229,230,231,232,233,234,235,236,237,238,239,240,241,242,243,244,245,246,247,248,249,250,251,252,253,254,255,256,257,258,259,260,261,262,263,264,265,266,267,268,269,270,271,272,273,274,275,276,277,278,279,280,281,282,283,284,285,286,287,288,289,290,291,292,293,294,295,296,297,298,299,300,301,302,303,304,305,306,307,308,309,310,311,312,313,314,315,316,317,318,319,320,321,322,323,324,325,326,327,328,329,330,331,332,333,334,335,336,337,338,339,340,341,342,343,344,345,346,347,348,349,350,351,352,353,354,355,356,357,358,359,360,361,362,363,364,365,366,367,368,369,370,371,372,373,374,375,376,377,378,379,380,381,382,383,384,385,386,387,388,389,390,391,392,393,394,395,396,397,398,399,400,401,402,403,404,405,406,407,408,409,410,411,412,413,414,415,416,417,418,419,420,421,422,423,424,425,426,427,428,429,430,431,432,433,434,435,436,437,438,439,440,441,442,443,444,445,446,447,448,449,450,451,452,453,454,455,456,457,458,459,460,461,462,463,464,465,466,467,468,469,470,471,472,473,474,475,476,477,478,479,480,481,482,483,484,485,486,487,488,489,490,491,492,493,494,495,496,497,498,499,500],"tree_info":[0,0,0,0,0,0,0,0,0,0,0,0,0,0,0,0,0,0,0,0,0,0,0,0,0,0,0,0,0,0,0,0,0,0,0,0,0,0,0,0,0,0,0,0,0,0,0,0,0,0,0,0,0,0,0,0,0,0,0,0,0,0,0,0,0,0,0,0,0,0,0,0,0,0,0,0,0,0,0,0,0,0,0,0,0,0,0,0,0,0,0,0,0,0,0,0,0,0,0,0,0,0,0,0,0,0,0,0,0,0,0,0,0,0,0,0,0,0,0,0,0,0,0,0,0,0,0,0,0,0,0,0,0,0,0,0,0,0,0,0,0,0,0,0,0,0,0,0,0,0,0,0,0,0,0,0,0,0,0,0,0,0,0,0,0,0,0,0,0,0,0,0,0,0,0,0,0,0,0,0,0,0,0,0,0,0,0,0,0,0,0,0,0,0,0,0,0,0,0,0,0,0,0,0,0,0,0,0,0,0,0,0,0,0,0,0,0,0,0,0,0,0,0,0,0,0,0,0,0,0,0,0,0,0,0,0,0,0,0,0,0,0,0,0,0,0,0,0,0,0,0,0,0,0,0,0,0,0,0,0,0,0,0,0,0,0,0,0,0,0,0,0,0,0,0,0,0,0,0,0,0,0,0,0,0,0,0,0,0,0,0,0,0,0,0,0,0,0,0,0,0,0,0,0,0,0,0,0,0,0,0,0,0,0,0,0,0,0,0,0,0,0,0,0,0,0,0,0,0,0,0,0,0,0,0,0,0,0,0,0,0,0,0,0,0,0,0,0,0,0,0,0,0,0,0,0,0,0,0,0,0,0,0,0,0,0,0,0,0,0,0,0,0,0,0,0,0,0,0,0,0,0,0,0,0,0,0,0,0,0,0,0,0,0,0,0,0,0,0,0,0,0,0,0,0,0,0,0,0,0,0,0,0,0,0,0,0,0,0,0,0,0,0,0,0,0,0,0,0,0,0,0,0,0,0,0,0,0,0,0,0,0,0,0,0,0,0,0,0,0,0,0,0,0,0,0,0,0,0,0,0,0,0,0,0,0,0,0,0,0,0,0,0,0,0,0,0,0,0,0,0,0,0,0,0,0,0,0,0,0,0,0,0,0,0,0,0,0,0,0],"trees":[{"base_weights":[-8.1248066E3,-6.431516E4,4.1285778E5,-1.7818814E5,5.0847664E4,4.462888E4,7.066971E5,-6.374377E3,-1.9922261E3,6.319382E2,1.8604201E4,-3.210817E2,9.886235E3,1.5829468E4,3.94031E4],"categories":[],"categories_nodes":[],"categories_segments":[],"categories_sizes":[],"default_left":[0,0,0,0,0,0,0,0,0,0,0,0,0,0,0],"id":0,"left_children":[1,3,5,7,9,11,13,-1,-1,-1,-1,-1,-1,-1,-1],"loss_changes":[2.169468E13,1.0618233E13,1.1654075E13,1.5459544E12,6.8199105E12,7.75995E11,5.825104E12,0E0,0E0,0E0,0E0,0E0,0E0,0E0,0E0],"parents":[2147483647,0,0,1,1,2,2,3,3,4,4,5,5,6,6],"right_children":[2,4,6,8,10,12,14,-1,-1,-1,-1,-1,-1,-1,-1],"split_conditions":[1.0231923E0,-5.5923034E-2,-1.4395411E-1,2.237148E-1,3.7799532E0,2.008E3,2.591691E0,-6.374377E3,-1.9922261E3,6.319382E2,1.8604201E4,-3.210817E2,9.886235E3,1.5829468E4,3.94031E4],"split_indices":[7,46,46,7,46,0,7,0,0,0,0,0,0,0,0],"split_type":[0,0,0,0,0,0,0,0,0,0,0,0,0,0,0],"sum_hessian":[9.15E2,8.08E2,1.07E2,4.06E2,4.02E2,4.8E1,5.9E1,3.1E2,9.6E1,3.83E2,1.9E1,4.1E1,7E0,4.7E1,1.2E1],"tree_param":{"num_deleted":"0","num_feature":"48","num_nodes":"15","size_leaf_vector":"1"}},{"base_weights":[5.0843436E2,-7.809906E4,3.149357E5,-1.8761453E5,3.4911703E4,1.1406714E5,6.107002E5,-7.0569346E3,-4.0839487E3,6.72537E1,1.6414002E4,6.963618E2,7.317594E3,1.4773339E4,3.152679E4],"categories":[],"categories_nodes":[],"categories_segments":[],"categories_sizes":[],"default_left":[0,0,0,0,0,0,0,0,0,0,0,0,0,0,0],"id":1,"left_children":[1,3,5,7,9,11,13,-1,-1,-1,-1,-1,-1,-1,-1],"loss_changes":[2.2986071E13,9.214613E12,1.098056E13,8.94622E11,6.14024E12,1.3156891E12,3.3866383E12,0E0,0E0,0E0,0E0,0E0,0E0,0E0,0E0],"parents":[2147483647,0,0,1,1,2,2,3,3,4,4,5,5,6,6],"right_children":[2,4,6,8,10,12,14,-1,-1,-1,-1,-1,-1,-1,-1],"split_conditions":[7.0625657E-1,-5.5923034E-2,2.6300332E-1,1E0,3.7799532E0,4E0,5E0,-7.0569346E3,-4.0839487E3,6.72537E1,1.6414002E4,6.963618E2,7.317594E3,1.4773339E4,3.152679E4],"split_indices":[7,46,47,1,46,4,4,0,0,0,0,0,0,0,0],"split_type":[0,0,0,0,0,0,0,0,0,0,0,0,0,0,0],"sum_hessian":[9.28E2,7.43E2,1.85E2,3.77E2,3.66E2,1.11E2,7.4E1,1.94E2,1.83E2,3.45E2,2.1E1,6.6E1,4.5E1,6E1,1.4E1],"tree_param":{"num_deleted":"0","num_feature":"48","num_nodes":"15","size_leaf_vector":"1"}},{"base_weights":[-2.0745398E3,-5.869625E4,3.9090753E5,-7.570377E4,6.185869E5,5.639301E4,6.3970356E5,-5.017899E3,4.8139297E2,1.0004114E4,4.2217254E4,-4.3282437E2,4.747565E3,1.5337443E4,3.4018824E4],"categories":[],"categories_nodes":[],"categories_segments":[],"categories_sizes":[],"default_left":[0,0,0,0,0,0,0,0,0,0,0,0,0,0,0],"id":2,"left_children":[1,3,5,7,9,11,13,-1,-1,-1,-1,-1,-1,-1,-1],"loss_changes":[2.0672168E13,9.400182E12,9.701354E12,6.664363E12,4.027897E12,3.7018265E11,3.674097E12,0E0,0E0,0E0,0E0,0E0,0E0,0E0,0E0],"parents":[2147483647,0,0,1,1,2,2,3,3,4,4,5,5,6,6],"right_children":[2,4,6,8,10,12,14,-1,-1,-1,-1,-1,-1,-1,-1],"split_conditions":[1.0231923E0,3.7799532E0,-1.4395411E-1,-5.5923034E-2,3E0,1.983E3,2.6250026E0,-5.017899E3,4.8139297E2,1.0004114E4,4.2217254E4,-4.3282437E2,4.747565E3,1.5337443E4,3.4018824E4],"split_indices":[7,46,46,46,4,0,7,0,0,0,0,0,0,0,0],"split_type":[0,0,0,0,0,0,0,0,0,0,0,0,0,0,0],"sum_hessian":[9.27E2,8.11E2,1.16E2,7.92E2,1.9E1,5E1,6.6E1,3.96E2,3.96E2,1.5E1,4E0,3E1,2E1,5.4E1,1.2E1],"tree_param":{"num_deleted":"0","num_feature":"48","num_nodes":"15","size_leaf_vector":"1"}},{"base_weights":[1.4653861E3,-9.797932E4,2.1714794E5,-1.9088864E5,6.598726E3,1.6656583E5,1.0919245E6,-6.566989E3,-3.2074602E3,3.7965298E1,2.425845E4,3.1332864E3,2.0485393E4,1.823534E4,4.882434E4],"categories":[],"categories_nodes":[],"categories_segments":[],"categories_sizes":[],"default_left":[0,0,0,0,0,0,0,0,0,0,0,0,0,0,0],"id":3,"left_children":[1,3,5,7,9,11,13,-1,-1,-1,-1,-1,-1,-1,-1],"loss_changes":[2.0118512E13,6.2391074E12,1.2915545E13,7.7633526E11,1.2950066E12,8.941159E12,3.1587555E12,0E0,0E0,0E0,0E0,0E0,0E0,0E0,0E0],"parents":[2147483647,0,0,1,1,2,2,3,3,4,4,5,5,6,6],"right_children":[2,4,6,8,10,12,14,-1,-1,-1,-1,-1,-1,-1,-1],"split_conditions":[3E0,-5.5923034E-2,3.7799532E0,1E0,6.144808E-1,5E0,1.926E3,-6.566989E3,-3.2074602E3,3.7965298E1,2.425845E4,3.1332864E3,2.0485393E4,1.823534E4,4.882434E4],"split_indices":[4,46,46,15,6,4,0,0,0,0,0,0,0,0,0],"split_type":[0,0,0,0,0,0,0,0,0,0,0,0,0,0,0],"sum_hessian":[9.36E2,6.41E2,2.95E2,3.39E2,3.02E2,2.8E2,1.5E1,2.53E2,8.6E1,3.01E2,1E0,2.51E2,2.9E1,9E0,6E0],"tree_param":{"num_deleted":"0","num_feature":"48","num_nodes":"15","size_leaf_vector":"1"}},{"base_weights":[2.966759E2,-1.1555431E5,1.6553598E5,-1.5472773E5,3.4535285E4,8.518313E4,6.289135E5,-6.0089033E3,-2.816163E3,-2.303799E3,3.3634802E3,1.2609435E3,1.8738773E4,1.5408627E4,4.0877625E4],"categories":[],"categories_nodes":[],"categories_segments":[],"categories_sizes":[],"default_left":[0,0,0,0,0,0,0,0,0,0,0,0,0,0,0],"id":4,"left_children":[1,3,5,7,9,11,13,-1,-1,-1,-1,-1,-1,-1,-1],"loss_changes":[1.7649956E13,3.1920447E12,1.4095236E13,1.1736449E12,9.845855E11,7.5390507E12,4.0370302E12,0E0,0E0,0E0,0E0,0E0,0E0,0E0,0E0],"parents":[2147483647,0,0,1,1,2,2,3,3,4,4,5,5,6,6],"right_children":[2,4,6,8,10,12,14,-1,-1,-1,-1,-1,-1,-1,-1],"split_conditions":[1.1518229E-2,5.634927E-1,1.0051088E0,-5.017637E-1,1E0,3.7799532E0,3.2683916E0,-6.0089033E3,-2.816163E3,-2.303799E3,3.3634802E3,1.2609435E3,1.8738773E4,1.5408627E4,4.0877625E4],"split_indices":[46,7,7,46,15,46,7,0,0,0,0,0,0,0,0],"split_type":[0,0,0,0,0,0,0,0,0,0,0,0,0,0,0],"sum_hessian":[9.2E2,5.41E2,3.79E2,4.29E2,1.12E2,3.24E2,5.5E1,2.44E2,1.85E2,4.6E1,6.6E1,3.01E2,2.3E1,4.9E1,6E0],"tree_param":{"num_deleted":"0","num_feature":"48","num_nodes":"15","size_leaf_vector":"1"}},{"base_weights":[7.212039E3,-1.1023348E5,1.7721245E5,-1.6103834E5,4.202177E3,2.1944865E4,4.308433E5,-5.4846626E3,-1.2216632E3,-2.5892788E3,2.3778823E3,-2.339619E2,1.1577329E4,1.0310117E4,2.9725441E4],"categories":[],"categories_nodes":[],"categories_segments":[],"categories_sizes":[],"default_left":[0,0,0,0,0,0,0,0,0,0,0,0,0,0,0],"id":5,"left_children":[1,3,5,7,9,11,13,-1,-1,-1,-1,-1,-1,-1,-1],"loss_changes":[1.8667578E13,3.2157577E12,1.5033954E13,9.963737E11,1.1685881E12,2.5795166E12,6.7379606E12,0E0,0E0,0E0,0E0,0E0,0E0,0E0,0E0],"parents":[2147483647,0,0,1,1,2,2,3,3,4,4,5,5,6,6],"right_children":[2,4,6,8,10,12,14,-1,-1,-1,-1,-1,-1,-1,-1],"split_conditions":[1.1518229E-2,2.237148E-1,2.9224142E-1,-7.2975144E-2,1E0,3.7799532E0,5E0,-5.4846626E3,-1.2216632E3,-2.5892788E3,2.3778823E3,-2.339619E2,1.1577329E4,1.0310117E4,2.9725441E4],"split_indices":[46,7,7,47,15,46,4,0,0,0,0,0,0,0,0],"split_type":[0,0,0,0,0,0,0,0,0,0,0,0,0,0,0],"sum_hessian":[9.33E2,5.52E2,3.81E2,3.82E2,1.7E2,2.37E2,1.44E2,3.23E2,5.9E1,7.7E1,9.3E1,2.2E2,1.7E1,1.26E2,1.8E1],"tree_param":{"num_deleted":"0","num_feature":"48","num_nodes":"15","size_leaf_vector":"1"}},{"base_weights":[-4.3087314E3,-5.902043E4,4.2484488E5,-1.3209883E5,6.0647297E4,3.108661E5,1.3394996E6,-7.256589E3,-3.2068657E3,-1.6788492E3,4.305153E3,2.572087E3,1.6322893E4,4.3299367E4,4.5206016E3],"categories":[],"categories_nodes":[],"categories_segments":[],"categories_sizes":[],"default_left":[0,0,0,0,0,0,0,0,0,0,0,0,0,0,0],"id":6,"left_children":[1,3,5,7,9,11,13,-1,-1,-1,-1,-1,-1,-1,-1],"loss_changes":[2.1180304E13,7.0041123E12,1.021722E13,1.3493464E12,2.9452667E12,4.7840064E12,1.1400643E12,0E0,0E0,0E0,0E0,0E0,0E0,0E0,0E0],"parents":[2147483647,0,0,1,1,2,2,3,3,4,4,5,5,6,6],"right_children":[2,4,6,8,10,12,14,-1,-1,-1,-1,-1,-1,-1,-1],"split_conditions":[1.154535E0,1.0493361E-2,3.2683916E0,-7.6868534E-1,-3.5685813E-1,1.3803383E-2,1E0,-7.256589E3,-3.2068657E3,-1.6788492E3,4.305153E3,2.572087E3,1.6322893E4,4.3299367E4,4.5206016E3],"split_indices":[7,46,7,47,7,46,34,0,0,0,0,0,0,0,0],"split_type":[0,0,0,0,0,0,0,0,0,0,0,0,0,0,0],"sum_hessian":[9E2,7.99E2,1.01E2,4.96E2,3.03E2,9.1E1,1E1,9.1E1,4.05E2,1.26E2,1.77E2,4.7E1,4.4E1,9E0,1E0],"tree_param":{"num_deleted":"0","num_feature":"48","num_nodes":"15","size_leaf_vector":"1"}},{"base_weights":[-3.7578918E3,-7.609353E4,2.0509294E5,-1.6739292E5,1.4112754E4,3.1197963E4,4.053394E5,-7.4196763E3,-4.152371E3,-2.741152E2,1.1297474E4,-2.7416672E3,3.5366597E3,1.0097517E4,2.693277E4],"categories":[],"categories_nodes":[],"categories_segments":[],"categories_sizes":[],"default_left":[0,0,0,0,0,0,0,0,0,0,0,0,0,0,0],"id":7,"left_children":[1,3,5,7,9,11,13,-1,-1,-1,-1,-1,-1,-1,-1],"loss_changes":[1.4035235E13,5.68505E12,8.309778E12,7.6029415E11,2.9361743E12,1.3816749E12,3.4559052E12,0E0,0E0,0E0,0E0,0E0,0E0,0E0,0E0],"parents":[2147483647,0,0,1,1,2,2,3,3,4,4,5,5,6,6],"right_children":[2,4,6,8,10,12,14,-1,-1,-1,-1,-1,-1,-1,-1],"split_conditions":[4.1977713E-1,-5.5923034E-2,1.3803383E-2,-7.6868534E-1,3.7799532E0,1E0,3.7799532E0,-7.4196763E3,-4.152371E3,-2.741152E2,1.1297474E4,-2.7416672E3,3.5366597E3,1.0097517E4,2.693277E4],"split_indices":[7,46,46,47,46,15,46,0,0,0,0,0,0,0,0],"split_type":[0,0,0,0,0,0,0,0,0,0,0,0,0,0,0],"sum_hessian":[9.27E2,6.89E2,2.38E2,3.42E2,3.47E2,1.28E2,1.1E2,8.9E1,2.53E2,3.27E2,2E1,5.3E1,7.5E1,9.8E1,1.2E1],"tree_param":{"num_deleted":"0","num_feature":"48","num_nodes":"15","size_leaf_vector":"1"}},{"base_weights":[2.9093152E3,-6.107344E4,2.8088662E5,-7.732773E4,4.8474366E5,1.0077705E5,5.601637E5,-4.546697E3,3.7919132E1,2.353946E3,3.1886174E4,3.0845178E2,7.217535E3,1.3148573E4,2.996874E4],"categories":[],"categories_nodes":[],"categories_segments":[],"categories_sizes":[],"default_left":[0,0,0,0,0,0,0,0,0,0,0,0,0,0,0],"id":8,"left_children":[1,3,5,7,9,11,13,-1,-1,-1,-1,-1,-1,-1,-1],"loss_changes":[1.654012E13,6.744617E12,8.6958334E12,4.288013E12,5.083995E12,1.351282E12,3.198763E12,0E0,0E0,0E0,0E0,0E0,0E0,0E0,0E0],"parents":[2147483647,0,0,1,1,2,2,3,3,4,4,5,5,6,6],"right_children":[2,4,6,8,10,12,14,-1,-1,-1,-1,-1,-1,-1,-1],"split_conditions":[7.0625657E-1,3.7799532E0,2.6300332E-1,-5.5923034E-2,-3.092702E-1,4E0,2.6250026E0,-4.546697E3,3.7919132E1,2.353946E3,3.1886174E4,3.0845178E2,7.217535E3,1.3148573E4,2.996874E4],"split_indices":[7,46,47,46,7,4,7,0,0,0,0,0,0,0,0],"split_type":[0,0,0,0,0,0,0,0,0,0,0,0,0,0,0],"sum_hessian":[9.28E2,7.55E2,1.73E2,7.34E2,2.1E1,1.06E2,6.7E1,3.77E2,3.57E2,1.3E1,8E0,6.5E1,4.1E1,5.4E1,1.3E1],"tree_param":{"num_deleted":"0","num_feature":"48","num_nodes":"15","size_leaf_vector":"1"}},{"base_weights":[1.7662643E2,-8.29343E4,1.8571236E5,-1.626112E5,-3.247146E3,4.439372E4,4.5769372E5,-6.9926504E3,-4.1708574E3,-6.514398E2,1.0400531E4,-3.2857544E2,4.8794463E3,1.1370026E4,2.8110494E4],"categories":[],"categories_nodes":[],"categories_segments":[],"categories_sizes":[],"default_left":[0,0,0,0,0,0,0,0,0,0,0,0,0,0,0],"id":9,"left_children":[1,3,5,7,9,11,13,-1,-1,-1,-1,-1,-1,-1,-1],"loss_changes":[1.4155584E13,4.0248809E12,1.0895515E13,4.9445968E11,2.0625607E12,1.2322304E12,3.3036373E12,0E0,0E0,0E0,0E0,0E0,0E0,0E0,0E0],"parents":[2147483647,0,0,1,1,2,2,3,3,4,4,5,5,6,6],"right_children":[2,4,6,8,10,12,14,-1,-1,-1,-1,-1,-1,-1,-1],"split_conditions":[2.8462738E-1,-5.5923034E-2,2.7106813E-1,-7.6868534E-1,3.7799532E0,-1.4395411E-1,3.7799532E0,-6.9926504E3,-4.1708574E3,-6.514398E2,1.0400531E4,-3.2857544E2,4.8794463E3,1.1370026E4,2.8110494E4],"split_indices":[7,46,47,47,46,46,46,0,0,0,0,0,0,0,0],"split_type":[0,0,0,0,0,0,0,0,0,0,0,0,0,0,0],"sum_hessian":[9.16E2,6.33E2,2.83E2,3.16E2,3.17E2,1.87E2,9.6E1,7.7E1,2.39E2,3.02E2,1.5E1,1.28E2,5.9E1,8.4E1,1.2E1],"tree_param":{"num_deleted":"0","num_feature":"48","num_nodes":"15","size_leaf_vector":"1"}},{"base_weights":[2.787783E3,-6.1550574E4,2.7430172E5,-7.863582E4,5.0506016E5,7.9375484E4,5.32304E5,-4.4744365E3,-1.7212561E2,1.3985515E3,3.151585E4,6.286164E2,8.725956E3,1.206239E4,3.105233E4],"categories":[],"categories_nodes":[],"categories_segments":[],"categories_sizes":[],"default_left":[0,0,0,0,0,0,0,0,0,0,0,0,0,0,0],"id":10,"left_children":[1,3,5,7,9,11,13,-1,-1,-1,-1,-1,-1,-1,-1],"loss_changes":[1.6140549E13,7.271184E12,8.859326E12,3.7309362E12,5.452466E12,1.2541734E12,4.5597957E12,0E0,0E0,0E0,0E0,0E0,0E0,0E0,0E0],"parents":[2147483647,0,0,1,1,2,2,3,3,4,4,5,5,6,6],"right_children":[2,4,6,8,10,12,14,-1,-1,-1,-1,-1,-1,-1,-1],"split_conditions":[7.0625657E-1,3.7799532E0,2.6300332E-1,-5.5923034E-2,-3.092702E-1,1E0,2.6250026E0,-4.4744365E3,-1.7212561E2,1.3985515E3,3.151585E4,6.286164E2,8.725956E3,1.206239E4,3.105233E4],"split_indices":[7,46,47,46,7,26,7,0,0,0,0,0,0,0,0],"split_type":[0,0,0,0,0,0,0,0,0,0,0,0,0,0,0],"sum_hessian":[9.22E2,7.46E2,1.76E2,7.25E2,2.1E1,1.01E2,7.5E1,3.68E2,3.57E2,1.2E1,9E0,8E1,2.1E1,6.1E1,1.4E1],"tree_param":{"num_deleted":"0","num_feature":"48","num_nodes":"15","size_leaf_vector":"1"}},{"base_weights":[-5.7178574E3,-4.74856E4,3.194994E5,-6.3799758E4,5.5681356E5,6.7265086E4,5.567525E5,-4.763799E3,-4.1331775E2,5.537633E3,3.9842113E4,-1.3286372E3,4.0864504E3,1.3906124E4,3.389165E4],"categories":[],"categories_nodes":[],"categories_segments":[],"categories_sizes":[],"default_left":[0,0,0,0,0,0,0,0,0,0,0,0,0,0,0],"id":11,"left_children":[1,3,5,7,9,11,13,-1,-1,-1,-1,-1,-1,-1,-1],"loss_changes":[1.2770164E13,8.247765E12,6.3657916E12,3.8562853E12,6.070653E12,4.1368597E11,2.413846E12,0E0,0E0,0E0,0E0,0E0,0E0,0E0,0E0],"parents":[2147483647,0,0,1,1,2,2,3,3,4,4,5,5,6,6],"right_children":[2,4,6,8,10,12,14,-1,-1,-1,-1,-1,-1,-1,-1],"split_conditions":[1.0231923E0,3.7799532E0,1.1518229E-2,-5.017637E-1,3E0,1E0,3.2683916E0,-4.763799E3,-4.1331775E2,5.537633E3,3.9842113E4,-1.3286372E3,4.0864504E3,1.3906124E4,3.389165E4],"split_indices":[7,46,46,46,4,15,7,0,0,0,0,0,0,0,0],"split_type":[0,0,0,0,0,0,0,0,0,0,0,0,0,0,0],"sum_hessian":[9.38E2,8.32E2,1.06E2,8.11E2,2.1E1,5.2E1,5.4E1,2.79E2,5.32E2,1.5E1,6E0,2E1,3.2E1,4.8E1,6E0],"tree_param":{"num_deleted":"0","num_feature":"48","num_nodes":"15","size_leaf_vector":"1"}},{"base_weights":[-1.8813624E3,-7.985247E4,1.6465255E5,-1.519803E5,-1.9017306E3,1.2574356E5,9.560843E5,-6.1295737E3,-3.4952432E3,-1.128531E3,4.0958208E3,2.9295952E3,3.7303027E4,1.2256204E4,4.335797E4],"categories":[],"categories_nodes":[],"categories_segments":[],"categories_sizes":[],"default_left":[0,0,0,0,0,0,0,0,0,0,0,0,0,0,0],"id":12,"left_children":[1,3,5,7,9,11,13,-1,-1,-1,-1,-1,-1,-1,-1],"loss_changes":[1.22968E13,3.6261703E12,9.179509E12,5.981471E11,1.5427602E12,8.952122E12,3.1594287E12,0E0,0E0,0E0,0E0,0E0,0E0,0E0,0E0],"parents":[2147483647,0,0,1,1,2,2,3,3,4,4,5,5,6,6],"right_children":[2,4,6,8,10,12,14,-1,-1,-1,-1,-1,-1,-1,-1],"split_conditions":[3E0,-5.5923034E-2,3.7799532E0,2E0,-3.040484E-2,3.649095E0,1.926E3,-6.1295737E3,-3.4952432E3,-1.128531E3,4.0958208E3,2.9295952E3,3.7303027E4,1.2256204E4,4.335797E4],"split_indices":[4,46,46,4,7,7,0,0,0,0,0,0,0,0,0],"split_type":[0,0,0,0,0,0,0,0,0,0,0,0,0,0,0],"sum_hessian":[9.45E2,6.44E2,3.01E2,3.34E2,3.1E2,2.88E2,1.3E1,1.33E2,2.01E2,2.47E2,6.3E1,2.82E2,6E0,7E0,6E0],"tree_param":{"num_deleted":"0","num_feature":"48","num_nodes":"15","size_leaf_vector":"1"}},{"base_weights":[-3.6753176E3,-7.921871E4,1.5651928E5,-1.495059E5,-1.1079936E4,3.693083E4,3.94131E5,-5.464339E3,-3.2271965E3,-5.210532E2,1.99645E4,-1.6121082E3,2.8238162E3,9.641527E3,2.7024758E4],"categories":[],"categories_nodes":[],"categories_segments":[],"categories_sizes":[],"default_left":[0,0,0,0,0,0,0,0,0,0,0,0,0,0,0],"id":13,"left_children":[1,3,5,7,9,11,13,-1,-1,-1,-1,-1,-1,-1,-1],"loss_changes":[1.1291131E13,3.0347493E12,8.4817147E12,4.0741844E11,1.3857852E12,1.0422317E12,3.3965275E12,0E0,0E0,0E0,0E0,0E0,0E0,0E0,0E0],"parents":[2147483647,0,0,1,1,2,2,3,3,4,4,5,5,6,6],"right_children":[2,4,6,8,10,12,14,-1,-1,-1,-1,-1,-1,-1,-1],"split_conditions":[2.8462738E-1,-5.5923034E-2,2.6300332E-1,1E0,6.144808E-1,1E0,3.7799532E0,-5.464339E3,-3.2271965E3,-5.210532E2,1.99645E4,-1.6121082E3,2.8238162E3,9.641527E3,2.7024758E4],"split_indices":[7,46,47,1,6,15,46,0,0,0,0,0,0,0,0],"split_type":[0,0,0,0,0,0,0,0,0,0,0,0,0,0,0],"sum_hessian":[9.31E2,6.33E2,2.98E2,3.11E2,3.22E2,1.99E2,9.9E1,1.73E2,1.38E2,3.2E2,2E0,7.7E1,1.22E2,8.8E1,1.1E1],"tree_param":{"num_deleted":"0","num_feature":"48","num_nodes":"15","size_leaf_vector":"1"}},{"base_weights":[2.0135251E3,-4.3381586E4,2.981466E5,-1.082262E5,5.9731348E4,3.5331895E4,4.8234975E5,-4.1487793E3,-1.2210381E3,9.74215E2,1.22378E4,1.2139277E2,8.39181E3,1.0477759E4,2.3431604E4],"categories":[],"categories_nodes":[],"categories_segments":[],"categories_sizes":[],"default_left":[0,0,0,0,0,0,0,0,0,0,0,0,0,0,0],"id":14,"left_children":[1,3,5,7,9,11,13,-1,-1,-1,-1,-1,-1,-1,-1],"loss_changes":[1.2743449E13,5.5026186E12,6.082781E12,1.01964E12,3.0048712E12,4.0410694E11,2.6690653E12,0E0,0E0,0E0,0E0,0E0,0E0,0E0,0E0],"parents":[2147483647,0,0,1,1,2,2,3,3,4,4,5,5,6,6],"right_children":[2,4,6,8,10,12,14,-1,-1,-1,-1,-1,-1,-1,-1],"split_conditions":[1.0231923E0,1.0524154E-2,-1.4395411E-1,1.985E3,3.7799532E0,-1.9395363E-2,5E0,-4.1487793E3,-1.2210381E3,9.74215E2,1.22378E4,1.2139277E2,8.39181E3,1.0477759E4,2.3431604E4],"split_indices":[7,46,46,0,46,6,4,0,0,0,0,0,0,0,0],"split_type":[0,0,0,0,0,0,0,0,0,0,0,0,0,0,0],"sum_hessian":[9.46E2,8.21E2,1.25E2,5.04E2,3.17E2,5.2E1,7.3E1,3.48E2,1.56E2,2.95E2,2.2E1,4.7E1,5E0,5.2E1,2.1E1],"tree_param":{"num_deleted":"0","num_feature":"48","num_nodes":"15","size_leaf_vector":"1"}},{"base_weights":[-2.3914746E3,-4.9451098E4,2.2210655E5,-6.4548758E4,5.184288E5,5.4188383E4,3.6791672E5,-3.880793E3,-7.625361E0,6.921367E2,3.0344377E4,8.517859E0,7.237555E3,8.905751E3,1.9807299E4],"categories":[],"categories_nodes":[],"categories_segments":[],"categories_sizes":[],"default_left":[0,0,0,0,0,0,0,0,0,0,0,0,0,0,0],"id":15,"left_children":[1,3,5,7,9,11,13,-1,-1,-1,-1,-1,-1,-1,-1],"loss_changes":[9.81511E12,6.618033E12,3.922016E12,3.1210477E12,4.86139E12,7.6628165E11,1.590414E12,0E0,0E0,0E0,0E0,0E0,0E0,0E0,0E0],"parents":[2147483647,0,0,1,1,2,2,3,3,4,4,5,5,6,6],"right_children":[2,4,6,8,10,12,14,-1,-1,-1,-1,-1,-1,-1,-1],"split_conditions":[7.7192795E-1,3.7799532E0,-1.10220194E-1,-5.5923034E-2,-3.092702E-1,2.008E3,2.591691E0,-3.880793E3,-7.625361E0,6.921367E2,3.0344377E4,8.517859E0,7.237555E3,8.905751E3,1.9807299E4],"split_indices":[7,46,47,46,7,0,7,0,0,0,0,0,0,0,0],"split_type":[0,0,0,0,0,0,0,0,0,0,0,0,0,0,0],"sum_hessian":[9.27E2,7.67E2,1.6E2,7.48E2,1.9E1,7.5E1,8.5E1,3.72E2,3.76E2,1E1,9E0,5.9E1,1.6E1,7E1,1.5E1],"tree_param":{"num_deleted":"0","num_feature":"48","num_nodes":"15","size_leaf_vector":"1"}},{"base_weights":[1.8715612E3,-4.2548562E4,3.061338E5,-5.57075E4,4.1700366E5,2.3758875E5,1.125124E6,-3.6608467E3,2.0200606E2,3.9500034E3,3.1511781E4,1.7388567E3,1.2485418E4,4.2672258E4,1.6925503E3],"categories":[],"categories_nodes":[],"categories_segments":[],"categories_sizes":[],"default_left":[0,0,0,0,0,0,0,0,0,0,0,0,0,0,0],"id":16,"left_children":[1,3,5,7,9,11,13,-1,-1,-1,-1,-1,-1,-1,-1],"loss_changes":[1.2730986E13,4.994045E12,6.4692096E12,3.3137293E12,4.0184712E12,3.5688258E12,2.7791385E12,0E0,0E0,0E0,0E0,0E0,0E0,0E0,0E0],"parents":[2147483647,0,0,1,1,2,2,3,3,4,4,5,5,6,6],"right_children":[2,4,6,8,10,12,14,-1,-1,-1,-1,-1,-1,-1,-1],"split_conditions":[1.0231923E0,3.7799532E0,3.649095E0,-1.4395411E-1,1.987E3,1.3803383E-2,1E0,-3.6608467E3,2.0200606E2,3.9500034E3,3.1511781E4,1.7388567E3,1.2485418E4,4.2672258E4,1.6925503E3],"split_indices":[7,46,7,46,0,46,34,0,0,0,0,0,0,0,0],"split_type":[0,0,0,0,0,0,0,0,0,0,0,0,0,0,0],"sum_hessian":[9.4E2,8.21E2,1.19E2,7.99E2,2.2E1,1.11E2,8E0,3.87E2,4.12E2,1.6E1,6E0,5.6E1,5.5E1,6E0,2E0],"tree_param":{"num_deleted":"0","num_feature":"48","num_nodes":"15","size_leaf_vector":"1"}},{"base_weights":[-1.6743029E3,-8.383592E4,1.2113784E5,-1.2308388E5,-1.0466813E4,4.8127805E4,3.9249862E5,-4.9480938E3,-2.2641821E3,-1.1258961E3,6.582697E3,4.488799E2,1.5301002E4,9.306415E3,2.4987834E4],"categories":[],"categories_nodes":[],"categories_segments":[],"categories_sizes":[],"default_left":[0,0,0,0,0,0,0,0,0,0,0,0,0,0,0],"id":17,"left_children":[1,3,5,7,9,11,13,-1,-1,-1,-1,-1,-1,-1,-1],"loss_changes":[9.515355E12,1.6256792E12,7.470069E12,7.208467E11,1.2400972E12,4.572799E12,2.6408628E12,0E0,0E0,0E0,0E0,0E0,0E0,0E0,0E0],"parents":[2147483647,0,0,1,1,2,2,3,3,4,4,5,5,6,6],"right_children":[2,4,6,8,10,12,14,-1,-1,-1,-1,-1,-1,-1,-1],"split_conditions":[1.1518229E-2,1E0,7.7192795E-1,-5.492181E-1,2.01E3,3.7799532E0,2.6250026E0,-4.9480938E3,-2.2641821E3,-1.1258961E3,6.582697E3,4.488799E2,1.5301002E4,9.306415E3,2.4987834E4],"split_indices":[46,15,7,46,0,46,7,0,0,0,0,0,0,0,0],"split_type":[0,0,0,0,0,0,0,0,0,0,0,0,0,0,0],"sum_hessian":[9.41E2,5.64E2,3.77E2,3.67E2,1.97E2,2.98E2,7.9E1,1.94E2,1.73E2,1.77E2,2E1,2.79E2,1.9E1,6.8E1,1.1E1],"tree_param":{"num_deleted":"0","num_feature":"48","num_nodes":"15","size_leaf_vector":"1"}},{"base_weights":[-2.6726252E3,-6.848792E4,1.3650138E5,-1.30868414E5,-5.69065E3,3.8812598E4,3.3447338E5,-5.262043E3,-3.065656E3,-3.5962982E2,1.9532863E4,-2.3834265E3,2.4270078E3,7.9398975E3,2.203289E4],"categories":[],"categories_nodes":[],"categories_segments":[],"categories_sizes":[],"default_left":[0,0,0,0,0,0,0,0,0,0,0,0,0,0,0],"id":18,"left_children":[1,3,5,7,9,11,13,-1,-1,-1,-1,-1,-1,-1,-1],"loss_changes":[8.4729843E12,2.4593357E12,5.7308915E12,3.8439433E11,1.306443E12,1.0018862E12,2.5418814E12,0E0,0E0,0E0,0E0,0E0,0E0,0E0,0E0],"parents":[2147483647,0,0,1,1,2,2,3,3,4,4,5,5,6,6],"right_children":[2,4,6,8,10,12,14,-1,-1,-1,-1,-1,-1,-1,-1],"split_conditions":[2.6178515E-1,-5.5923034E-2,2.6300332E-1,2E0,6.144808E-1,-6.3563067E-1,2.540143E0,-5.262043E3,-3.065656E3,-3.5962982E2,1.9532863E4,-2.3834265E3,2.4270078E3,7.9398975E3,2.203289E4],"split_indices":[7,46,47,4,6,46,46,0,0,0,0,0,0,0,0],"split_type":[0,0,0,0,0,0,0,0,0,0,0,0,0,0,0],"sum_hessian":[9.23E2,6.27E2,2.96E2,3.14E2,3.13E2,1.99E2,9.7E1,1.21E2,1.93E2,3.11E2,2E0,5.2E1,1.47E2,8.4E1,1.3E1],"tree_param":{"num_deleted":"0","num_feature":"48","num_nodes":"15","size_leaf_vector":"1"}},{"base_weights":[8.516082E3,-1.0341568E4,6.3120156E5,-2.6246719E4,4.6387884E5,1.8673442E5,1.0305829E6,-1.938372E3,3.4184924E3,2.424039E2,2.2259209E4,-1.3388057E3,9.60681E3,4.5610816E4,9.708323E3],"categories":[],"categories_nodes":[],"categories_segments":[],"categories_sizes":[],"default_left":[0,0,0,0,0,0,0,0,0,0,0,0,0,0,0],"id":19,"left_children":[1,3,5,7,9,11,13,-1,-1,-1,-1,-1,-1,-1,-1],"loss_changes":[1.0786038E13,6.7401275E12,4.6003745E12,4.654588E12,3.669906E12,4.466809E11,4.3556243E12,0E0,0E0,0E0,0E0,0E0,0E0,0E0,0E0],"parents":[2147483647,0,0,1,1,2,2,3,3,4,4,5,5,6,6],"right_children":[2,4,6,8,10,12,14,-1,-1,-1,-1,-1,-1,-1,-1],"split_conditions":[5E0,3.7799532E0,-1.0375937E-1,5.14953E-1,-3.5685813E-1,-3.3862088E-2,1E0,-1.938372E3,3.4184924E3,2.424039E2,2.2259209E4,-1.3388057E3,9.60681E3,4.5610816E4,9.708323E3],"split_indices":[4,46,47,7,7,6,29,0,0,0,0,0,0,0,0],"split_type":[0,0,0,0,0,0,0,0,0,0,0,0,0,0,0],"sum_hessian":[9.17E2,8.91E2,2.6E1,8.63E2,2.8E1,1.3E1,1.3E1,6.78E2,1.85E2,1.1E1,1.7E1,5E0,8E0,7E0,6E0],"tree_param":{"num_deleted":"0","num_feature":"48","num_nodes":"15","size_leaf_vector":"1"}},{"base_weights":[-2.6683577E3,-6.473832E4,1.2248786E5,-1.27813266E5,-5.391597E3,8.784737E4,7.932756E5,-5.459877E3,-3.1262493E3,-8.091206E3,3.3601263E2,1.1838314E3,9.528606E3,1.1352758E4,4.0574406E4],"categories":[],"categories_nodes":[],"categories_segments":[],"categories_sizes":[],"default_left":[0,0,0,0,0,0,0,0,0,0,0,0,0,0,0],"id":20,"left_children":[1,3,5,7,9,11,13,-1,-1,-1,-1,-1,-1,-1,-1],"loss_changes":[7.2170435E12,2.3238945E12,7.0871286E12,3.6600703E11,1.410774E12,3.2561181E12,2.9679807E12,0E0,0E0,0E0,0E0,0E0,0E0,0E0,0E0],"parents":[2147483647,0,0,1,1,2,2,3,3,4,4,5,5,6,6],"right_children":[2,4,6,8,10,12,14,-1,-1,-1,-1,-1,-1,-1,-1],"split_conditions":[3E0,-1.4395411E-1,2.540143E0,-7.6868534E-1,3E0,-2.9609704E-2,1.926E3,-5.459877E3,-3.1262493E3,-8.091206E3,3.3601263E2,1.1838314E3,9.528606E3,1.1352758E4,4.0574406E4],"split_indices":[4,46,46,47,5,6,0,0,0,0,0,0,0,0,0],"split_type":[0,0,0,0,0,0,0,0,0,0,0,0,0,0,0],"sum_hessian":[9.27E2,6.2E2,3.07E2,3E2,3.2E2,2.93E2,1.4E1,8.9E1,2.11E2,1.8E1,3.02E2,2.43E2,5E1,9E0,5E0],"tree_param":{"num_deleted":"0","num_feature":"48","num_nodes":"15","size_leaf_vector":"1"}},{"base_weights":[4.5318887E3,-1.3485995E4,5.777248E5,-7.949132E4,8.318889E4,1.1868548E6,3.5765053E5,-3.3390183E3,-2.5352284E2,1.6639491E3,1.2753497E4,4.9818406E4,4.915406E1,1.3998399E4,-3.2057468E2],"categories":[],"categories_nodes":[],"categories_segments":[],"categories_sizes":[],"default_left":[0,0,0,0,0,0,0,0,0,0,0,0,0,0,0],"id":21,"left_children":[1,3,5,7,9,11,13,-1,-1,-1,-1,-1,-1,-1,-1],"loss_changes":[9.488642E12,5.692135E12,3.3290285E12,1.1967264E12,3.4080267E12,3.9278262E12,8.879554E11,0E0,0E0,0E0,0E0,0E0,0E0,0E0,0E0],"parents":[2147483647,0,0,1,1,2,2,3,3,4,4,5,5,6,6],"right_children":[2,4,6,8,10,12,14,-1,-1,-1,-1,-1,-1,-1,-1],"split_conditions":[5E0,1.0493361E-2,1E0,1.8374091E-1,3.7799532E0,1E0,6E0,-3.3390183E3,-2.5352284E2,1.6639491E3,1.2753497E4,4.9818406E4,4.915406E1,1.3998399E4,-3.2057468E2],"split_indices":[4,46,12,7,46,11,3,0,0,0,0,0,0,0,0],"split_type":[0,0,0,0,0,0,0,0,0,0,0,0,0,0,0],"sum_hessian":[9.17E2,8.9E2,2.7E1,5.29E2,3.61E2,6E0,2.1E1,3.65E2,1.64E2,3.35E2,2.6E1,4E0,2E0,1.6E1,5E0],"tree_param":{"num_deleted":"0","num_feature":"48","num_nodes":"15","size_leaf_vector":"1"}},{"base_weights":[5.286054E3,-4.4177495E3,1.0975161E6,-6.272473E4,1.1864532E5,1.2985415E6,-4.644916E3,-3.4853833E3,-7.737664E1,2.6094004E3,2.5349295E4,4.209009E4,1.007659E4],"categories":[],"categories_nodes":[],"categories_segments":[],"categories_sizes":[],"default_left":[0,0,0,0,0,0,0,0,0,0,0,0,0],"id":22,"left_children":[1,3,5,7,9,11,-1,-1,-1,-1,-1,-1,-1],"loss_changes":[9.628547E12,6.47251E12,2.2150811E12,1.9673173E12,6.5963567E12,2.3267377E11,0E0,0E0,0E0,0E0,0E0,0E0,0E0],"parents":[2147483647,0,0,1,1,2,2,3,3,4,4,5,5],"right_children":[2,4,6,8,10,12,-1,-1,-1,-1,-1,-1,-1],"split_conditions":[3.649095E0,3E0,2.018E3,-5.5923034E-2,3.7799532E0,-2.6592735E-2,-4.644916E3,-3.4853833E3,-7.737664E1,2.6094004E3,2.5349295E4,4.209009E4,1.007659E4],"split_indices":[7,4,0,46,46,6,0,0,0,0,0,0,0],"split_type":[0,0,0,0,0,0,0,0,0,0,0,0,0],"sum_hessian":[9.07E2,9E2,7E0,6.11E2,2.89E2,6E0,1E0,3.23E2,2.88E2,2.78E2,1.1E1,5E0,1E0],"tree_param":{"num_deleted":"0","num_feature":"48","num_nodes":"13","size_leaf_vector":"1"}},{"base_weights":[4.4186226E3,-2.6244646E4,3.0850406E5,-4.046974E4,4.1043675E5,1.10143555E5,5.5616625E5,-3.1838367E3,4.1123502E2,1.7764095E2,2.0645129E4,6.356652E2,5.640579E3,1.2837774E4,3.1888672E4],"categories":[],"categories_nodes":[],"categories_segments":[],"categories_sizes":[],"default_left":[0,0,0,0,0,0,0,0,0,0,0,0,0,0,0],"id":23,"left_children":[1,3,5,7,9,11,13,-1,-1,-1,-1,-1,-1,-1,-1],"loss_changes":[8.754247E12,5.3153046E12,4.1636111E12,2.943259E12,3.029315E12,3.3545945E11,2.0147874E12,0E0,0E0,0E0,0E0,0E0,0E0,0E0,0E0],"parents":[2147483647,0,0,1,1,2,2,3,3,4,4,5,5,6,6],"right_children":[2,4,6,8,10,12,14,-1,-1,-1,-1,-1,-1,-1,-1],"split_conditions":[4E0,3.7799532E0,1.5539651E-2,-3.090309E-1,-3.092702E-1,1E0,3.2683916E0,-3.1838367E3,4.1123502E2,1.7764095E2,2.0645129E4,6.356652E2,5.640579E3,1.2837774E4,3.1888672E4],"split_indices":[4,46,46,46,7,20,7,0,0,0,0,0,0,0,0],"split_type":[0,0,0,0,0,0,0,0,0,0,0,0,0,0,0],"sum_hessian":[9.37E2,8.52E2,8.5E1,8.26E2,2.6E1,4.8E1,3.7E1,3.73E2,4.53E2,1.1E1,1.5E1,2.3E1,2.5E1,3.1E1,6E0],"tree_param":{"num_deleted":"0","num_feature":"48","num_nodes":"15","size_leaf_vector":"1"}},{"base_weights":[7.637195E1,-2.8054033E4,3.0704847E5,-8.2019664E4,5.5974535E4,2.28702E5,8.326036E5,-4.8494253E3,-1.8548013E3,-1.3238295E3,3.5731812E3,2.0636265E3,1.0972946E4,3.2730352E4,-4.0205835E3],"categories":[],"categories_nodes":[],"categories_segments":[],"categories_sizes":[],"default_left":[0,0,0,0,0,0,0,0,0,0,0,0,0,0,0],"id":24,"left_children":[1,3,5,7,9,11,13,-1,-1,-1,-1,-1,-1,-1,-1],"loss_changes":[8.229371E12,3.9633447E12,3.1036135E12,8.454199E11,2.1665596E12,1.5310418E12,2.6440494E12,0E0,0E0,0E0,0E0,0E0,0E0,0E0,0E0],"parents":[2147483647,0,0,1,1,2,2,3,3,4,4,5,5,6,6],"right_children":[2,4,6,8,10,12,14,-1,-1,-1,-1,-1,-1,-1,-1],"split_conditions":[4E0,1.0681957E-2,3.649095E0,-7.6868534E-1,-3.5685813E-1,1.3803383E-2,1E0,-4.8494253E3,-1.8548013E3,-1.3238295E3,3.5731812E3,2.0636265E3,1.0972946E4,3.2730352E4,-4.0205835E3],"split_indices":[4,46,7,47,7,46,33,0,0,0,0,0,0,0,0],"split_type":[0,0,0,0,0,0,0,0,0,0,0,0,0,0,0],"sum_hessian":[9.51E2,8.72E2,7.9E1,5.31E2,3.41E2,7E1,9E0,1.06E2,4.25E2,1.32E2,2.09E2,3.3E1,3.7E1,7E0,2E0],"tree_param":{"num_deleted":"0","num_feature":"48","num_nodes":"15","size_leaf_vector":"1"}},{"base_weights":[4.978186E3,-2.6877441E4,3.1273456E5,-7.803201E4,5.341082E4,2.445341E5,7.555074E5,-3.1431055E3,-3.4968378E2,-1.7894218E2,5.319242E3,3.1620083E3,1.1013585E4,2.9015328E4,-3.9401724E3],"categories":[],"categories_nodes":[],"categories_segments":[],"categories_sizes":[],"default_left":[0,0,0,0,0,0,0,0,0,0,0,0,0,0,0],"id":25,"left_children":[1,3,5,7,9,11,13,-1,-1,-1,-1,-1,-1,-1,-1],"loss_changes":[8.988661E12,3.417177E12,2.4122218E12,9.0036214E11,2.3845536E12,1.2575446E12,2.1919375E12,0E0,0E0,0E0,0E0,0E0,0E0,0E0,0E0],"parents":[2147483647,0,0,1,1,2,2,3,3,4,4,5,5,6,6],"right_children":[2,4,6,8,10,12,14,-1,-1,-1,-1,-1,-1,-1,-1],"split_conditions":[4E0,1.0493361E-2,3.2683916E0,1.985E3,1.4757408E-1,1.4099358E-2,1E0,-3.1431055E3,-3.4968378E2,-1.7894218E2,5.319242E3,3.1620083E3,1.1013585E4,2.9015328E4,-3.9401724E3],"split_indices":[4,46,7,0,7,46,45,0,0,0,0,0,0,0,0],"split_type":[0,0,0,0,0,0,0,0,0,0,0,0,0,0,0],"sum_hessian":[9.15E2,8.3E2,8.5E1,5.07E2,3.23E2,7.5E1,1E1,3.61E2,1.46E2,2.19E2,1.04E2,3.6E1,3.9E1,8E0,2E0],"tree_param":{"num_deleted":"0","num_feature":"48","num_nodes":"15","size_leaf_vector":"1"}},{"base_weights":[-2.764807E3,-2.9168697E4,2.6935778E5,-3.972385E4,3.048465E5,9.951206E4,5.0621312E5,-2.628935E3,2.9470108E2,4.7508105E3,2.3002207E4,1.6193336E3,8.876672E3,8.98635E3,2.2440693E4],"categories":[],"categories_nodes":[],"categories_segments":[],"categories_sizes":[],"default_left":[0,0,0,0,0,0,0,0,0,0,0,0,0,0,0],"id":26,"left_children":[1,3,5,7,9,11,13,-1,-1,-1,-1,-1,-1,-1,-1],"loss_changes":[6.661254E12,2.9912266E12,3.248393E12,1.947274E12,1.6377656E12,4.2218088E11,1.4750633E12,0E0,0E0,0E0,0E0,0E0,0E0,0E0,0E0],"parents":[2147483647,0,0,1,1,2,2,3,3,4,4,5,5,6,6],"right_children":[2,4,6,8,10,12,14,-1,-1,-1,-1,-1,-1,-1,-1],"split_conditions":[4E0,3.7799532E0,2.7106813E-1,-5.5923034E-2,1.99E3,2.008E3,-3.2177057E-2,-2.628935E3,2.9470108E2,4.7508105E3,2.3002207E4,1.6193336E3,8.876672E3,8.98635E3,2.2440693E4],"split_indices":[4,46,47,46,0,0,6,0,0,0,0,0,0,0,0],"split_type":[0,0,0,0,0,0,0,0,0,0,0,0,0,0,0],"sum_hessian":[9.25E2,8.44E2,8.1E1,8.19E2,2.5E1,4.8E1,3.3E1,4.16E2,4.03E2,2E1,5E0,4E1,8E0,1.9E1,1.4E1],"tree_param":{"num_deleted":"0","num_feature":"48","num_nodes":"15","size_leaf_vector":"1"}},{"base_weights":[4.788516E2,-5.910826E4,1.2179353E5,-7.052038E4,3.0738875E5,6.147899E3,2.5185217E5,-3.320579E3,-8.38118E2,1.6493515E2,2.1654047E4,-2.1470276E3,2.0527058E3,5.829451E3,1.8604764E4],"categories":[],"categories_nodes":[],"categories_segments":[],"categories_sizes":[],"default_left":[0,0,0,0,0,0,0,0,0,0,0,0,0,0,0],"id":27,"left_children":[1,3,5,7,9,11,13,-1,-1,-1,-1,-1,-1,-1,-1],"loss_changes":[6.715517E12,2.6273807E12,4.6009093E12,1.0316853E12,2.3730732E12,7.9378114E11,2.9310425E12,0E0,0E0,0E0,0E0,0E0,0E0,0E0,0E0],"parents":[2147483647,0,0,1,1,2,2,3,3,4,4,5,5,6,6],"right_children":[2,4,6,8,10,12,14,-1,-1,-1,-1,-1,-1,-1,-1],"split_conditions":[2.4560525E-1,3.7799532E0,1.2660806E-2,-5.5923034E-2,-3.092702E-1,1E0,5E0,-3.320579E3,-8.38118E2,1.6493515E2,2.1654047E4,-2.1470276E3,2.0527058E3,5.829451E3,1.8604764E4],"split_indices":[7,46,46,46,7,15,4,0,0,0,0,0,0,0,0],"split_type":[0,0,0,0,0,0,0,0,0,0,0,0,0,0,0],"sum_hessian":[9.27E2,6.22E2,3.05E2,6.04E2,1.8E1,1.62E2,1.43E2,3.1E2,2.94E2,1.1E1,7E0,7.2E1,9E1,1.25E2,1.8E1],"tree_param":{"num_deleted":"0","num_feature":"48","num_nodes":"15","size_leaf_vector":"1"}},{"base_weights":[6.3132294E2,-1.5340764E4,4.8030528E5,-6.4953668E4,6.7883664E4,3.1093225E4,6.713441E5,-2.067201E3,1.5200544E4,9.954862E2,1.0712972E4,-1.9050079E3,8.1893438E3,3.0327059E4,8.122649E3],"categories":[],"categories_nodes":[],"categories_segments":[],"categories_sizes":[],"default_left":[0,0,0,0,0,0,0,0,0,0,0,0,0,0,0],"id":28,"left_children":[1,3,5,7,9,11,13,-1,-1,-1,-1,-1,-1,-1,-1],"loss_changes":[7.132465E12,3.7246437E12,2.5536333E12,1.3116451E12,3.3702832E12,2.4614153E11,2.582781E12,0E0,0E0,0E0,0E0,0E0,0E0,0E0,0E0],"parents":[2147483647,0,0,1,1,2,2,3,3,4,4,5,5,6,6],"right_children":[2,4,6,8,10,12,14,-1,-1,-1,-1,-1,-1,-1,-1],"split_conditions":[5E0,7.1433365E-2,1.1518229E-2,6.144808E-1,9.1813636E-1,1.999E3,1E0,-2.067201E3,1.5200544E4,9.954862E2,1.0712972E4,-1.9050079E3,8.1893438E3,3.0327059E4,8.122649E3],"split_indices":[4,7,46,6,46,0,11,0,0,0,0,0,0,0,0],"split_type":[0,0,0,0,0,0,0,0,0,0,0,0,0,0,0],"sum_hessian":[9.29E2,9E2,2.9E1,5.64E2,3.36E2,9E0,2E1,5.61E2,3E0,3.01E2,3.5E1,7E0,2E0,1E1,1E1],"tree_param":{"num_deleted":"0","num_feature":"48","num_nodes":"15","size_leaf_vector":"1"}},{"base_weights":[-6.691179E3,-4.2241465E4,1.4403158E5,-9.42693E4,6.2656646E3,2.482353E4,2.5260389E5,-3.6801038E3,-8.5820294E2,-7.5420864E3,6.297771E2,-2.5474863E2,5.8315645E3,6.7261055E3,2.4640834E4],"categories":[],"categories_nodes":[],"categories_segments":[],"categories_sizes":[],"default_left":[0,0,0,0,0,0,0,0,0,0,0,0,0,0,0],"id":29,"left_children":[1,3,5,7,9,11,13,-1,-1,-1,-1,-1,-1,-1,-1],"loss_changes":[4.9410207E12,1.8832863E12,2.2716432E12,6.678441E11,1.4738112E12,4.8181412E11,1.3019162E12,0E0,0E0,0E0,0E0,0E0,0E0,0E0,0E0],"parents":[2147483647,0,0,1,1,2,2,3,3,4,4,5,5,6,6],"right_children":[2,4,6,8,10,12,14,-1,-1,-1,-1,-1,-1,-1,-1],"split_conditions":[7.0625657E-1,-5.5923034E-2,-1.10220194E-1,1E0,3E0,2.008E3,6E0,-3.6801038E3,-8.5820294E2,-7.5420864E3,6.297771E2,-2.5474863E2,5.8315645E3,6.7261055E3,2.4640834E4],"split_indices":[7,46,47,19,5,0,4,0,0,0,0,0,0,0,0],"split_type":[0,0,0,0,0,0,0,0,0,0,0,0,0,0,0],"sum_hessian":[9.2E2,7.45E2,1.75E2,3.59E2,3.86E2,8.4E1,9.1E1,2.5E2,1.09E2,2E1,3.66E2,7.1E1,1.3E1,8.8E1,3E0],"tree_param":{"num_deleted":"0","num_feature":"48","num_nodes":"15","size_leaf_vector":"1"}},{"base_weights":[5.8500674E3,-2.6959285E4,2.2829794E5,-3.8199242E4,3.9555528E5,6.941255E4,4.387841E5,-3.0339314E3,-1.1461014E2,1.9241187E3,3.1476865E4,5.340624E2,7.620703E3,1.0484632E4,2.850446E4],"categories":[],"categories_nodes":[],"categories_segments":[],"categories_sizes":[],"default_left":[0,0,0,0,0,0,0,0,0,0,0,0,0,0,0],"id":30,"left_children":[1,3,5,7,9,11,13,-1,-1,-1,-1,-1,-1,-1,-1],"loss_changes":[6.7571475E12,3.8475902E12,3.9492806E12,1.7023089E12,4.4821287E12,6.528998E11,1.9967477E12,0E0,0E0,0E0,0E0,0E0,0E0,0E0,0E0],"parents":[2147483647,0,0,1,1,2,2,3,3,4,4,5,5,6,6],"right_children":[2,4,6,8,10,12,14,-1,-1,-1,-1,-1,-1,-1,-1],"split_conditions":[1.0231923E0,3.7799532E0,2.6300332E-1,-5.017637E-1,1.987E3,2.008E3,3.649095E0,-3.0339314E3,-1.1461014E2,1.9241187E3,3.1476865E4,5.340624E2,7.620703E3,1.0484632E4,2.850446E4],"split_indices":[7,46,47,46,0,0,7,0,0,0,0,0,0,0,0],"split_type":[0,0,0,0,0,0,0,0,0,0,0,0,0,0,0],"sum_hessian":[9.24E2,8.06E2,1.18E2,7.86E2,2E1,6.8E1,5E1,2.77E2,5.09E2,1.4E1,6E0,5.4E1,1.4E1,4.4E1,6E0],"tree_param":{"num_deleted":"0","num_feature":"48","num_nodes":"15","size_leaf_vector":"1"}},{"base_weights":[-7.1213413E3,-2.1273121E4,4.7540162E5,-8.2578336E4,2.6876389E4,9.432618E4,7.4856856E5,-3.1728674E3,-4.8242963E2,-1.5816648E3,2.5021704E3,-5.914154E2,9.82004E3,3.0911928E4,8.378355E3],"categories":[],"categories_nodes":[],"categories_segments":[],"categories_sizes":[],"default_left":[0,0,0,0,0,0,0,0,0,0,0,0,0,0,0],"id":31,"left_children":[1,3,5,7,9,11,13,-1,-1,-1,-1,-1,-1,-1,-1],"loss_changes":[6.23093E12,2.6175283E12,2.6359182E12,5.995498E11,2.2407233E12,3.253206E11,1.6961257E12,0E0,0E0,0E0,0E0,0E0,0E0,0E0,0E0],"parents":[2147483647,0,0,1,1,2,2,3,3,4,4,5,5,6,6],"right_children":[2,4,6,8,10,12,14,-1,-1,-1,-1,-1,-1,-1,-1],"split_conditions":[5E0,-3.090309E-1,-1.10220194E-1,1.992E3,-2.7976567E-1,1.999E3,3E0,-3.1728674E3,-4.8242963E2,-1.5816648E3,2.5021704E3,-5.914154E2,9.82004E3,3.0911928E4,8.378355E3],"split_indices":[4,46,47,0,7,0,1,0,0,0,0,0,0,0,0],"split_type":[0,0,0,0,0,0,0,0,0,0,0,0,0,0,0],"sum_hessian":[9.1E2,8.85E2,2.5E1,3.89E2,4.96E2,1.1E1,1.4E1,2.88E2,1.01E2,2.06E2,2.9E2,8E0,3E0,8E0,6E0],"tree_param":{"num_deleted":"0","num_feature":"48","num_nodes":"15","size_leaf_vector":"1"}},{"base_weights":[-6.2962128E1,-1.3689726E4,4.1964344E5,-2.4503008E4,3.0936284E5,1.1962443E5,6.42033E5,-1.9245819E3,1.2214938E3,4.763706E3,2.6555652E4,-5.4728174E2,1.1143015E4,3.47689E4,4.9285674E3],"categories":[],"categories_nodes":[],"categories_segments":[],"categories_sizes":[],"default_left":[0,0,0,0,0,0,0,0,0,0,0,0,0,0,0],"id":32,"left_children":[1,3,5,7,9,11,13,-1,-1,-1,-1,-1,-1,-1,-1],"loss_changes":[5.456181E12,3.2353514E12,1.9248301E12,2.317023E12,2.4605483E12,4.928035E11,4.0079537E12,0E0,0E0,0E0,0E0,0E0,0E0,0E0,0E0],"parents":[2147483647,0,0,1,1,2,2,3,3,4,4,5,5,6,6],"right_children":[2,4,6,8,10,12,14,-1,-1,-1,-1,-1,-1,-1,-1],"split_conditions":[5E0,3.7799532E0,-1.10220194E-1,7.1433365E-2,1.987E3,1.999E3,1E0,-1.9245819E3,1.2214938E3,4.763706E3,2.6555652E4,-5.4728174E2,1.1143015E4,3.47689E4,4.9285674E3],"split_indices":[4,46,47,7,0,0,29,0,0,0,0,0,0,0,0],"split_type":[0,0,0,0,0,0,0,0,0,0,0,0,0,0,0],"sum_hessian":[9.52E2,9.23E2,2.9E1,8.94E2,2.9E1,1.3E1,1.6E1,5.56E2,3.38E2,2.4E1,5E0,9E0,4E0,7E0,9E0],"tree_param":{"num_deleted":"0","num_feature":"48","num_nodes":"15","size_leaf_vector":"1"}},{"base_weights":[9.6553674E2,-5.215482E4,1.1328412E5,-5.6459594E4,4.035166E5,8.120654E4,6.715713E5,-2.988698E3,-2.623757E2,-5.258237E2,1.8552615E4,1.9665267E3,2.0606557E4,8.606735E3,3.3755266E4],"categories":[],"categories_nodes":[],"categories_segments":[],"categories_sizes":[],"default_left":[0,0,0,0,0,0,0,0,0,0,0,0,0,0,0],"id":33,"left_children":[1,3,5,7,9,11,13,-1,-1,-1,-1,-1,-1,-1,-1],"loss_changes":[5.5188647E12,1.2546433E12,5.26429E12,1.2821976E12,5.537435E11,2.6289798E12,2.4690777E12,0E0,0E0,0E0,0E0,0E0,0E0,0E0,0E0],"parents":[2147483647,0,0,1,1,2,2,3,3,4,4,5,5,6,6],"right_children":[2,4,6,8,10,12,14,-1,-1,-1,-1,-1,-1,-1,-1],"split_conditions":[3E0,6.144808E-1,2.540143E0,-1.10220194E-1,-6.8015295E-1,3.649095E0,1.926E3,-2.988698E3,-2.623757E2,-5.258237E2,1.8552615E4,1.9665267E3,2.0606557E4,8.606735E3,3.3755266E4],"split_indices":[4,6,46,47,46,7,0,0,0,0,0,0,0,0,0],"split_type":[0,0,0,0,0,0,0,0,0,0,0,0,0,0,0],"sum_hessian":[9.23E2,6.27E2,2.96E2,6.22E2,5E0,2.81E2,1.5E1,3.26E2,2.96E2,2E0,3E0,2.75E2,6E0,9E0,6E0],"tree_param":{"num_deleted":"0","num_feature":"48","num_nodes":"15","size_leaf_vector":"1"}},{"base_weights":[2.8787102E3,-1.0871502E4,4.0287266E5,-2.2959248E4,3.9727556E5,8.753508E5,2.7834416E5,-1.9254445E3,1.0349982E3,1.264481E3,1.7484125E4,-2.1649846E3,4.1014523E4,9.907187E3,-1.6993462E2],"categories":[],"categories_nodes":[],"categories_segments":[],"categories_sizes":[],"default_left":[0,0,0,0,0,0,0,0,0,0,0,0,0,0,0],"id":34,"left_children":[1,3,5,7,9,11,13,-1,-1,-1,-1,-1,-1,-1,-1],"loss_changes":[5.130382E12,4.4592084E12,1.5802979E12,2.079473E12,1.6884726E12,2.8945956E12,3.8507787E11,0E0,0E0,0E0,0E0,0E0,0E0,0E0,0E0],"parents":[2147483647,0,0,1,1,2,2,3,3,4,4,5,5,6,6],"right_children":[2,4,6,8,10,12,14,-1,-1,-1,-1,-1,-1,-1,-1],"split_conditions":[5E0,3.7799532E0,1E0,-3.5163634E-2,-3.5685813E-1,-3.0425498E-2,1E0,-1.9254445E3,1.0349982E3,1.264481E3,1.7484125E4,-2.1649846E3,4.1014523E4,9.907187E3,-1.6993462E2],"split_indices":[4,46,12,7,7,6,36,0,0,0,0,0,0,0,0],"split_type":[0,0,0,0,0,0,0,0,0,0,0,0,0,0,0],"sum_hessian":[9.31E2,9.01E2,3E1,8.76E2,2.5E1,5E0,2.5E1,5.1E2,3.66E2,9E0,1.6E1,2E0,3E0,2.1E1,4E0],"tree_param":{"num_deleted":"0","num_feature":"48","num_nodes":"15","size_leaf_vector":"1"}},{"base_weights":[3.1643696E3,-4.376635E4,1.1582098E5,-5.311333E4,2.889249E5,3.6818832E4,2.5133647E5,-1.3795872E3,-7.498007E3,3.958175E3,2.4161705E4,-1.162772E3,2.6200361E3,4.751136E3,1.305855E4],"categories":[],"categories_nodes":[],"categories_segments":[],"categories_sizes":[],"default_left":[0,0,0,0,0,0,0,0,0,0,0,0,0,0,0],"id":35,"left_children":[1,3,5,7,9,11,13,-1,-1,-1,-1,-1,-1,-1,-1],"loss_changes":[4.8903084E12,2.0459519E12,2.9027824E12,8.8065874E11,1.353136E12,6.638767E11,1.6411452E12,0E0,0E0,0E0,0E0,0E0,0E0,0E0,0E0],"parents":[2147483647,0,0,1,1,2,2,3,3,4,4,5,5,6,6],"right_children":[2,4,6,8,10,12,14,-1,-1,-1,-1,-1,-1,-1,-1],"split_conditions":[2.9224142E-1,3.7799532E0,2.7106813E-1,2.540143E0,1.99E3,1E0,1E0,-1.3795872E3,-7.498007E3,3.958175E3,2.4161705E4,-1.162772E3,2.6200361E3,4.751136E3,1.305855E4],"split_indices":[7,46,47,46,0,15,26,0,0,0,0,0,0,0,0],"split_type":[0,0,0,0,0,0,0,0,0,0,0,0,0,0,0],"sum_hessian":[9.23E2,6.52E2,2.71E2,6.35E2,1.7E1,1.72E2,9.9E1,6.14E2,2.1E1,1.4E1,3E0,6.9E1,1.03E2,6.7E1,3.2E1],"tree_param":{"num_deleted":"0","num_feature":"48","num_nodes":"15","size_leaf_vector":"1"}},{"base_weights":[6.922744E3,-1.8550265E3,6.807712E5,-1.3001349E4,3.827644E5,3.9600137E4,3.2102622E5,-1.5351372E3,2.0742908E3,5.223454E3,2.4913826E4,1.4674798E4,-5.3488354E3],"categories":[],"categories_nodes":[],"categories_segments":[],"categories_sizes":[],"default_left":[0,0,0,0,0,0,0,0,0,0,0,0,0],"id":36,"left_children":[1,3,5,7,9,-1,11,-1,-1,-1,-1,-1,-1],"loss_changes":[5.5198524E12,3.9576753E12,2.335776E12,2.8160298E12,2.2841045E12,0E0,8.427883E11,0E0,0E0,0E0,0E0,0E0,0E0],"parents":[2147483647,0,0,1,1,2,2,3,3,4,4,6,6],"right_children":[2,4,6,8,10,-1,12,-1,-1,-1,-1,-1,-1],"split_conditions":[3.2683916E0,3.7799532E0,1E0,2.4560525E-1,1.987E3,3.9600137E4,1E0,-1.5351372E3,2.0742908E3,5.223454E3,2.4913826E4,1.4674798E4,-5.3488354E3],"split_indices":[7,46,12,7,0,0,28,0,0,0,0,0,0],"split_type":[0,0,0,0,0,0,0,0,0,0,0,0,0],"sum_hessian":[9.32E2,9.21E2,1.1E1,8.96E2,2.5E1,3E0,8E0,6.12E2,2.84E2,1.8E1,7E0,6E0,2E0],"tree_param":{"num_deleted":"0","num_feature":"48","num_nodes":"13","size_leaf_vector":"1"}},{"base_weights":[-1.3968472E3,-2.576571E4,2.1006838E5,-7.604071E4,1.360697E4,4.6156466E5,1.3349522E5,-2.4634521E3,1.4826543E4,-7.733564E2,3.2685852E3,2.4605061E2,1.7832727E4,1.6524912E3,7.894451E3],"categories":[],"categories_nodes":[],"categories_segments":[],"categories_sizes":[],"default_left":[0,0,0,0,0,0,0,0,0,0,0,0,0,0,0],"id":37,"left_children":[1,3,5,7,9,11,13,-1,-1,-1,-1,-1,-1,-1,-1],"loss_changes":[4.7875516E12,1.649926E12,1.7871384E12,1.3083923E12,1.7602639E12,1.3202647E12,7.4798386E11,0E0,0E0,0E0,0E0,0E0,0E0,0E0,0E0],"parents":[2147483647,0,0,1,1,2,2,3,3,4,4,5,5,6,6],"right_children":[2,4,6,8,10,12,14,-1,-1,-1,-1,-1,-1,-1,-1],"split_conditions":[4E0,-2.7976567E-1,1.939E3,6.144808E-1,2.6300332E-1,-1.0375937E-1,1E0,-2.4634521E3,1.4826543E4,-7.733564E2,3.2685852E3,2.4605061E2,1.7832727E4,1.6524912E3,7.894451E3],"split_indices":[4,7,0,6,47,47,26,0,0,0,0,0,0,0,0],"split_type":[0,0,0,0,0,0,0,0,0,0,0,0,0,0,0],"sum_hessian":[9.27E2,8.32E2,9.5E1,3.65E2,4.67E2,2.1E1,7.4E1,3.62E2,3E0,3.31E2,1.36E2,5E0,1.6E1,4.7E1,2.7E1],"tree_param":{"num_deleted":"0","num_feature":"48","num_nodes":"15","size_leaf_vector":"1"}},{"base_weights":[3.431647E2,-5.2111895E4,9.356046E4,-5.5670207E4,4.8309822E5,2.43101E4,2.4097811E5,-2.948089E3,-7.3301825E2,4.1638027E3,2.274019E4,-1.3502065E3,2.1564517E3,5.7897505E3,1.913585E4],"categories":[],"categories_nodes":[],"categories_segments":[],"categories_sizes":[],"default_left":[0,0,0,0,0,0,0,0,0,0,0,0,0,0,0],"id":38,"left_children":[1,3,5,7,9,11,13,-1,-1,-1,-1,-1,-1,-1,-1],"loss_changes":[4.5083064E12,1.1505163E12,3.383438E12,7.786888E11,2.7340243E11,7.517727E11,1.8956713E12,0E0,0E0,0E0,0E0,0E0,0E0,0E0,0E0],"parents":[2147483647,0,0,1,1,2,2,3,3,4,4,5,5,6,6],"right_children":[2,4,6,8,10,12,14,-1,-1,-1,-1,-1,-1,-1,-1],"split_conditions":[1.4757408E-1,6.144808E-1,2.7106813E-1,-4.0893552E-1,1E0,1E0,3.7799532E0,-2.948089E3,-7.3301825E2,4.1638027E3,2.274019E4,-1.3502065E3,2.1564517E3,5.7897505E3,1.913585E4],"split_indices":[7,6,47,47,38,15,46,0,0,0,0,0,0,0,0],"split_type":[0,0,0,0,0,0,0,0,0,0,0,0,0,0,0],"sum_hessian":[9.2E2,5.89E2,3.31E2,5.86E2,3E0,2.26E2,1.05E2,2.47E2,3.39E2,2E0,1E0,9.2E1,1.34E2,9.5E1,1E1],"tree_param":{"num_deleted":"0","num_feature":"48","num_nodes":"15","size_leaf_vector":"1"}},{"base_weights":[2.069746E2,-6.5234363E4,5.404575E4,-9.4584E4,7.215867E3,9.620846E3,1.6884714E5,-6.038911E3,-2.4778286E3,-1.0205573E3,3.131236E3,2.041226E1,1.3926262E4,1.8560818E4,3.8845308E3],"categories":[],"categories_nodes":[],"categories_segments":[],"categories_sizes":[],"default_left":[0,0,0,0,0,0,0,0,0,0,0,0,0,0,0],"id":39,"left_children":[1,3,5,7,9,11,13,-1,-1,-1,-1,-1,-1,-1,-1],"loss_changes":[3.223805E12,8.7888075E11,2.558596E12,3.595347E11,4.8430475E11,1.4749938E12,2.3989E12,0E0,0E0,0E0,0E0,0E0,0E0,0E0,0E0],"parents":[2147483647,0,0,1,1,2,2,3,3,4,4,5,5,6,6],"right_children":[2,4,6,8,10,12,14,-1,-1,-1,-1,-1,-1,-1,-1],"split_conditions":[-1.4395411E-1,1.987E3,4.1216305E-1,-1.1312069E0,1E0,3.9870825E-2,-3.4127384E-2,-6.038911E3,-2.4778286E3,-1.0205573E3,3.131236E3,2.041226E1,1.3926262E4,1.8560818E4,3.8845308E3],"split_indices":[46,0,7,46,20,6,6,0,0,0,0,0,0,0,0],"split_type":[0,0,0,0,0,0,0,0,0,0,0,0,0,0,0],"sum_hessian":[9.13E2,4.12E2,5.01E2,2.93E2,1.19E2,3.62E2,1.39E2,2.8E1,2.65E2,8.4E1,3.5E1,3.56E2,6E0,1E1,1.29E2],"tree_param":{"num_deleted":"0","num_feature":"48","num_nodes":"15","size_leaf_vector":"1"}},{"base_weights":[1.3977637E3,-4.743137E4,7.36715E4,-7.5031875E4,9.070365E3,-7.8958413E3,1.6981633E5,-3.7929846E3,-1.6338049E3,8.477625E3,-5.0295246E1,-5.011488E2,1.7812688E4,4.1353325E3,1.4985871E4],"categories":[],"categories_nodes":[],"categories_segments":[],"categories_sizes":[],"default_left":[0,0,0,0,0,0,0,0,0,0,0,0,0,0,0],"id":40,"left_children":[1,3,5,7,9,11,13,-1,-1,-1,-1,-1,-1,-1,-1],"loss_changes":[3.3172855E12,8.755467E11,2.9735644E12,3.9175625E11,5.4427278E11,1.1017237E12,1.7653721E12,0E0,0E0,0E0,0E0,0E0,0E0,0E0,0E0],"parents":[2147483647,0,0,1,1,2,2,3,3,4,4,5,5,6,6],"right_children":[2,4,6,8,10,12,14,-1,-1,-1,-1,-1,-1,-1,-1],"split_conditions":[1.2660806E-2,1.985E3,-9.003125E-4,-7.34191E-1,1E0,6.144808E-1,3.7799532E0,-3.7929846E3,-1.6338049E3,8.477625E3,-5.0295246E1,-5.011488E2,1.7812688E4,4.1353325E3,1.4985871E4],"split_indices":[46,0,7,47,3,6,46,0,0,0,0,0,0,0,0],"split_type":[0,0,0,0,0,0,0,0,0,0,0,0,0,0,0],"sum_hessian":[9.38E2,5.6E2,3.78E2,3.76E2,1.84E2,2.05E2,1.73E2,1.06E2,2.7E2,6E0,1.78E2,2.03E2,2E0,1.59E2,1.4E1],"tree_param":{"num_deleted":"0","num_feature":"48","num_nodes":"15","size_leaf_vector":"1"}},{"base_weights":[5.5922905E3,-8.70874E3,4.1322194E5,-4.944199E4,5.1843496E4,1.0870762E6,2.4182395E5,-4.006283E3,-9.844191E2,1.2384368E3,1.518426E4,3.9171285E4,-9.1355156E1,9.871962E3,2.0799329E3],"categories":[],"categories_nodes":[],"categories_segments":[],"categories_sizes":[],"default_left":[0,0,0,0,0,0,0,0,0,0,0,0,0,0,0],"id":41,"left_children":[1,3,5,7,9,11,13,-1,-1,-1,-1,-1,-1,-1,-1],"loss_changes":[5.331784E12,2.1829395E12,3.317534E12,7.353868E11,1.6873444E12,1.4339969E12,3.6844732E11,0E0,0E0,0E0,0E0,0E0,0E0,0E0,0E0],"parents":[2147483647,0,0,1,1,2,2,3,3,4,4,5,5,6,6],"right_children":[2,4,6,8,10,12,14,-1,-1,-1,-1,-1,-1,-1,-1],"split_conditions":[5E0,1.2660806E-2,1E0,-7.86344E-1,4.8336345E-3,7E0,1E0,-4.006283E3,-9.844191E2,1.2384368E3,1.518426E4,3.9171285E4,-9.1355156E1,9.871962E3,2.0799329E3],"split_indices":[4,46,12,47,6,3,29,0,0,0,0,0,0,0,0],"split_type":[0,0,0,0,0,0,0,0,0,0,0,0,0,0,0],"sum_hessian":[9.13E2,8.83E2,3E1,5.28E2,3.55E2,5E0,2.5E1,8.6E1,4.42E2,3.48E2,7E0,4E0,1E0,1.6E1,9E0],"tree_param":{"num_deleted":"0","num_feature":"48","num_nodes":"15","size_leaf_vector":"1"}},{"base_weights":[-6.173057E2,-2.2109998E4,1.6229102E5,-3.0028111E4,2.771918E5,8.675771E3,2.9191984E5,-6.86393E2,-7.7257188E3,2.2823625E3,3.338708E4,-8.0813153E2,4.12172E3,1.1929314E4,4.674165E3],"categories":[],"categories_nodes":[],"categories_segments":[],"categories_sizes":[],"default_left":[0,0,0,0,0,0,0,0,0,0,0,0,0,0,0],"id":42,"left_children":[1,3,5,7,9,11,13,-1,-1,-1,-1,-1,-1,-1,-1],"loss_changes":[3.2143156E12,1.9303173E12,2.1281545E12,1.2804471E12,3.444851E12,2.3290035E11,7.726967E11,0E0,0E0,0E0,0E0,0E0,0E0,0E0,0E0],"parents":[2147483647,0,0,1,1,2,2,3,3,4,4,5,5,6,6],"right_children":[2,4,6,8,10,12,14,-1,-1,-1,-1,-1,-1,-1,-1],"split_conditions":[1.0231923E0,3.7799532E0,-1.10220194E-1,2.540143E0,1E0,3E0,1.978E3,-6.86393E2,-7.7257188E3,2.2823625E3,3.338708E4,-8.0813153E2,4.12172E3,1.1929314E4,4.674165E3],"split_indices":[7,46,47,46,39,1,0,0,0,0,0,0,0,0,0],"split_type":[0,0,0,0,0,0,0,0,0,0,0,0,0,0,0],"sum_hessian":[9.16E2,8.1E2,1.06E2,7.9E2,2E1,4.9E1,5.7E1,7.67E2,2.3E1,1.7E1,3E0,3.9E1,1E1,3.1E1,2.6E1],"tree_param":{"num_deleted":"0","num_feature":"48","num_nodes":"15","size_leaf_vector":"1"}},{"base_weights":[3.2243394E3,-3.3664285E4,1.11063016E5,-6.5195473E4,1.7462535E4,3.4652062E4,2.568537E5,-3.9541372E3,-1.5394421E3,1.6782315E2,1.5806179E4,1.6862376E2,4.4091777E3,4.065266E4,6.7856147E3],"categories":[],"categories_nodes":[],"categories_segments":[],"categories_sizes":[],"default_left":[0,0,0,0,0,0,0,0,0,0,0,0,0,0,0],"id":43,"left_children":[1,3,5,7,9,11,13,-1,-1,-1,-1,-1,-1,-1,-1],"loss_changes":[3.6834076E12,1.11348E12,2.6201408E12,3.880334E11,1.5931697E12,5.0785986E11,2.4215012E12,0E0,0E0,0E0,0E0,0E0,0E0,0E0,0E0],"parents":[2147483647,0,0,1,1,2,2,3,3,4,4,5,5,6,6],"right_children":[2,4,6,8,10,12,14,-1,-1,-1,-1,-1,-1,-1,-1],"split_conditions":[4.1977713E-1,1.0493361E-2,2.7106813E-1,-7.86344E-1,4.8336345E-3,2.007E3,4.292947E-1,-3.9541372E3,-1.5394421E3,1.6782315E2,1.5806179E4,1.6862376E2,4.4091777E3,4.065266E4,6.7856147E3],"split_indices":[7,46,47,47,6,0,7,0,0,0,0,0,0,0,0],"split_type":[0,0,0,0,0,0,0,0,0,0,0,0,0,0,0],"sum_hessian":[9.24E2,6.89E2,2.35E2,4.26E2,2.63E2,1.55E2,8E1,7.2E1,3.54E2,2.58E2,5E0,1.24E2,3.1E1,1E0,7.9E1],"tree_param":{"num_deleted":"0","num_feature":"48","num_nodes":"15","size_leaf_vector":"1"}},{"base_weights":[-4.878449E3,-1.4061791E4,5.028061E5,-5.1875332E4,3.836468E4,6.323692E5,-8.0827114E3,-1.6610715E3,1.6850352E4,-3.6576385E2,3.5174297E3,8.909217E2,2.3821033E4],"categories":[],"categories_nodes":[],"categories_segments":[],"categories_sizes":[],"default_left":[0,0,0,0,0,0,0,0,0,0,0,0,0],"id":44,"left_children":[1,3,5,7,9,11,-1,-1,-1,-1,-1,-1,-1],"loss_changes":[4.198425E12,1.7544586E12,1.7712142E12,1.1329031E12,1.4810039E12,1.340455E12,0E0,0E0,0E0,0E0,0E0,0E0,0E0],"parents":[2147483647,0,0,1,1,2,2,3,3,4,4,5,5],"right_children":[2,4,6,8,10,12,-1,-1,-1,-1,-1,-1,-1],"split_conditions":[3.105641E0,-3.040484E-2,1E0,6.144808E-1,1.2660806E-2,1E0,-8.0827114E3,-1.6610715E3,1.6850352E4,-3.6576385E2,3.5174297E3,8.909217E2,2.3821033E4],"split_indices":[7,7,45,6,46,2,0,0,0,0,0,0,0],"split_type":[0,0,0,0,0,0,0,0,0,0,0,0,0],"sum_hessian":[8.98E2,8.83E2,1.5E1,5.13E2,3.7E2,1.3E1,2E0,5.11E2,2E0,2.26E2,1.44E2,3E0,1E1],"tree_param":{"num_deleted":"0","num_feature":"48","num_nodes":"13","size_leaf_vector":"1"}},{"base_weights":[3.6986733E3,-7.6113857E3,3.7637475E5,-3.713149E4,1.1583375E5,1.8301603E5,9.0268306E5,-6.605518E3,-9.229795E2,1.3878297E3,7.3479565E3,2.3736794E3,1.0258573E4,-2.4294469E2,3.1674889E4],"categories":[],"categories_nodes":[],"categories_segments":[],"categories_sizes":[],"default_left":[0,0,0,0,0,0,0,0,0,0,0,0,0,0,0],"id":45,"left_children":[1,3,5,7,9,11,13,-1,-1,-1,-1,-1,-1,-1,-1],"loss_changes":[3.8637942E12,3.2475615E12,2.582484E12,8.310196E11,1.5335238E12,3.1970506E11,9.849311E11,0E0,0E0,0E0,0E0,0E0,0E0,0E0,0E0],"parents":[2147483647,0,0,1,1,2,2,3,3,4,4,5,5,6,6],"right_children":[2,4,6,8,10,12,14,-1,-1,-1,-1,-1,-1,-1,-1],"split_conditions":[3.7799532E0,7.0625657E-1,1.987E3,2E0,2.6300332E-1,1E0,3E0,-6.605518E3,-9.229795E2,1.3878297E3,7.3479565E3,2.3736794E3,1.0258573E4,-2.4294469E2,3.1674889E4],"split_indices":[46,7,0,5,47,23,4,0,0,0,0,0,0,0,0],"split_type":[0,0,0,0,0,0,0,0,0,0,0,0,0,0,0],"sum_hessian":[9.15E2,8.89E2,2.6E1,7.18E2,1.71E2,2E1,6E0,2.3E1,6.95E2,1.12E2,5.9E1,1.3E1,7E0,1E0,5E0],"tree_param":{"num_deleted":"0","num_feature":"48","num_nodes":"15","size_leaf_vector":"1"}},{"base_weights":[2.342065E3,-1.6574682E4,1.7958055E5,-2.5700404E4,2.6801316E5,9.692779E4,4.7898925E5,-5.729299E2,-8.17653E3,-1.3332493E3,1.6170178E4,4.266334E3,-2.9279429E3,2.238129E4,2.9810754E3],"categories":[],"categories_nodes":[],"categories_segments":[],"categories_sizes":[],"default_left":[0,0,0,0,0,0,0,0,0,0,0,0,0,0,0],"id":46,"left_children":[1,3,5,7,9,11,13,-1,-1,-1,-1,-1,-1,-1,-1],"loss_changes":[3.0942353E12,2.1728439E12,2.1560516E12,1.3133763E12,2.225452E12,6.393032E11,1.8520665E12,0E0,0E0,0E0,0E0,0E0,0E0,0E0,0E0],"parents":[2147483647,0,0,1,1,2,2,3,3,4,4,5,5,6,6],"right_children":[2,4,6,8,10,12,14,-1,-1,-1,-1,-1,-1,-1,-1],"split_conditions":[4E0,3.7799532E0,8.235407E-1,2.540143E0,-3.092702E-1,6.856331E-1,1.975E3,-5.729299E2,-8.17653E3,-1.3332493E3,1.6170178E4,4.266334E3,-2.9279429E3,2.238129E4,2.9810754E3],"split_indices":[4,46,46,46,7,9,0,0,0,0,0,0,0,0,0],"split_type":[0,0,0,0,0,0,0,0,0,0,0,0,0,0,0],"sum_hessian":[9.21E2,8.33E2,8.8E1,8.08E2,2.5E1,7E1,1.8E1,7.88E2,2E1,1.2E1,1.3E1,5.7E1,1.3E1,1E1,8E0],"tree_param":{"num_deleted":"0","num_feature":"48","num_nodes":"15","size_leaf_vector":"1"}},{"base_weights":[4.11642E3,-3.458752E4,8.729692E4,-7.720584E4,1.1263436E3,6.573646E4,4.9400056E5,-5.348628E3,-1.9907095E3,-2.2117358E2,1.4816065E4,1.2931569E3,8.462111E3,2.9185586E4,4.7186743E3],"categories":[],"categories_nodes":[],"categories_segments":[],"categories_sizes":[],"default_left":[0,0,0,0,0,0,0,0,0,0,0,0,0,0,0],"id":47,"left_children":[1,3,5,7,9,11,13,-1,-1,-1,-1,-1,-1,-1,-1],"loss_changes":[3.0518034E12,9.84863E11,2.6069104E12,3.1167296E11,1.4819057E12,1.3929657E12,2.2655064E12,0E0,0E0,0E0,0E0,0E0,0E0,0E0,0E0],"parents":[2147483647,0,0,1,1,2,2,3,3,4,4,5,5,6,6],"right_children":[2,4,6,8,10,12,14,-1,-1,-1,-1,-1,-1,-1,-1],"split_conditions":[3E0,-4.0893552E-1,3.7799532E0,-1.123732E0,4.8336345E-3,5E0,1E0,-5.348628E3,-1.9907095E3,-2.2117358E2,1.4816065E4,1.2931569E3,8.462111E3,2.9185586E4,4.7186743E3],"split_indices":[4,47,46,47,6,4,12,0,0,0,0,0,0,0,0],"split_type":[0,0,0,0,0,0,0,0,0,0,0,0,0,0,0],"sum_hessian":[9.46E2,6.46E2,3E2,2.94E2,3.52E2,2.86E2,1.4E1,2.7E1,2.67E2,3.47E2,5E0,2.6E2,2.6E1,5E0,9E0],"tree_param":{"num_deleted":"0","num_feature":"48","num_nodes":"15","size_leaf_vector":"1"}},{"base_weights":[2.4818928E3,-4.0958926E4,6.3960996E4,-6.745119E4,6.0047026E3,2.6213022E3,1.4009177E5,-3.9835144E3,-1.5589288E3,-8.667125E2,2.094378E3,-1.4624248E2,1.2090143E4,2.9711262E3,1.0015522E4],"categories":[],"categories_nodes":[],"categories_segments":[],"categories_sizes":[],"default_left":[0,0,0,0,0,0,0,0,0,0,0,0,0,0,0],"id":48,"left_children":[1,3,5,7,9,11,13,-1,-1,-1,-1,-1,-1,-1,-1],"loss_changes":[2.5157511E12,6.871882E11,1.8208695E12,3.50265E11,4.473338E11,6.5324555E11,1.3510406E12,0E0,0E0,0E0,0E0,0E0,0E0,0E0,0E0],"parents":[2147483647,0,0,1,1,2,2,3,3,4,4,5,5,6,6],"right_children":[2,4,6,8,10,12,14,-1,-1,-1,-1,-1,-1,-1,-1],"split_conditions":[1.2660806E-2,1E0,-9.003125E-4,-7.86344E-1,5.634927E-1,4.8336345E-3,1E0,-3.9835144E3,-1.5589288E3,-8.667125E2,2.094378E3,-1.4624248E2,1.2090143E4,2.9711262E3,1.0015522E4],"split_indices":[46,15,7,47,7,6,39,0,0,0,0,0,0,0,0],"split_type":[0,0,0,0,0,0,0,0,0,0,0,0,0,0,0],"sum_hessian":[9.4E2,5.51E2,3.89E2,3.52E2,1.99E2,2.16E2,1.73E2,6.6E1,2.86E2,1.29E2,7E1,2.13E2,3E0,1.44E2,2.9E1],"tree_param":{"num_deleted":"0","num_feature":"48","num_nodes":"15","size_leaf_vector":"1"}},{"base_weights":[1.647661E3,-3.2334172E4,8.532812E4,-3.902276E4,2.0839338E5,-2.9939082E3,1.569608E5,-1.2492426E3,1.6005139E4,1.7036145E4,7.9350385E2,-9.801405E2,5.8141885E3,3.7093938E3,1.1720854E4],"categories":[],"categories_nodes":[],"categories_segments":[],"categories_sizes":[],"default_left":[0,0,0,0,0,0,0,0,0,0,0,0,0,0,0],"id":49,"left_children":[1,3,5,7,9,11,13,-1,-1,-1,-1,-1,-1,-1,-1],"loss_changes":[2.6387905E12,1.0708162E12,1.6960372E12,9.862357E11,1.162263E12,7.130356E11,1.1041243E12,0E0,0E0,0E0,0E0,0E0,0E0,0E0,0E0],"parents":[2147483647,0,0,1,1,2,2,3,3,4,4,5,5,6,6],"right_children":[2,4,6,8,10,12,14,-1,-1,-1,-1,-1,-1,-1,-1],"split_conditions":[3.7599623E-1,3.7799532E0,-4.0893552E-1,6.144808E-1,1E0,2.008E3,1.9464636E0,-1.2492426E3,1.6005139E4,1.7036145E4,7.9350385E2,-9.801405E2,5.8141885E3,3.7093938E3,1.1720854E4],"split_indices":[7,46,47,6,21,0,9,0,0,0,0,0,0,0,0],"split_type":[0,0,0,0,0,0,0,0,0,0,0,0,0,0,0],"sum_hessian":[9.26E2,6.59E2,2.67E2,6.42E2,1.7E1,1.2E2,1.47E2,6.4E2,2E0,5E0,1.2E1,1.05E2,1.5E1,1.3E2,1.7E1],"tree_param":{"num_deleted":"0","num_feature":"48","num_nodes":"15","size_leaf_vector":"1"}},{"base_weights":[2.3064075E3,-1.3448085E4,1.500895E5,-5.6597016E4,2.3593992E4,1.1738628E5,5.164148E5,-3.4113965E3,-1.1729553E3,-7.7757354E3,9.9806177E2,1.2699631E3,7.4571274E3,2.6754527E4,-8.441843E3],"categories":[],"categories_nodes":[],"categories_segments":[],"categories_sizes":[],"default_left":[0,0,0,0,0,0,0,0,0,0,0,0,0,0,0],"id":50,"left_children":[1,3,5,7,9,11,13,-1,-1,-1,-1,-1,-1,-1,-1],"loss_changes":[2.1509907E12,1.3359376E12,1.0056014E12,3.8134088E11,1.239765E12,8.066917E11,2.3474523E12,0E0,0E0,0E0,0E0,0E0,0E0,0E0,0E0],"parents":[2147483647,0,0,1,1,2,2,3,3,4,4,5,5,6,6],"right_children":[2,4,6,8,10,12,14,-1,-1,-1,-1,-1,-1,-1,-1],"split_conditions":[4E0,-1.4395411E-1,3.649095E0,-7.6868534E-1,2E0,1E0,1E0,-3.4113965E3,-1.1729553E3,-7.7757354E3,9.9806177E2,1.2699631E3,7.4571274E3,2.6754527E4,-8.441843E3],"split_indices":[4,46,7,47,5,26,33,0,0,0,0,0,0,0,0],"split_type":[0,0,0,0,0,0,0,0,0,0,0,0,0,0,0],"sum_hessian":[9.22E2,8.34E2,8.8E1,3.85E2,4.49E2,8.2E1,6E0,8.9E1,2.96E2,1.4E1,4.35E2,5.3E1,2.9E1,4E0,2E0],"tree_param":{"num_deleted":"0","num_feature":"48","num_nodes":"15","size_leaf_vector":"1"}},{"base_weights":[-3.0569866E3,-4.510135E4,5.6812527E4,-4.8362227E4,4.1291375E5,6.6297856E3,1.6446792E5,-5.923847E3,-1.2702163E3,2.7968955E3,2.0579482E4,-3.3552933E2,3.304409E3,3.0998184E3,1.1340898E4],"categories":[],"categories_nodes":[],"categories_segments":[],"categories_sizes":[],"default_left":[0,0,0,0,0,0,0,0,0,0,0,0,0,0,0],"id":51,"left_children":[1,3,5,7,9,11,13,-1,-1,-1,-1,-1,-1,-1,-1],"loss_changes":[2.361156E12,8.429044E11,2.0896552E12,4.8364965E11,2.8522892E11,4.8990922E11,1.5669896E12,0E0,0E0,0E0,0E0,0E0,0E0,0E0,0E0],"parents":[2147483647,0,0,1,1,2,2,3,3,4,4,5,5,6,6],"right_children":[2,4,6,8,10,12,14,-1,-1,-1,-1,-1,-1,-1,-1],"split_conditions":[1.4327831E-2,6.144808E-1,2.6300332E-1,2E0,1E0,2.008E3,-3.0425498E-2,-5.923847E3,-1.2702163E3,2.7968955E3,2.0579482E4,-3.3552933E2,3.304409E3,3.0998184E3,1.1340898E4],"split_indices":[7,6,47,5,38,0,6,0,0,0,0,0,0,0,0],"split_type":[0,0,0,0,0,0,0,0,0,0,0,0,0,0,0],"sum_hessian":[9.36E2,5.5E2,3.86E2,5.47E2,3E0,2.64E2,1.22E2,2E1,5.27E2,2E0,1E0,2.26E2,3.8E1,9.6E1,2.6E1],"tree_param":{"num_deleted":"0","num_feature":"48","num_nodes":"15","size_leaf_vector":"1"}},{"base_weights":[2.571943E3,-9.068193E3,3.317922E5,-3.5691793E4,5.3904336E4,7.4401306E5,2.0309866E5,-1.209004E3,6.000111E3,1.4713475E4,1.1448604E3,3.4817104E3,3.5578977E4,9.199503E3,1.3028595E3],"categories":[],"categories_nodes":[],"categories_segments":[],"categories_sizes":[],"default_left":[0,0,0,0,0,0,0,0,0,0,0,0,0,0,0],"id":52,"left_children":[1,3,5,7,9,11,13,-1,-1,-1,-1,-1,-1,-1,-1],"loss_changes":[3.478786E12,1.4722632E12,1.4934467E12,6.7822394E11,1.7749353E12,1.8050489E12,4.0003404E11,0E0,0E0,0E0,0E0,0E0,0E0,0E0,0E0],"parents":[2147483647,0,0,1,1,2,2,3,3,4,4,5,5,6,6],"right_children":[2,4,6,8,10,12,14,-1,-1,-1,-1,-1,-1,-1,-1],"split_conditions":[5E0,2.8462738E-1,1E0,3.9870825E-2,5E0,-3.0425498E-2,1E0,-1.209004E3,6.000111E3,1.4713475E4,1.1448604E3,3.4817104E3,3.5578977E4,9.199503E3,1.3028595E3],"split_indices":[4,7,12,6,5,6,29,0,0,0,0,0,0,0,0],"split_type":[0,0,0,0,0,0,0,0,0,0,0,0,0,0,0],"sum_hessian":[9.06E2,8.76E2,3E1,6.16E2,2.6E2,6E0,2.4E1,6.05E2,1.1E1,8E0,2.52E2,3E0,3E0,1.4E1,1E1],"tree_param":{"num_deleted":"0","num_feature":"48","num_nodes":"15","size_leaf_vector":"1"}},{"base_weights":[6.674839E3,-1.4843025E4,1.6162056E5,-5.832517E4,1.6627879E4,4.2185082E4,2.5918547E5,-2.404412E3,-2.0735286E2,3.2814896E2,1.3729314E4,-4.723766E2,4.8714287E3,6.013333E3,1.8918955E4],"categories":[],"categories_nodes":[],"categories_segments":[],"categories_sizes":[],"default_left":[0,0,0,0,0,0,0,0,0,0,0,0,0,0,0],"id":53,"left_children":[1,3,5,7,9,11,13,-1,-1,-1,-1,-1,-1,-1,-1],"loss_changes":[3.0897762E12,1.1148657E12,1.3058226E12,3.831489E11,1.1818436E12,3.646361E11,1.226381E12,0E0,0E0,0E0,0E0,0E0,0E0,0E0,0E0],"parents":[2147483647,0,0,1,1,2,2,3,3,4,4,5,5,6,6],"right_children":[2,4,6,8,10,12,14,-1,-1,-1,-1,-1,-1,-1,-1],"split_conditions":[1.0231923E0,-4.0893552E-1,-1.0375937E-1,1.987E3,4.8336345E-3,1.999E3,3.649095E0,-2.404412E3,-2.0735286E2,3.2814896E2,1.3729314E4,-4.723766E2,4.8714287E3,6.013333E3,1.8918955E4],"split_indices":[7,47,47,0,6,0,7,0,0,0,0,0,0,0,0],"split_type":[0,0,0,0,0,0,0,0,0,0,0,0,0,0,0],"sum_hessian":[9.25E2,8.13E2,1.12E2,3.41E2,4.72E2,5.1E1,6.1E1,2.39E2,1.02E2,4.67E2,5E0,3.5E1,1.6E1,5.4E1,7E0],"tree_param":{"num_deleted":"0","num_feature":"48","num_nodes":"15","size_leaf_vector":"1"}},{"base_weights":[-2.5540933E2,-4.5924624E3,5.666959E5,-4.7325027E4,3.224331E4,-7.107171E3,2.8065527E4,-2.1790022E3,8.7442444E1,-7.136776E3,1.2723646E3],"categories":[],"categories_nodes":[],"categories_segments":[],"categories_sizes":[],"default_left":[0,0,0,0,0,0,0,0,0,0,0],"id":54,"left_children":[1,3,5,7,9,-1,-1,-1,-1,-1,-1],"loss_changes":[2.2672473E12,1.4418156E12,2.2963298E12,5.3932242E11,1.3615986E12,0E0,0E0,0E0,0E0,0E0,0E0],"parents":[2147483647,0,0,1,1,2,2,3,3,4,4],"right_children":[2,4,6,8,10,-1,-1,-1,-1,-1,-1],"split_conditions":[3.649095E0,-1.4395411E-1,-3.2177057E-2,1E0,3E0,-7.107171E3,2.8065527E4,-2.1790022E3,8.7442444E1,-7.136776E3,1.2723646E3],"split_indices":[7,46,6,15,5,0,0,0,0,0,0],"split_type":[0,0,0,0,0,0,0,0,0,0,0],"sum_hessian":[9.2E2,9.14E2,6E0,4.23E2,4.91E2,2E0,4E0,2.81E2,1.42E2,1.7E1,4.74E2],"tree_param":{"num_deleted":"0","num_feature":"48","num_nodes":"11","size_leaf_vector":"1"}},{"base_weights":[9.064413E3,-2.3756416E3,3.6023766E5,-1.1579951E4,2.9259116E5,9.4320394E5,1.9948617E5,-5.2205035E2,8.395355E3,2.9842312E3,2.4904281E4,3.4065355E4,-2.750367E2,3.2429897E3,1.575405E4],"categories":[],"categories_nodes":[],"categories_segments":[],"categories_sizes":[],"default_left":[0,0,0,0,0,0,0,0,0,0,0,0,0,0,0],"id":55,"left_children":[1,3,5,7,9,11,13,-1,-1,-1,-1,-1,-1,-1,-1],"loss_changes":[3.6928841E12,2.422423E12,2.5295113E12,1.472427E12,2.7202987E12,1.1093022E12,6.5747085E11,0E0,0E0,0E0,0E0,0E0,0E0,0E0,0E0],"parents":[2147483647,0,0,1,1,2,2,3,3,4,4,5,5,6,6],"right_children":[2,4,6,8,10,12,14,-1,-1,-1,-1,-1,-1,-1,-1],"split_conditions":[5E0,3.7799532E0,1E0,3.9870825E-2,1.987E3,7E0,3E0,-5.2205035E2,8.395355E3,2.9842312E3,2.4904281E4,3.4065355E4,-2.750367E2,3.2429897E3,1.575405E4],"split_indices":[4,46,12,6,0,3,2,0,0,0,0,0,0,0,0],"split_type":[0,0,0,0,0,0,0,0,0,0,0,0,0,0,0],"sum_hessian":[9.18E2,8.9E2,2.8E1,8.64E2,2.6E1,5E0,2.3E1,8.48E2,1.6E1,2E1,6E0,4E0,1E0,1.9E1,4E0],"tree_param":{"num_deleted":"0","num_feature":"48","num_nodes":"15","size_leaf_vector":"1"}},{"base_weights":[1.6289349E3,-4.158014E4,5.9770457E4,-4.430148E4,4.648425E5,9.70895E3,1.6680353E5,-5.5263623E3,-1.1158025E3,1.0880789E3,1.9829832E4,-2.4320923E2,3.0522026E3,1.5674258E4,3.8765981E3],"categories":[],"categories_nodes":[],"categories_segments":[],"categories_sizes":[],"default_left":[0,0,0,0,0,0,0,0,0,0,0,0,0,0,0],"id":56,"left_children":[1,3,5,7,9,11,13,-1,-1,-1,-1,-1,-1,-1,-1],"loss_changes":[2.3866025E12,7.716842E11,2.1684668E12,5.3315823E11,2.2822257E11,4.549995E11,1.656883E12,0E0,0E0,0E0,0E0,0E0,0E0,0E0,0E0],"parents":[2147483647,0,0,1,1,2,2,3,3,4,4,5,5,6,6],"right_children":[2,4,6,8,10,12,14,-1,-1,-1,-1,-1,-1,-1,-1],"split_conditions":[-1.0417902E-2,6.144808E-1,2.6300332E-1,3E0,1E0,2.008E3,5E0,-5.5263623E3,-1.1158025E3,1.0880789E3,1.9829832E4,-2.4320923E2,3.0522026E3,1.5674258E4,3.8765981E3],"split_indices":[7,6,47,5,38,0,5,0,0,0,0,0,0,0,0],"split_type":[0,0,0,0,0,0,0,0,0,0,0,0,0,0,0],"sum_hessian":[9.48E2,5.44E2,4.04E2,5.42E2,2E0,2.76E2,1.28E2,2.5E1,5.17E2,1E0,1E0,2.32E2,4.4E1,1.1E1,1.17E2],"tree_param":{"num_deleted":"0","num_feature":"48","num_nodes":"15","size_leaf_vector":"1"}},{"base_weights":[1.6287261E3,-7.224343E3,2.425473E5,-4.457793E4,3.37383E4,1.11509234E5,2.3753822E4,-1.4261337E3,1.9532385E4,-6.557124E3,1.3510833E3,5.884856E3,-4.7513574E3],"categories":[],"categories_nodes":[],"categories_segments":[],"categories_sizes":[],"default_left":[0,0,0,0,0,0,0,0,0,0,0,0,0],"id":57,"left_children":[1,3,5,7,9,11,-1,-1,-1,-1,-1,-1,-1],"loss_changes":[1.9256E12,1.3342224E12,2.214819E12,9.698775E11,1.1956684E12,6.4792914E11,0E0,0E0,0E0,0E0,0E0,0E0,0E0],"parents":[2147483647,0,0,1,1,2,2,3,3,4,4,5,5],"right_children":[2,4,6,8,10,12,-1,-1,-1,-1,-1,-1,-1],"split_conditions":[5E0,-1.0375937E-1,8.235407E-1,2.7259933E-2,3E0,6.856331E-1,2.3753822E4,-1.4261337E3,1.9532385E4,-6.557124E3,1.3510833E3,5.884856E3,-4.7513574E3],"split_indices":[4,47,46,46,5,9,0,0,0,0,0,0,0],"split_type":[0,0,0,0,0,0,0,0,0,0,0,0,0],"sum_hessian":[9.01E2,8.7E2,3.1E1,4.55E2,4.15E2,2.6E1,5E0,4.54E2,1E0,1.7E1,3.98E2,2E1,6E0],"tree_param":{"num_deleted":"0","num_feature":"48","num_nodes":"13","size_leaf_vector":"1"}},{"base_weights":[-1.6587615E3,-3.319192E4,4.393071E4,-5.6336195E4,1.0700657E4,3.505291E4,5.0817825E5,-4.8964697E3,-1.4442909E3,-1.380232E2,4.4355103E3,-1.5588269E3,2.4004485E3,4.505691E3,2.8062992E4],"categories":[],"categories_nodes":[],"categories_segments":[],"categories_sizes":[],"default_left":[0,0,0,0,0,0,0,0,0,0,0,0,0,0,0],"id":58,"left_children":[1,3,5,7,9,11,13,-1,-1,-1,-1,-1,-1,-1,-1],"loss_changes":[1.3254694E12,5.542475E11,1.535991E12,3.0476036E11,3.9731308E11,1.455628E12,9.3017394E11,0E0,0E0,0E0,0E0,0E0,0E0,0E0,0E0],"parents":[2147483647,0,0,1,1,2,2,3,3,4,4,5,5,6,6],"right_children":[2,4,6,8,10,12,14,-1,-1,-1,-1,-1,-1,-1,-1],"split_conditions":[1.2660806E-2,1E0,2.3361884E-2,-1.1312069E0,2.01E3,-3.5685813E-1,1E0,-4.8964697E3,-1.4442909E3,-1.380232E2,4.4355103E3,-1.5588269E3,2.4004485E3,4.505691E3,2.8062992E4],"split_indices":[46,15,6,46,0,7,38,0,0,0,0,0,0,0,0],"split_type":[0,0,0,0,0,0,0,0,0,0,0,0,0,0,0],"sum_hessian":[9.2E2,5.44E2,3.76E2,3.56E2,1.88E2,3.7E2,6E0,2.4E1,3.32E2,1.7E2,1.8E1,1.26E2,2.44E2,4E0,2E0],"tree_param":{"num_deleted":"0","num_feature":"48","num_nodes":"15","size_leaf_vector":"1"}},{"base_weights":[3.261054E3,-2.031024E4,1.0797407E5,-2.6390057E4,1.8147108E5,2.3041807E4,2.3625662E5,-6.2146326E2,-6.752878E3,-1.360012E3,1.6179469E4,-1.8109676E2,3.4159285E3,1.3483479E4,4.9429585E3],"categories":[],"categories_nodes":[],"categories_segments":[],"categories_sizes":[],"default_left":[0,0,0,0,0,0,0,0,0,0,0,0,0,0,0],"id":59,"left_children":[1,3,5,7,9,11,13,-1,-1,-1,-1,-1,-1,-1,-1],"loss_changes":[2.364281E12,9.641414E11,1.9121338E12,8.522971E11,1.891149E12,2.8327104E11,9.928463E11,0E0,0E0,0E0,0E0,0E0,0E0,0E0,0E0],"parents":[2147483647,0,0,1,1,2,2,3,3,4,4,5,5,6,6],"right_children":[2,4,6,8,10,12,14,-1,-1,-1,-1,-1,-1,-1,-1],"split_conditions":[7.0625657E-1,3.7799532E0,2.6300332E-1,2.540143E0,-3.092702E-1,-2.854061E-2,1E0,-6.2146326E2,-6.752878E3,-1.360012E3,1.6179469E4,-1.8109676E2,3.4159285E3,1.3483479E4,4.9429585E3],"split_indices":[7,46,47,46,7,6,18,0,0,0,0,0,0,0,0],"split_type":[0,0,0,0,0,0,0,0,0,0,0,0,0,0,0],"sum_hessian":[9.56E2,7.81E2,1.75E2,7.59E2,2.2E1,1.06E2,6.9E1,7.39E2,2E1,1.4E1,8E0,8.1E1,2.5E1,1.6E1,5.3E1],"tree_param":{"num_deleted":"0","num_feature":"48","num_nodes":"15","size_leaf_vector":"1"}},{"base_weights":[7.5725903E3,-2.3855583E3,2.9611462E5,-1.0820084E4,2.7041912E5,1.7474531E5,8.9228606E5,-1.4401288E2,-6.7069604E3,2.4917225E4,3.1607332E3,7.8879956E3,-2.0270273E3,1.4813334E4,3.7294785E4],"categories":[],"categories_nodes":[],"categories_segments":[],"categories_sizes":[],"default_left":[0,0,0,0,0,0,0,0,0,0,0,0,0,0,0],"id":60,"left_children":[1,3,5,7,9,11,13,-1,-1,-1,-1,-1,-1,-1,-1],"loss_changes":[2.6700436E12,2.0715051E12,2.0871415E12,1.116937E12,2.408911E12,5.947304E11,8.5285405E10,0E0,0E0,0E0,0E0,0E0,0E0,0E0,0E0],"parents":[2147483647,0,0,1,1,2,2,3,3,4,4,5,5,6,6],"right_children":[2,4,6,8,10,12,14,-1,-1,-1,-1,-1,-1,-1,-1],"split_conditions":[3.7799532E0,5E0,1E0,2.540143E0,1E0,1E0,6.803923E-2,-1.4401288E2,-6.7069604E3,2.4917225E4,3.1607332E3,7.8879956E3,-2.0270273E3,1.4813334E4,3.7294785E4],"split_indices":[46,4,39,46,12,25,9,0,0,0,0,0,0,0,0],"split_type":[0,0,0,0,0,0,0,0,0,0,0,0,0,0,0],"sum_hessian":[9.28E2,8.98E2,3E1,8.72E2,2.6E1,2.6E1,4E0,8.49E2,2.3E1,5E0,2.1E1,1.9E1,7E0,3E0,1E0],"tree_param":{"num_deleted":"0","num_feature":"48","num_nodes":"15","size_leaf_vector":"1"}},{"base_weights":[4.5877505E3,-3.316195E4,6.2841125E4,-5.5880586E4,8.597355E3,3.7354727E4,2.4966472E5,-4.541074E3,-1.4811472E3,-1.3107492E2,3.0016926E3,5.819655E2,7.561478E3,1.4516299E3,1.0888562E4],"categories":[],"categories_nodes":[],"categories_segments":[],"categories_sizes":[],"default_left":[0,0,0,0,0,0,0,0,0,0,0,0,0,0,0],"id":61,"left_children":[1,3,5,7,9,11,13,-1,-1,-1,-1,-1,-1,-1,-1],"loss_changes":[2.0581931E12,5.3935027E11,1.7428913E12,2.212519E11,2.3880422E11,1.2479948E12,9.857317E11,0E0,0E0,0E0,0E0,0E0,0E0,0E0,0E0],"parents":[2147483647,0,0,1,1,2,2,3,3,4,4,5,5,6,6],"right_children":[2,4,6,8,10,12,14,-1,-1,-1,-1,-1,-1,-1,-1],"split_conditions":[1.2660806E-2,1E0,4E0,-1.1312069E0,4E0,3.7799532E0,1.442918E0,-4.541074E3,-1.4811472E3,-1.3107492E2,3.0016926E3,5.819655E2,7.561478E3,1.4516299E3,1.0888562E4],"split_indices":[46,19,4,46,4,46,7,0,0,0,0,0,0,0,0],"split_type":[0,0,0,0,0,0,0,0,0,0,0,0,0,0,0],"sum_hessian":[9.34E2,5.67E2,3.67E2,3.67E2,2E2,3.24E2,4.3E1,2.2E1,3.45E2,1.76E2,2.4E1,3E2,2.4E1,1.6E1,2.7E1],"tree_param":{"num_deleted":"0","num_feature":"48","num_nodes":"15","size_leaf_vector":"1"}},{"base_weights":[-3.0791118E3,-3.90449E4,4.8092895E4,-4.6380234E4,1.14505125E5,3.9709004E4,5.65468E5,-1.2440496E3,-7.019983E3,-1.6566511E3,7.5541895E3,6.659921E2,4.3799263E3,5.7080693E3,3.6621945E4],"categories":[],"categories_nodes":[],"categories_segments":[],"categories_sizes":[],"default_left":[0,0,0,0,0,0,0,0,0,0,0,0,0,0,0],"id":62,"left_children":[1,3,5,7,9,11,13,-1,-1,-1,-1,-1,-1,-1,-1],"loss_changes":[1.6987647E12,6.157878E11,1.630178E12,4.6766975E11,5.9649766E11,6.965077E11,1.2428579E12,0E0,0E0,0E0,0E0,0E0,0E0,0E0,0E0],"parents":[2147483647,0,0,1,1,2,2,3,3,4,4,5,5,6,6],"right_children":[2,4,6,8,10,12,14,-1,-1,-1,-1,-1,-1,-1,-1],"split_conditions":[1E0,3.7799532E0,3.7799532E0,2.540143E0,-3.092702E-1,1.442918E0,1.987E3,-1.2440496E3,-7.019983E3,-1.6566511E3,7.5541895E3,6.659921E2,4.3799263E3,5.7080693E3,3.6621945E4],"split_indices":[15,46,46,46,7,7,0,0,0,0,0,0,0,0,0],"split_type":[0,0,0,0,0,0,0,0,0,0,0,0,0,0,0],"sum_hessian":[9.21E2,5.41E2,3.8E2,5.17E2,2.4E1,3.75E2,5E0,5.05E2,1.2E1,1.1E1,1.3E1,3.23E2,5.2E1,4E0,1E0],"tree_param":{"num_deleted":"0","num_feature":"48","num_nodes":"15","size_leaf_vector":"1"}},{"base_weights":[-1.8261421E2,-1.801069E4,1.3571614E5,-2.3876648E4,2.1430195E5,7.940396E4,2.897499E5,-5.8976276E2,-6.103522E3,1.9715996E4,-6.7362897E2,9.257716E2,7.6390454E3,1.5593514E4,3.3098677E3],"categories":[],"categories_nodes":[],"categories_segments":[],"categories_sizes":[],"default_left":[0,0,0,0,0,0,0,0,0,0,0,0,0,0,0],"id":63,"left_children":[1,3,5,7,9,11,13,-1,-1,-1,-1,-1,-1,-1,-1],"loss_changes":[2.214473E12,1.1062078E12,8.964342E11,5.936075E11,2.111934E12,6.641611E11,1.0982945E12,0E0,0E0,0E0,0E0,0E0,0E0,0E0,0E0],"parents":[2147483647,0,0,1,1,2,2,3,3,4,4,5,5,6,6],"right_children":[2,4,6,8,10,12,14,-1,-1,-1,-1,-1,-1,-1,-1],"split_conditions":[1.0231923E0,3.7799532E0,-2.9371945E-2,2.540143E0,1E0,9.1813636E-1,1E0,-5.8976276E2,-6.103522E3,1.9715996E4,-6.7362897E2,9.257716E2,7.6390454E3,1.5593514E4,3.3098677E3],"split_indices":[7,46,6,46,13,46,11,0,0,0,0,0,0,0,0],"split_type":[0,0,0,0,0,0,0,0,0,0,0,0,0,0,0],"sum_hessian":[9.12E2,8.07E2,1.05E2,7.88E2,1.9E1,7.8E1,2.7E1,7.71E2,1.7E1,6E0,1.3E1,6.2E1,1.6E1,1.1E1,1.6E1],"tree_param":{"num_deleted":"0","num_feature":"48","num_nodes":"15","size_leaf_vector":"1"}},{"base_weights":[-7.349287E3,-2.1365604E4,1.2493358E5,-4.9768574E4,1.19135E4,5.9981914E4,2.619735E5,-2.413812E3,-6.777788E2,-5.886752E3,6.9950867E2,2.6545168E3,-6.4810073E3,2.3278594E3,1.6196024E4],"categories":[],"categories_nodes":[],"categories_segments":[],"categories_sizes":[],"default_left":[0,0,0,0,0,0,0,0,0,0,0,0,0,0,0],"id":64,"left_children":[1,3,5,7,9,11,13,-1,-1,-1,-1,-1,-1,-1,-1],"loss_changes":[1.7028961E12,7.8513006E11,7.6757166E11,3.718497E11,9.136254E11,4.9900182E11,1.3927614E12,0E0,0E0,0E0,0E0,0E0,0E0,0E0,0E0],"parents":[2147483647,0,0,1,1,2,2,3,3,4,4,5,5,6,6],"right_children":[2,4,6,8,10,12,14,-1,-1,-1,-1,-1,-1,-1,-1],"split_conditions":[4E0,-1.0375937E-1,-2.9015852E-2,1E0,3E0,1E0,5E0,-2.413812E3,-6.777788E2,-5.886752E3,6.9950867E2,2.6545168E3,-6.4810073E3,2.3278594E3,1.6196024E4],"split_indices":[4,47,6,10,5,45,4,0,0,0,0,0,0,0,0],"split_type":[0,0,0,0,0,0,0,0,0,0,0,0,0,0,0],"sum_hessian":[9.16E2,8.29E2,8.7E1,4.47E2,3.82E2,6E1,2.7E1,2.09E2,2.38E2,1.9E1,3.63E2,5.5E1,5E0,1.7E1,1E1],"tree_param":{"num_deleted":"0","num_feature":"48","num_nodes":"15","size_leaf_vector":"1"}},{"base_weights":[2.8169023E3,-4.7536934E3,2.4632725E5,-5.4796453E4,1.6973535E4,6.6032756E5,1.03403195E5,-4.505339E3,-1.3244485E3,3.1074924E2,8.611987E3,3.0939979E4,-5.3437017E3,5.2092197E3,-3.3851045E3],"categories":[],"categories_nodes":[],"categories_segments":[],"categories_sizes":[],"default_left":[0,0,0,0,0,0,0,0,0,0,0,0,0,0,0],"id":65,"left_children":[1,3,5,7,9,11,13,-1,-1,-1,-1,-1,-1,-1,-1],"loss_changes":[1.711956E12,9.805787E11,1.588497E12,2.7063917E11,1.1208761E12,2.3611916E12,3.537324E11,0E0,0E0,0E0,0E0,0E0,0E0,0E0,0E0],"parents":[2147483647,0,0,1,1,2,2,3,3,4,4,5,5,6,6],"right_children":[2,4,6,8,10,12,14,-1,-1,-1,-1,-1,-1,-1,-1],"split_conditions":[5E0,-5.492181E-1,1E0,-1.1312069E0,-1.1081454E-2,1E0,6E0,-4.505339E3,-1.3244485E3,3.1074924E2,8.611987E3,3.0939979E4,-5.3437017E3,5.2092197E3,-3.3851045E3],"split_indices":[4,46,12,46,6,11,3,0,0,0,0,0,0,0,0],"split_type":[0,0,0,0,0,0,0,0,0,0,0,0,0,0,0],"sum_hessian":[9.27E2,9E2,2.7E1,2.72E2,6.28E2,6E0,2.1E1,2.6E1,2.46E2,6.14E2,1.4E1,4E0,2E0,1.6E1,5E0],"tree_param":{"num_deleted":"0","num_feature":"48","num_nodes":"15","size_leaf_vector":"1"}},{"base_weights":[-2.9287815E3,-1.6441504E4,1.2799013E5,-5.7514402E4,8.64629E3,9.085878E4,3.4939525E5,-1.8685963E3,1.3834236E4,-6.7094446E2,1.7299686E3,1.00198065E3,5.4254883E3,1.5679726E4,-1.0338321E4],"categories":[],"categories_nodes":[],"categories_segments":[],"categories_sizes":[],"default_left":[0,0,0,0,0,0,0,0,0,0,0,0,0,0,0],"id":66,"left_children":[1,3,5,7,9,11,13,-1,-1,-1,-1,-1,-1,-1,-1],"loss_changes":[1.6261115E12,8.588442E11,6.752667E11,8.108538E11,7.8872406E11,3.8177132E11,1.6230538E12,0E0,0E0,0E0,0E0,0E0,0E0,0E0,0E0],"parents":[2147483647,0,0,1,1,2,2,3,3,4,4,5,5,6,6],"right_children":[2,4,6,8,10,12,14,-1,-1,-1,-1,-1,-1,-1,-1],"split_conditions":[4E0,-3.5685813E-1,3.2683916E0,6.144808E-1,1.1080085E-2,1E0,1E0,-1.8685963E3,1.3834236E4,-6.7094446E2,1.7299686E3,1.00198065E3,5.4254883E3,1.5679726E4,-1.0338321E4],"split_indices":[4,7,7,6,46,26,45,0,0,0,0,0,0,0,0],"split_type":[0,0,0,0,0,0,0,0,0,0,0,0,0,0,0],"sum_hessian":[9.17E2,8.32E2,8.5E1,3.15E2,5.17E2,7.4E1,1.1E1,3.13E2,2E0,3.17E2,2E2,4.6E1,2.8E1,9E0,2E0],"tree_param":{"num_deleted":"0","num_feature":"48","num_nodes":"15","size_leaf_vector":"1"}},{"base_weights":[6.3513906E3,-3.092241E4,5.9625203E4,-5.122752E4,1.0545967E4,3.0324172E4,2.1091705E5,-1.8990479E3,1.4746832E2,7.3264087E3,7.142781E1,1.528618E2,6.4626724E3,4.2250103E3,1.800585E4],"categories":[],"categories_nodes":[],"categories_segments":[],"categories_sizes":[],"default_left":[0,0,0,0,0,0,0,0,0,0,0,0,0,0,0],"id":67,"left_children":[1,3,5,7,9,11,13,-1,-1,-1,-1,-1,-1,-1,-1],"loss_changes":[1.8187753E12,4.5438894E11,1.664848E12,2.4570252E11,3.3902576E11,1.4792298E12,1.5796687E12,0E0,0E0,0E0,0E0,0E0,0E0,0E0,0E0],"parents":[2147483647,0,0,1,1,2,2,3,3,4,4,5,5,6,6],"right_children":[2,4,6,8,10,12,14,-1,-1,-1,-1,-1,-1,-1,-1],"split_conditions":[1.2660806E-2,1.985E3,-3.0425498E-2,-1.0375937E-1,1E0,1E0,-5.3416216E-1,-1.8990479E3,1.4746832E2,7.3264087E3,7.142781E1,1.528618E2,6.4626724E3,4.2250103E3,1.800585E4],"split_indices":[46,0,6,47,3,39,9,0,0,0,0,0,0,0,0],"split_type":[0,0,0,0,0,0,0,0,0,0,0,0,0,0,0],"sum_hessian":[9.14E2,5.38E2,3.76E2,3.61E2,1.77E2,3.16E2,6E1,2.97E2,6.4E1,5E0,1.72E2,2.79E2,3.7E1,5.2E1,8E0],"tree_param":{"num_deleted":"0","num_feature":"48","num_nodes":"15","size_leaf_vector":"1"}},{"base_weights":[-1.6974028E2,-1.4332057E4,9.572738E4,-4.3938926E4,9.680592E3,6.3983785E4,6.776106E5,-1.7017461E3,5.0496527E2,-5.9908633E3,5.2510175E2,-3.4634558E2,5.616176E3,2.395523E4,1.0968788E3],"categories":[],"categories_nodes":[],"categories_segments":[],"categories_sizes":[],"default_left":[0,0,0,0,0,0,0,0,0,0,0,0,0,0,0],"id":68,"left_children":[1,3,5,7,9,11,13,-1,-1,-1,-1,-1,-1,-1,-1],"loss_changes":[1.2454148E12,5.684658E11,2.1362301E12,2.7912654E11,7.274504E11,1.0538291E12,4.3580916E11,0E0,0E0,0E0,0E0,0E0,0E0,0E0,0E0],"parents":[2147483647,0,0,1,1,2,2,3,3,4,4,5,5,6,6],"right_children":[2,4,6,8,10,12,14,-1,-1,-1,-1,-1,-1,-1,-1],"split_conditions":[-2.9300509E-2,-2.9966736E-1,3.2683916E0,2.001E3,3E0,1.5539651E-2,6E0,-1.7017461E3,5.0496527E2,-5.9908633E3,5.2510175E2,-3.4634558E2,5.616176E3,2.395523E4,1.0968788E3],"split_indices":[6,47,7,0,5,46,4,0,0,0,0,0,0,0,0],"split_type":[0,0,0,0,0,0,0,0,0,0,0,0,0,0,0],"sum_hessian":[9.15E2,7.98E2,1.17E2,3.57E2,4.41E2,1.12E2,5E0,2.95E2,6.2E1,1.5E1,4.26E2,7E1,4.2E1,4E0,1E0],"tree_param":{"num_deleted":"0","num_feature":"48","num_nodes":"15","size_leaf_vector":"1"}},{"base_weights":[4.7665808E2,-4.260537E3,5.4933956E5,-3.6845477E4,4.1100617E4,2.622172E4,6.1074062E3,-1.190122E3,1.0549677E4,9.2802124E2,9.314516E3,5.73734E3,-8.239565E3],"categories":[],"categories_nodes":[],"categories_segments":[],"categories_sizes":[],"default_left":[0,0,0,0,0,0,0,0,0,0,0,0,0],"id":69,"left_children":[1,3,5,7,9,-1,11,-1,-1,-1,-1,-1,-1],"loss_changes":[2.4308063E12,1.3717044E12,1.405839E12,6.0666216E11,1.05301325E12,0E0,2.6044201E11,0E0,0E0,0E0,0E0,0E0,0E0],"parents":[2147483647,0,0,1,1,2,2,3,3,4,4,6,6],"right_children":[2,4,6,8,10,-1,12,-1,-1,-1,-1,-1,-1],"split_conditions":[3.649095E0,-1.0417902E-2,1E0,6.144808E-1,3.7799532E0,2.622172E4,2.009E3,-1.190122E3,1.0549677E4,9.2802124E2,9.314516E3,5.73734E3,-8.239565E3],"split_indices":[7,7,24,6,46,0,0,0,0,0,0,0,0],"split_type":[0,0,0,0,0,0,0,0,0,0,0,0,0],"sum_hessian":[9.33E2,9.26E2,7E0,5.39E2,3.87E2,4E0,3E0,5.36E2,3E0,3.74E2,1.3E1,2E0,1E0],"tree_param":{"num_deleted":"0","num_feature":"48","num_nodes":"13","size_leaf_vector":"1"}},{"base_weights":[3.1513308E3,-4.471446E3,2.1820869E5,-2.9082398E4,3.747213E4,-7.4322573E3,4.5938784E5,-1.4449313E3,3.48529E2,8.1574805E2,1.7334242E4,-6.173504E3,2.0828513E3,2.5026549E4,3.5042996E3],"categories":[],"categories_nodes":[],"categories_segments":[],"categories_sizes":[],"default_left":[0,0,0,0,0,0,0,0,0,0,0,0,0,0,0],"id":70,"left_children":[1,3,5,7,9,11,13,-1,-1,-1,-1,-1,-1,-1,-1],"loss_changes":[1.4845732E12,9.043272E11,1.690431E12,4.292632E11,1.7840881E12,2.7345907E11,1.8286846E12,0E0,0E0,0E0,0E0,0E0,0E0,0E0,0E0],"parents":[2147483647,0,0,1,1,2,2,3,3,4,4,5,5,6,6],"right_children":[2,4,6,8,10,12,14,-1,-1,-1,-1,-1,-1,-1,-1],"split_conditions":[3.7799532E0,1.4099358E-2,3E0,1.985E3,2.3361884E-2,1E0,-3.4241628E-2,-1.4449313E3,3.48529E2,8.1574805E2,1.7334242E4,-6.173504E3,2.0828513E3,2.5026549E4,3.5042996E3],"split_indices":[46,46,4,0,6,2,6,0,0,0,0,0,0,0,0],"split_type":[0,0,0,0,0,0,0,0,0,0,0,0,0,0,0],"sum_hessian":[9.04E2,8.74E2,3E1,5.51E2,3.23E2,1.6E1,1.4E1,3.75E2,1.76E2,3.18E2,5E0,4E0,1.2E1,6E0,8E0],"tree_param":{"num_deleted":"0","num_feature":"48","num_nodes":"15","size_leaf_vector":"1"}},{"base_weights":[3.846338E3,-1.9796363E4,6.5100004E4,-8.7730484E4,-9.706637E3,5.370694E5,5.3604305E4,-3.3607117E3,-1.359582E3,-4.0255048E2,6.10722E3,-9.12961E3,2.298634E4,5.96065E2,5.1397095E3],"categories":[],"categories_nodes":[],"categories_segments":[],"categories_sizes":[],"default_left":[0,0,0,0,0,0,0,0,0,0,0,0,0,0,0],"id":71,"left_children":[1,3,5,7,9,11,13,-1,-1,-1,-1,-1,-1,-1,-1],"loss_changes":[1.336531E12,4.5564923E11,1.3655946E12,8.352924E10,4.626725E11,1.3899601E12,9.973681E11,0E0,0E0,0E0,0E0,0E0,0E0,0E0,0E0],"parents":[2147483647,0,0,1,1,2,2,3,3,4,4,5,5,6,6],"right_children":[2,4,6,8,10,12,14,-1,-1,-1,-1,-1,-1,-1,-1],"split_conditions":[4.1216305E-1,-7.6868534E-1,5E0,1E0,3.9870825E-2,3E0,-2.9609704E-2,-3.3607117E3,-1.359582E3,-4.0255048E2,6.10722E3,-9.12961E3,2.298634E4,5.96065E2,5.1397095E3],"split_indices":[7,47,5,13,6,4,6,0,0,0,0,0,0,0,0],"split_type":[0,0,0,0,0,0,0,0,0,0,0,0,0,0,0],"sum_hessian":[9.21E2,6.65E2,2.56E2,8.5E1,5.8E2,5E0,2.51E2,5.3E1,3.2E1,5.71E2,9E0,1E0,4E0,1.96E2,5.5E1],"tree_param":{"num_deleted":"0","num_feature":"48","num_nodes":"15","size_leaf_vector":"1"}},{"base_weights":[-8.652077E2,-8.906168E3,2.5762514E5,-1.0916698E4,4.441818E5,9.1493914E4,4.7150894E5,-1.0041034E3,7.838863E2,9.7210077E2,1.7119205E4,5.194047E3,-1.041627E4,2.864545E4,6.129047E3],"categories":[],"categories_nodes":[],"categories_segments":[],"categories_sizes":[],"default_left":[0,0,0,0,0,0,0,0,0,0,0,0,0,0,0],"id":72,"left_children":[1,3,5,7,9,11,13,-1,-1,-1,-1,-1,-1,-1,-1],"loss_changes":[1.9290739E12,8.247015E11,9.517775E11,7.5033536E11,1.8980071E11,6.689884E11,1.3547452E12,0E0,0E0,0E0,0E0,0E0,0E0,0E0,0E0],"parents":[2147483647,0,0,1,1,2,2,3,3,4,4,5,5,6,6],"right_children":[2,4,6,8,10,12,14,-1,-1,-1,-1,-1,-1,-1,-1],"split_conditions":[5E0,6.144808E-1,-2.9371945E-2,1E0,1E0,1E0,1E0,-1.0041034E3,7.838863E2,9.7210077E2,1.7119205E4,5.194047E3,-1.041627E4,2.864545E4,6.129047E3],"split_indices":[4,6,6,19,38,45,12,0,0,0,0,0,0,0,0],"split_type":[0,0,0,0,0,0,0,0,0,0,0,0,0,0,0],"sum_hessian":[9.26E2,8.99E2,2.7E1,8.96E2,3E0,1.6E1,1.1E1,5.57E2,3.39E2,1E0,2E0,1.4E1,2E0,3E0,8E0],"tree_param":{"num_deleted":"0","num_feature":"48","num_nodes":"15","size_leaf_vector":"1"}},{"base_weights":[-1.7390206E3,-3.7891987E3,4.640862E5,-8.342606E3,1.8893533E5,7.9613506E5,-7.9809053E3,-7.1600006E2,1.475942E3,9.630275E2,1.7270135E4,7.338433E3,2.8487643E4],"categories":[],"categories_nodes":[],"categories_segments":[],"categories_sizes":[],"default_left":[0,0,0,0,0,0,0,0,0,0,0,0,0],"id":73,"left_children":[1,3,5,7,9,11,-1,-1,-1,-1,-1,-1,-1],"loss_changes":[8.7178596E11,7.983946E11,1.1815331E12,7.943936E11,1.255244E12,2.161469E10,0E0,0E0,0E0,0E0,0E0,0E0,0E0],"parents":[2147483647,0,0,1,1,2,2,3,3,4,4,5,5],"right_children":[2,4,6,8,10,12,-1,-1,-1,-1,-1,-1,-1],"split_conditions":[3.649095E0,3.9870825E-2,2.018E3,1E0,1E0,2.009E3,-7.9809053E3,-7.1600006E2,1.475942E3,9.630275E2,1.7270135E4,7.338433E3,2.8487643E4],"split_indices":[7,6,0,26,38,0,0,0,0,0,0,0,0],"split_type":[0,0,0,0,0,0,0,0,0,0,0,0,0],"sum_hessian":[9.1E2,9.07E2,3E0,8.87E2,2E1,2E0,1E0,6.99E2,1.88E2,1.5E1,5E0,1E0,1E0],"tree_param":{"num_deleted":"0","num_feature":"48","num_nodes":"13","size_leaf_vector":"1"}},{"base_weights":[-1.3544943E3,-1.2173254E4,1.0458446E5,-1.6594947E4,1.8022928E5,4.619838E4,2.3754472E5,-1.6611691E3,9.750747E1,1.0829894E3,1.729717E4,7.632061E2,1.3171291E4,2.5063604E3,1.7208004E4],"categories":[],"categories_nodes":[],"categories_segments":[],"categories_sizes":[],"default_left":[0,0,0,0,0,0,0,0,0,0,0,0,0,0,0],"id":74,"left_children":[1,3,5,7,9,11,13,-1,-1,-1,-1,-1,-1,-1,-1],"loss_changes":[1.06373395E12,7.1931816E11,6.566463E11,6.342844E11,1.0645568E12,4.8626965E11,1.2976388E12,0E0,0E0,0E0,0E0,0E0,0E0,0E0,0E0],"parents":[2147483647,0,0,1,1,2,2,3,3,4,4,5,5,6,6],"right_children":[2,4,6,8,10,12,14,-1,-1,-1,-1,-1,-1,-1,-1],"split_conditions":[4E0,3.9870825E-2,-2.9371945E-2,-4.9284294E-1,1E0,8E0,-5.7605755E-1,-1.6611691E3,9.750747E1,1.0829894E3,1.729717E4,7.632061E2,1.3171291E4,2.5063604E3,1.7208004E4],"split_indices":[4,6,6,47,38,2,9,0,0,0,0,0,0,0,0],"split_type":[0,0,0,0,0,0,0,0,0,0,0,0,0,0,0],"sum_hessian":[9.26E2,8.41E2,8.5E1,8.23E2,1.8E1,6E1,2.5E1,2.78E2,5.45E2,1.4E1,4E0,5.8E1,2E0,1.8E1,7E0],"tree_param":{"num_deleted":"0","num_feature":"48","num_nodes":"15","size_leaf_vector":"1"}},{"base_weights":[3.1329082E3,-4.5162505E3,2.6985038E5,-1.0478662E4,1.7636223E5,9.505E4,4.9957362E5,-1.5289865E2,-5.8237593E3,1.1260254E3,1.821951E4,5.448168E3,-1.0216785E4,2.733398E4,6.940421E3],"categories":[],"categories_nodes":[],"categories_segments":[],"categories_sizes":[],"default_left":[0,0,0,0,0,0,0,0,0,0,0,0,0,0,0],"id":75,"left_children":[1,3,5,7,9,11,13,-1,-1,-1,-1,-1,-1,-1,-1],"loss_changes":[1.9026518E12,9.800222E11,9.9656414E11,8.678087E11,1.7122347E12,6.6511864E11,1.00351214E12,0E0,0E0,0E0,0E0,0E0,0E0,0E0,0E0],"parents":[2147483647,0,0,1,1,2,2,3,3,4,4,5,5,6,6],"right_children":[2,4,6,8,10,12,14,-1,-1,-1,-1,-1,-1,-1,-1],"split_conditions":[5E0,3.7799532E0,-2.972831E-2,2.540143E0,1.987E3,1E0,1E0,-1.5289865E2,-5.8237593E3,1.1260254E3,1.821951E4,5.448168E3,-1.0216785E4,2.733398E4,6.940421E3],"split_indices":[4,46,6,46,0,45,12,0,0,0,0,0,0,0,0],"split_type":[0,0,0,0,0,0,0,0,0,0,0,0,0,0,0],"sum_hessian":[9.31E2,9.06E2,2.5E1,8.78E2,2.8E1,1.5E1,1E1,8.54E2,2.4E1,2.2E1,6E0,1.3E1,2E0,3E0,7E0],"tree_param":{"num_deleted":"0","num_feature":"48","num_nodes":"15","size_leaf_vector":"1"}},{"base_weights":[6.85436E2,-5.6847026E3,2.1700883E5,-9.578461E2,-1.8937392E5,-8.572173E4,4.304937E5,-1.0404081E3,8.0956635E2,-6.7449375E3,-2.2862954E3,-6.3569956E3,-6.035375E2,2.868078E3,2.2603035E4],"categories":[],"categories_nodes":[],"categories_segments":[],"categories_sizes":[],"default_left":[0,0,0,0,0,0,0,0,0,0,0,0,0,0,0],"id":76,"left_children":[1,3,5,7,9,11,13,-1,-1,-1,-1,-1,-1,-1,-1],"loss_changes":[1.3006972E12,7.9602464E11,1.7818694E12,8.443112E11,7.5153015E10,9.507022E10,1.6583696E12,0E0,0E0,0E0,0E0,0E0,0E0,0E0,0E0],"parents":[2147483647,0,0,1,1,2,2,3,3,4,4,5,5,6,6],"right_children":[2,4,6,8,10,12,14,-1,-1,-1,-1,-1,-1,-1,-1],"split_conditions":[3.7799532E0,2.540143E0,-3.092702E-1,-4.0893552E-1,-3.270874E-2,2E0,1E0,-1.0404081E3,8.0956635E2,-6.7449375E3,-2.2862954E3,-6.3569956E3,-6.035375E2,2.868078E3,2.2603035E4],"split_indices":[46,46,7,47,6,3,17,0,0,0,0,0,0,0,0],"split_type":[0,0,0,0,0,0,0,0,0,0,0,0,0,0,0],"sum_hessian":[9.42E2,9.16E2,2.6E1,8.94E2,2.2E1,1.1E1,1.5E1,4.05E2,4.89E2,1.6E1,6E0,3E0,8E0,8E0,7E0],"tree_param":{"num_deleted":"0","num_feature":"48","num_nodes":"15","size_leaf_vector":"1"}},{"base_weights":[4.247709E3,-2.6387693E4,4.2696332E4,-3.1454324E4,2.3819594E5,8.704193E3,1.1414125E5,-1.4224376E3,5.379257E2,-6.952439E2,2.5673578E4,-1.6823604E2,2.4389204E3,1.0435951E4,2.5915469E3],"categories":[],"categories_nodes":[],"categories_segments":[],"categories_sizes":[],"default_left":[0,0,0,0,0,0,0,0,0,0,0,0,0,0,0],"id":77,"left_children":[1,3,5,7,9,11,13,-1,-1,-1,-1,-1,-1,-1,-1],"loss_changes":[1.1130539E12,7.126205E11,1.0165754E12,4.0834987E11,1.634032E12,2.9655885E11,8.457379E11,0E0,0E0,0E0,0E0,0E0,0E0,0E0,0E0],"parents":[2147483647,0,0,1,1,2,2,3,3,4,4,5,5,6,6],"right_children":[2,4,6,8,10,12,14,-1,-1,-1,-1,-1,-1,-1,-1],"split_conditions":[-3.5163634E-2,3.9870825E-2,2.6300332E-1,2E0,1E0,2.008E3,3.6740902E-1,-1.4224376E3,5.379257E2,-6.952439E2,2.5673578E4,-1.6823604E2,2.4389204E3,1.0435951E4,2.5915469E3],"split_indices":[7,6,47,1,38,0,47,0,0,0,0,0,0,0,0],"split_type":[0,0,0,0,0,0,0,0,0,0,0,0,0,0,0],"sum_hessian":[9.43E2,5.25E2,4.18E2,5.16E2,9E0,2.84E2,1.34E2,3.9E2,1.26E2,7E0,2E0,2.38E2,4.6E1,1.3E1,1.21E2],"tree_param":{"num_deleted":"0","num_feature":"48","num_nodes":"15","size_leaf_vector":"1"}},{"base_weights":[1.6834122E3,-3.3674185E3,3.5355797E5,-3.0287943E4,3.6434145E4,5.166509E5,-1.4256388E5,-1.0992765E3,3.6386577E3,4.0318372E3,5.378652E2,2.608342E4,7.237369E3,7.108729E2,-6.1764697E3],"categories":[],"categories_nodes":[],"categories_segments":[],"categories_sizes":[],"default_left":[0,0,0,0,0,0,0,0,0,0,0,0,0,0,0],"id":78,"left_children":[1,3,5,7,9,11,13,-1,-1,-1,-1,-1,-1,-1,-1],"loss_changes":[1.6327141E12,9.718634E11,1.1255374E12,5.255407E11,6.610708E11,7.618696E11,4.6987756E10,0E0,0E0,0E0,0E0,0E0,0E0,0E0,0E0],"parents":[2147483647,0,0,1,1,2,2,3,3,4,4,5,5,6,6],"right_children":[2,4,6,8,10,12,14,-1,-1,-1,-1,-1,-1,-1,-1],"split_conditions":[3.2683916E0,1E0,1E0,3.7799532E0,1.95E3,1E0,4E0,-1.0992765E3,3.6386577E3,4.0318372E3,5.378652E2,2.608342E4,7.237369E3,7.108729E2,-6.1764697E3],"split_indices":[7,15,34,46,0,12,4,0,0,0,0,0,0,0,0],"split_type":[0,0,0,0,0,0,0,0,0,0,0,0,0,0,0],"sum_hessian":[9.17E2,9.05E2,1.2E1,5.4E2,3.65E2,9E0,3E0,5.19E2,2.1E1,5.7E1,3.08E2,3E0,6E0,1E0,2E0],"tree_param":{"num_deleted":"0","num_feature":"48","num_nodes":"15","size_leaf_vector":"1"}},{"base_weights":[2.8049312E3,-1.3257184E3,4.2014784E5,-3.1844158E4,3.7839113E4,6.266607E5,-2.0176467E5,-1.0285167E3,1.1805752E4,9.177215E3,7.7525195E2,2.1799209E4,4.017431E2,-1.8217556E3,-7.2576543E3],"categories":[],"categories_nodes":[],"categories_segments":[],"categories_sizes":[],"default_left":[0,0,0,0,0,0,0,0,0,0,0,0,0,0,0],"id":79,"left_children":[1,3,5,7,9,11,13,-1,-1,-1,-1,-1,-1,-1,-1],"loss_changes":[1.5830948E12,1.088882E12,1.282334E12,5.4483858E11,1.2753241E12,4.1947025E11,2.3004856E9,0E0,0E0,0E0,0E0,0E0,0E0,0E0,0E0],"parents":[2147483647,0,0,1,1,2,2,3,3,4,4,5,5,6,6],"right_children":[2,4,6,8,10,12,14,-1,-1,-1,-1,-1,-1,-1,-1],"split_conditions":[3.649095E0,-3.5163634E-2,1E0,6.144808E-1,5E0,-2.6592735E-2,1.901E3,-1.0285167E3,1.1805752E4,9.177215E3,7.7525195E2,2.1799209E4,4.017431E2,-1.8217556E3,-7.2576543E3],"split_indices":[7,7,34,6,5,6,0,0,0,0,0,0,0,0,0],"split_type":[0,0,0,0,0,0,0,0,0,0,0,0,0,0,0],"sum_hessian":[9.17E2,9.09E2,8E0,5.11E2,3.98E2,6E0,2E0,5.09E2,2E0,1.6E1,3.82E2,5E0,1E0,1E0,1E0],"tree_param":{"num_deleted":"0","num_feature":"48","num_nodes":"15","size_leaf_vector":"1"}},{"base_weights":[1.0996913E3,-5.152669E3,1.8967589E5,-8.822696E3,2.131905E5,3.0533253E5,-7.217061E4,-1.1219899E3,6.653566E2,-1.1244626E2,1.9434527E4,1.7136077E3,1.717962E4,1.6181003E3,-8.244471E3],"categories":[],"categories_nodes":[],"categories_segments":[],"categories_sizes":[],"default_left":[0,0,0,0,0,0,0,0,0,0,0,0,0,0,0],"id":80,"left_children":[1,3,5,7,9,11,13,-1,-1,-1,-1,-1,-1,-1,-1],"loss_changes":[1.1022067E12,7.2708057E11,9.3056434E11,7.901858E11,1.4167397E12,1.3606917E12,2.7037288E11,0E0,0E0,0E0,0E0,0E0,0E0,0E0,0E0],"parents":[2147483647,0,0,1,1,2,2,3,3,4,4,5,5,6,6],"right_children":[2,4,6,8,10,12,14,-1,-1,-1,-1,-1,-1,-1,-1],"split_conditions":[5E0,3.9870825E-2,1E0,-1.0375937E-1,1E0,-1.0375937E-1,1E0,-1.1219899E3,6.653566E2,-1.1244626E2,1.9434527E4,1.7136077E3,1.717962E4,1.6181003E3,-8.244471E3],"split_indices":[4,6,29,47,38,47,31,0,0,0,0,0,0,0,0],"split_type":[0,0,0,0,0,0,0,0,0,0,0,0,0,0,0],"sum_hessian":[9.33E2,9.04E2,2.9E1,8.9E2,1.4E1,2E1,9E0,4.63E2,4.27E2,1E1,4E0,1.1E1,9E0,6E0,3E0],"tree_param":{"num_deleted":"0","num_feature":"48","num_nodes":"15","size_leaf_vector":"1"}},{"base_weights":[8.637384E2,-1.7023066E4,6.958218E4,-2.1242678E4,1.5106614E5,4.3554848E4,4.520247E5,-9.58288E2,1.1897196E3,-3.408834E2,1.7269615E4,4.9409653E2,6.2921826E3,2.3748806E3,2.4350787E4],"categories":[],"categories_nodes":[],"categories_segments":[],"categories_sizes":[],"default_left":[0,0,0,0,0,0,0,0,0,0,0,0,0,0,0],"id":81,"left_children":[1,3,5,7,9,11,13,-1,-1,-1,-1,-1,-1,-1,-1],"loss_changes":[1.1307764E12,5.2097696E11,1.8715642E12,4.658902E11,1.2479169E12,8.022431E11,1.5450238E12,0E0,0E0,0E0,0E0,0E0,0E0,0E0,0E0],"parents":[2147483647,0,0,1,1,2,2,3,3,4,4,5,5,6,6],"right_children":[2,4,6,8,10,12,14,-1,-1,-1,-1,-1,-1,-1,-1],"split_conditions":[1E0,3.9870825E-2,1.3455515E0,1E0,1E0,1.3820055E0,2E0,-9.58288E2,1.1897196E3,-3.408834E2,1.7269615E4,4.9409653E2,6.2921826E3,2.3748806E3,2.4350787E4],"split_indices":[26,6,46,29,38,7,4,0,0,0,0,0,0,0,0],"split_type":[0,0,0,0,0,0,0,0,0,0,0,0,0,0,0],"sum_hessian":[9.18E2,7.29E2,1.89E2,7.12E2,1.7E1,1.78E2,1.1E1,6.06E2,1.06E2,1.3E1,4E0,1.54E2,2.4E1,6E0,5E0],"tree_param":{"num_deleted":"0","num_feature":"48","num_nodes":"15","size_leaf_vector":"1"}},{"base_weights":[5.734879E3,-3.7428062E4,3.3461E4,-4.083E4,3.7647678E5,2.2543174E4,3.5731722E5,-8.909716E2,-4.5572114E3,9.321234E2,1.6009331E4,5.404968E0,2.3755542E3,2.1234908E4,2.0974565E3],"categories":[],"categories_nodes":[],"categories_segments":[],"categories_sizes":[],"default_left":[0,0,0,0,0,0,0,0,0,0,0,0,0,0,0],"id":82,"left_children":[1,3,5,7,9,11,13,-1,-1,-1,-1,-1,-1,-1,-1],"loss_changes":[1.0890898E12,5.1664765E11,1.9507814E12,4.3317146E11,1.4627914E11,6.8019546E11,1.7637987E12,0E0,0E0,0E0,0E0,0E0,0E0,0E0,0E0],"parents":[2147483647,0,0,1,1,2,2,3,3,4,4,5,5,6,6],"right_children":[2,4,6,8,10,12,14,-1,-1,-1,-1,-1,-1,-1,-1],"split_conditions":[-3.0831844E-1,6.144808E-1,3.7799532E0,2.540143E0,1E0,2.6300332E-1,2E0,-8.909716E2,-4.5572114E3,9.321234E2,1.6009331E4,5.404968E0,2.3755542E3,2.1234908E4,2.0974565E3],"split_indices":[7,6,46,46,32,47,2,0,0,0,0,0,0,0,0],"split_type":[0,0,0,0,0,0,0,0,0,0,0,0,0,0,0],"sum_hessian":[9.08E2,3.55E2,5.53E2,3.53E2,2E0,5.36E2,1.7E1,3.22E2,3.1E1,1E0,1E0,3.85E2,1.51E2,7E0,1E1],"tree_param":{"num_deleted":"0","num_feature":"48","num_nodes":"15","size_leaf_vector":"1"}},{"base_weights":[-4.786979E3,-2.2669367E4,6.834095E4,-2.440263E4,1.2407433E4,2.2285154E4,3.2085197E5,-5.177555E3,-6.080933E2,-3.7160447E3,1.2717577E3,1.3790817E3,1.6680566E4],"categories":[],"categories_nodes":[],"categories_segments":[],"categories_sizes":[],"default_left":[0,0,0,0,0,0,0,0,0,0,0,0,0],"id":83,"left_children":[1,3,5,7,-1,9,11,-1,-1,-1,-1,-1,-1],"loss_changes":[1.2111737E12,5.7265855E11,2.1094362E12,4.5091504E11,0E0,4.6074505E11,1.7844522E12,0E0,0E0,0E0,0E0,0E0,0E0],"parents":[2147483647,0,0,1,1,2,2,3,3,5,5,6,6],"right_children":[2,4,6,8,-1,10,12,-1,-1,-1,-1,-1,-1],"split_conditions":[1E0,8E0,8.235407E-1,2E0,1.2407433E4,-6.899738E-1,3E0,-5.177555E3,-6.080933E2,-3.7160447E3,1.2717577E3,1.3790817E3,1.6680566E4],"split_indices":[26,2,46,5,0,7,4,0,0,0,0,0,0],"split_type":[0,0,0,0,0,0,0,0,0,0,0,0,0],"sum_hessian":[9.24E2,7.43E2,1.81E2,7.41E2,2E0,1.54E2,2.7E1,1.9E1,7.22E2,1.8E1,1.36E2,1.3E1,1.4E1],"tree_param":{"num_deleted":"0","num_feature":"48","num_nodes":"13","size_leaf_vector":"1"}},{"base_weights":[1.5611173E3,-4.9895474E3,2.045779E5,-9.522376E3,2.0545314E5,5.2102633E4,4.8907066E5,-1.1061278E3,8.039732E2,1.02325934E3,1.4829416E4,-1.2592036E3,8.358271E3,1.9912795E3,2.2794133E4],"categories":[],"categories_nodes":[],"categories_segments":[],"categories_sizes":[],"default_left":[0,0,0,0,0,0,0,0,0,0,0,0,0,0,0],"id":84,"left_children":[1,3,5,7,9,11,13,-1,-1,-1,-1,-1,-1,-1,-1],"loss_changes":[1.2338333E12,8.595129E11,1.2324833E12,8.761205E11,9.235389E11,4.37871E11,1.0939445E12,0E0,0E0,0E0,0E0,0E0,0E0,0E0,0E0],"parents":[2147483647,0,0,1,1,2,2,3,3,4,4,5,5,6,6],"right_children":[2,4,6,8,10,12,14,-1,-1,-1,-1,-1,-1,-1,-1],"split_conditions":[3.7799532E0,3.9870825E-2,1E0,1E0,-4.0893552E-1,1E0,2E0,-1.1061278E3,8.039732E2,1.02325934E3,1.4829416E4,-1.2592036E3,8.358271E3,1.9912795E3,2.2794133E4],"split_indices":[46,6,26,15,47,23,4,0,0,0,0,0,0,0,0],"split_type":[0,0,0,0,0,0,0,0,0,0,0,0,0,0,0],"sum_hessian":[9.26E2,8.98E2,2.8E1,8.8E2,1.8E1,1.9E1,9E0,5.02E2,3.78E2,1.2E1,6E0,1.4E1,5E0,4E0,5E0],"tree_param":{"num_deleted":"0","num_feature":"48","num_nodes":"15","size_leaf_vector":"1"}},{"base_weights":[2.7666296E3,-4.4046035E3,2.0593981E5,-7.718019E3,3.6890522E5,1.1124907E5,5.977249E5,-9.967238E1,-5.255398E3,2.4413508E4,-1.8233564E3,5.5358164E3,-2.5755735E3,-1.6985747E3,2.2197525E4],"categories":[],"categories_nodes":[],"categories_segments":[],"categories_sizes":[],"default_left":[0,0,0,0,0,0,0,0,0,0,0,0,0,0,0],"id":85,"left_children":[1,3,5,7,9,11,13,-1,-1,-1,-1,-1,-1,-1,-1],"loss_changes":[1.3675751E12,1.1247432E12,1.120653E12,6.61905E11,1.5787168E12,4.058095E11,6.001509E11,0E0,0E0,0E0,0E0,0E0,0E0,0E0,0E0],"parents":[2147483647,0,0,1,1,2,2,3,3,4,4,5,5,6,6],"right_children":[2,4,6,8,10,12,14,-1,-1,-1,-1,-1,-1,-1,-1],"split_conditions":[3.7799532E0,3.649095E0,1E0,2.540143E0,1E0,1E0,-4.577446E-1,-9.967238E1,-5.255398E3,2.4413508E4,-1.8233564E3,5.5358164E3,-2.5755735E3,-1.6985747E3,2.2197525E4],"split_indices":[46,7,39,46,12,25,7,0,0,0,0,0,0,0,0],"split_type":[0,0,0,0,0,0,0,0,0,0,0,0,0,0,0],"sum_hessian":[9.37E2,9.06E2,3.1E1,8.99E2,7E0,2.6E1,5E0,8.77E2,2.2E1,3E0,4E0,1.9E1,7E0,1E0,4E0],"tree_param":{"num_deleted":"0","num_feature":"48","num_nodes":"15","size_leaf_vector":"1"}},{"base_weights":[2.2655261E3,-2.0413457E4,3.774285E4,-2.521997E4,1.9998402E5,1.02751045E4,9.827729E4,-8.719177E2,4.4477407E3,-1.4046501E3,2.1159023E4,