{"learner":{"attributes":{"scikit_learn":"{\"_estimator_type\": \"regressor\"}"},"feature_names":["baths","type","lot_sqft","sqft","garage_2_or_more","community_security_features","farm","open_floor_plan","encoded_city","encoded_state"],"feature_types":["int","int","float","float","int","int","int","int","float","float"],"gradient_booster":{"model":{"gbtree_model_param":{"num_parallel_tree":"1","num_trees":"300"},"iteration_indptr":[0,1,2,3,4,5,6,7,8,9,10,11,12,13,14,15,16,17,18,19,20,21,22,23,24,25,26,27,28,29,30,31,32,33,34,35,36,37,38,39,40,41,42,43,44,45,46,47,48,49,50,51,52,53,54,55,56,57,58,59,60,61,62,63,64,65,66,67,68,69,70,71,72,73,74,75,76,77,78,79,80,81,82,83,84,85,86,87,88,89,90,91,92,93,94,95,96,97,98,99,100,101,102,103,104,105,106,107,108,109,110,111,112,113,114,115,116,117,118,119,120,121,122,123,124,125,126,127,128,129,130,131,132,133,134,135,136,137,138,139,140,141,142,143,144,145,146,147,148,149,150,151,152,153,154,155,156,157,158,159,160,161,162,163,164,165,166,167,168,169,170,171,172,173,174,175,176,177,178,179,180,181,182,183,184,185,186,187,188,189,190,191,192,193,194,195,196,197,198,199,200,201,202,203,204,205,206,207,208,209,210,211,212,213,214,215,216,217,218,219,220,221,222,223,224,225,226,227,228,229,230,231,232,233,234,235,236,237,238,239,240,241,242,243,244,245,246,247,248,249,250,251,252,253,254,255,256,257,258,259,260,261,262,263,264,265,266,267,268,269,270,271,272,273,274,275,276,277,278,279,280,281,282,283,284,285,286,287,288,289,290,291,292,293,294,295,296,297,298,299,300],"tree_info":[0,0,0,0,0,0,0,0,0,0,0,0,0,0,0,0,0,0,0,0,0,0,0,0,0,0,0,0,0,0,0,0,0,0,0,0,0,0,0,0,0,0,0,0,0,0,0,0,0,0,0,0,0,0,0,0,0,0,0,0,0,0,0,0,0,0,0,0,0,0,0,0,0,0,0,0,0,0,0,0,0,0,0,0,0,0,0,0,0,0,0,0,0,0,0,0,0,0,0,0,0,0,0,0,0,0,0,0,0,0,0,0,0,0,0,0,0,0,0,0,0,0,0,0,0,0,0,0,0,0,0,0,0,0,0,0,0,0,0,0,0,0,0,0,0,0,0,0,0,0,0,0,0,0,0,0,0,0,0,0,0,0,0,0,0,0,0,0,0,0,0,0,0,0,0,0,0,0,0,0,0,0,0,0,0,0,0,0,0,0,0,0,0,0,0,0,0,0,0,0,0,0,0,0,0,0,0,0,0,0,0,0,0,0,0,0,0,0,0,0,0,0,0,0,0,0,0,0,0,0,0,0,0,0,0,0,0,0,0,0,0,0,0,0,0,0,0,0,0,0,0,0,0,0,0,0,0,0,0,0,0,0,0,0,0,0,0,0,0,0,0,0,0,0,0,0,0,0,0,0,0,0,0,0,0,0,0,0,0,0,0,0,0,0,0,0,0,0,0,0],"trees":[{"base_weights":[1.2575889E-2,-7.463625E4,3.4347175E5,-1.8389614E5,3.0932586E4,1.2668818E5,6.9036825E5,-2.3275324E4,-1.2110199E4,7.239669E2,5.270778E4,5.236759E3,3.1516395E4,5.8075758E4,1.2021796E5],"categories":[],"categories_nodes":[],"categories_segments":[],"categories_sizes":[],"default_left":[0,0,0,0,0,0,0,0,0,0,0,0,0,0,0],"id":0,"left_children":[1,3,5,7,9,11,13,-1,-1,-1,-1,-1,-1,-1,-1],"loss_changes":[2.9583307E13,1.0940337E13,1.5404039E13,1.4014743E12,5.6739113E12,1.7764726E12,3.7337275E12,0E0,0E0,0E0,0E0,0E0,0E0,0E0,0E0],"parents":[2147483647,0,0,1,1,2,2,3,3,4,4,5,5,6,6],"right_children":[2,4,6,8,10,12,14,-1,-1,-1,-1,-1,-1,-1,-1],"split_conditions":[7.1383876E-1,-5.349018E-2,2.6698953E-1,-1.796293E-1,3.7988644E0,-1.4189944E-1,2.7587817E0,-2.3275324E4,-1.2110199E4,7.239669E2,5.270778E4,5.236759E3,3.1516395E4,5.8075758E4,1.2021796E5],"split_indices":[3,8,9,3,8,8,3,0,0,0,0,0,0,0,0],"split_type":[0,0,0,0,0,0,0,0,0,0,0,0,0,0,0],"sum_hessian":[1.152E3,9.47E2,2.05E2,4.65E2,4.82E2,1.27E2,7.8E1,2.6E2,2.05E2,4.61E2,2.1E1,9.2E1,3.5E1,6.6E1,1.2E1],"tree_param":{"num_deleted":"0","num_feature":"10","num_nodes":"15","size_leaf_vector":"1"}},{"base_weights":[2.0216948E2,-6.4582484E4,3.227817E5,-1.6353411E5,3.1263533E4,7.388937E4,5.73497E5,-1.9812576E4,-8.6234E3,1.0254313E3,4.767659E4,7.6008514E2,1.8297041E4,4.660413E4,1.12268836E5],"categories":[],"categories_nodes":[],"categories_segments":[],"categories_sizes":[],"default_left":[0,0,0,0,0,0,0,0,0,0,0,0,0,0,0],"id":1,"left_children":[1,3,5,7,9,11,13,-1,-1,-1,-1,-1,-1,-1,-1],"loss_changes":[2.4116474E13,9.119351E12,1.200104E13,1.247688E12,4.571983E12,7.0722965E11,5.1420993E12,0E0,0E0,0E0,0E0,0E0,0E0,0E0,0E0],"parents":[2147483647,0,0,1,1,2,2,3,3,4,4,5,5,6,6],"right_children":[2,4,6,8,10,12,14,-1,-1,-1,-1,-1,-1,-1,-1],"split_conditions":[7.807294E-1,-5.349018E-2,-1.0137629E-1,1E0,3.7988644E0,4E0,2.7587817E0,-1.9812576E4,-8.6234E3,1.0254313E3,4.767659E4,7.6008514E2,1.8297041E4,4.660413E4,1.12268836E5],"split_indices":[3,8,9,4,8,0,3,0,0,0,0,0,0,0,0],"split_type":[0,0,0,0,0,0,0,0,0,0,0,0,0,0,0],"sum_hessian":[1.152E3,9.6E2,1.92E2,4.72E2,4.88E2,9.7E1,9.5E1,3.25E2,1.47E2,4.67E2,2.1E1,6.1E1,3.6E1,8.1E1,1.4E1],"tree_param":{"num_deleted":"0","num_feature":"10","num_nodes":"15","size_leaf_vector":"1"}},{"base_weights":[3.5384256E2,-6.0666203E4,2.811628E5,-1.49222E5,2.4898326E4,1.0111271E5,5.6933056E5,-1.9167389E4,-9.471152E3,5.49405E2,4.3125637E4,8.4453314E2,2.05995E4,3.9477254E4,7.8875234E4],"categories":[],"categories_nodes":[],"categories_segments":[],"categories_sizes":[],"default_left":[0,0,0,0,0,0,0,0,0,0,0,0,0,0,0],"id":2,"left_children":[1,3,5,7,9,11,13,-1,-1,-1,-1,-1,-1,-1,-1],"loss_changes":[1.9773685E13,7.186934E12,1.0630669E13,1.0602047E12,3.8061261E12,1.2423134E12,2.7144655E12,0E0,0E0,0E0,0E0,0E0,0E0,0E0,0E0],"parents":[2147483647,0,0,1,1,2,2,3,3,4,4,5,5,6,6],"right_children":[2,4,6,8,10,12,14,-1,-1,-1,-1,-1,-1,-1,-1],"split_conditions":[7.1383876E-1,-5.349018E-2,2.6698953E-1,-1.796293E-1,3.7988644E0,-5.0124615E-1,1.4869037E0,-1.9167389E4,-9.471152E3,5.49405E2,4.3125637E4,8.4453314E2,2.05995E4,3.9477254E4,7.8875234E4],"split_indices":[3,8,9,3,8,8,3,0,0,0,0,0,0,0,0],"split_type":[0,0,0,0,0,0,0,0,0,0,0,0,0,0,0],"sum_hessian":[1.152E3,9.47E2,2.05E2,4.65E2,4.82E2,1.27E2,7.8E1,2.6E2,2.05E2,4.61E2,2.1E1,6.8E1,5.9E1,4.5E1,3.3E1],"tree_param":{"num_deleted":"0","num_feature":"10","num_nodes":"15","size_leaf_vector":"1"}},{"base_weights":[4.5274237E2,-5.4583727E4,2.5372517E5,-1.3436127E5,2.2498916E4,9.116898E4,5.1389562E5,-1.952822E4,-1.0156273E4,4.9458322E2,3.90091E4,5.858957E3,3.748645E4,4.6628793E4,1.2899681E5],"categories":[],"categories_nodes":[],"categories_segments":[],"categories_sizes":[],"default_left":[0,0,0,0,0,0,0,0,0,0,0,0,0,0,0],"id":3,"left_children":[1,3,5,7,9,11,13,-1,-1,-1,-1,-1,-1,-1,-1],"loss_changes":[1.6085769E13,5.8327145E12,8.665367E12,9.1128857E11,3.1145677E12,1.1610934E12,2.3173194E12,0E0,0E0,0E0,0E0,0E0,0E0,0E0,0E0],"parents":[2147483647,0,0,1,1,2,2,3,3,4,4,5,5,6,6],"right_children":[2,4,6,8,10,12,14,-1,-1,-1,-1,-1,-1,-1,-1],"split_conditions":[7.1383876E-1,-5.349018E-2,2.6698953E-1,-4.892375E-1,3.7988644E0,5E0,4.3412232E0,-1.952822E4,-1.0156273E4,4.9458322E2,3.90091E4,5.858957E3,3.748645E4,4.6628793E4,1.2899681E5],"split_indices":[3,8,9,3,8,0,3,0,0,0,0,0,0,0,0],"split_type":[0,0,0,0,0,0,0,0,0,0,0,0,0,0,0],"sum_hessian":[1.152E3,9.47E2,2.05E2,4.65E2,4.82E2,1.27E2,7.8E1,1.61E2,3.04E2,4.61E2,2.1E1,1.15E2,1.2E1,7.5E1,3E0],"tree_param":{"num_deleted":"0","num_feature":"10","num_nodes":"15","size_leaf_vector":"1"}},{"base_weights":[6.0589453E2,-4.9115E4,2.2941561E5,-1.2861827E5,1.0419891E4,4.3336906E4,4.1871803E5,-2.1323072E4,-1.0349776E4,-4.032203E2,3.5285504E4,-1.2884084E3,1.3881049E4,3.330682E4,8.932826E4],"categories":[],"categories_nodes":[],"categories_segments":[],"categories_sizes":[],"default_left":[0,0,0,0,0,0,0,0,0,0,0,0,0,0,0],"id":4,"left_children":[1,3,5,7,9,11,13,-1,-1,-1,-1,-1,-1,-1,-1],"loss_changes":[1.3128514E13,4.4884317E12,7.238236E12,8.408877E11,2.6886778E12,5.653884E11,3.848406E12,0E0,0E0,0E0,0E0,0E0,0E0,0E0,0E0],"parents":[2147483647,0,0,1,1,2,2,3,3,4,4,5,5,6,6],"right_children":[2,4,6,8,10,12,14,-1,-1,-1,-1,-1,-1,-1,-1],"split_conditions":[7.1383876E-1,-4.0788636E-1,-1.0137629E-1,-7.869445E-1,3.8181505E0,4E0,2.7587817E0,-2.1323072E4,-1.0349776E4,-4.032203E2,3.5285504E4,-1.2884084E3,1.3881049E4,3.330682E4,8.932826E4],"split_indices":[3,9,9,9,9,0,3,0,0,0,0,0,0,0,0],"split_type":[0,0,0,0,0,0,0,0,0,0,0,0,0,0,0],"sum_hessian":[1.152E3,9.47E2,2.05E2,4.05E2,5.42E2,1.04E2,1.01E2,9.1E1,3.14E2,5.21E2,2.1E1,6.6E1,3.8E1,8.7E1,1.4E1],"tree_param":{"num_deleted":"0","num_feature":"10","num_nodes":"15","size_leaf_vector":"1"}},{"base_weights":[6.6537164E2,-6.705816E4,1.4134794E5,-1.3105034E5,-1.2330713E4,7.27818E4,3.973327E5,-2.1918068E4,-1.1227474E4,-4.1942017E3,1.2708907E4,6.0392964E3,6.635746E4,3.1359441E4,9.437675E4],"categories":[],"categories_nodes":[],"categories_segments":[],"categories_sizes":[],"default_left":[0,0,0,0,0,0,0,0,0,0,0,0,0,0,0],"id":5,"left_children":[1,3,5,7,9,11,13,-1,-1,-1,-1,-1,-1,-1,-1],"loss_changes":[1.0994708E13,2.7265424E12,6.5530395E12,5.694287E11,1.7433874E12,2.1337364E12,3.3188846E12,0E0,0E0,0E0,0E0,0E0,0E0,0E0,0E0],"parents":[2147483647,0,0,1,1,2,2,3,3,4,4,5,5,6,6],"right_children":[2,4,6,8,10,12,14,-1,-1,-1,-1,-1,-1,-1,-1],"split_conditions":[3E0,-4.0788636E-1,5.361113E-1,-9.5895195E-1,1.9310557E-3,3.6732724E0,5E0,-2.1918068E4,-1.1227474E4,-4.1942017E3,1.2708907E4,6.0392964E3,6.635746E4,3.1359441E4,9.437675E4],"split_indices":[0,9,9,9,3,3,0,0,0,0,0,0,0,0,0],"split_type":[0,0,0,0,0,0,0,0,0,0,0,0,0,0,0],"sum_hessian":[1.152E3,7.78E2,3.74E2,3.58E2,4.2E2,2.96E2,7.8E1,6.1E1,2.97E2,3.47E2,7.3E1,2.91E2,5E0,6.9E1,9E0],"tree_param":{"num_deleted":"0","num_feature":"10","num_nodes":"15","size_leaf_vector":"1"}},{"base_weights":[7.4931006E2,-6.13562E4,1.3339655E5,-7.212647E4,3.159443E5,4.0985734E4,3.1713362E5,-1.1767532E4,-2.444186E3,3.3134907E3,1.0645802E5,-3.050216E3,1.0397513E4,2.1296389E4,5.5350215E4],"categories":[],"categories_nodes":[],"categories_segments":[],"categories_sizes":[],"default_left":[0,0,0,0,0,0,0,0,0,0,0,0,0,0,0],"id":6,"left_children":[1,3,5,7,9,11,13,-1,-1,-1,-1,-1,-1,-1,-1],"loss_changes":[9.506742E12,3.2167997E12,6.235382E12,1.6586878E12,4.6225943E12,1.1109041E12,2.9106844E12,0E0,0E0,0E0,0E0,0E0,0E0,0E0,0E0],"parents":[2147483647,0,0,1,1,2,2,3,3,4,4,5,5,6,6],"right_children":[2,4,6,8,10,12,14,-1,-1,-1,-1,-1,-1,-1,-1],"split_conditions":[2.7044925E-1,3.7988644E0,2.6698953E-1,-5.349018E-2,-3.0767712E-1,-5.0124615E-1,1.4458137E0,-1.1767532E4,-2.444186E3,3.3134907E3,1.0645802E5,-3.050216E3,1.0397513E4,2.1296389E4,5.5350215E4],"split_indices":[3,8,9,8,3,8,3,0,0,0,0,0,0,0,0],"split_type":[0,0,0,0,0,0,0,0,0,0,0,0,0,0,0],"sum_hessian":[1.152E3,7.85E2,3.67E2,7.64E2,2.1E1,2.45E2,1.22E2,3.9E2,3.74E2,1.6E1,5E0,1.15E2,1.3E2,8.6E1,3.6E1],"tree_param":{"num_deleted":"0","num_feature":"10","num_nodes":"15","size_leaf_vector":"1"}},{"base_weights":[8.3010986E2,-2.984435E4,2.2665925E5,-7.8926234E4,4.3791504E4,3.913913E4,3.8365428E5,-1.0613155E4,-2.5448584E3,-4.547063E3,1.0931728E4,1.2757367E3,2.920366E4,3.2440865E4,1.0109111E5],"categories":[],"categories_nodes":[],"categories_segments":[],"categories_sizes":[],"default_left":[0,0,0,0,0,0,0,0,0,0,0,0,0,0,0],"id":7,"left_children":[1,3,5,7,9,11,13,-1,-1,-1,-1,-1,-1,-1,-1],"loss_changes":[7.9938113E12,3.675469E12,4.0476664E12,8.8477375E11,2.3855015E12,4.2327477E11,2.459218E12,0E0,0E0,0E0,0E0,0E0,0E0,0E0,0E0],"parents":[2147483647,0,0,1,1,2,2,3,3,4,4,5,5,6,6],"right_children":[2,4,6,8,10,12,14,-1,-1,-1,-1,-1,-1,-1,-1],"split_conditions":[1.030136E0,1.321153E-2,-1.4189944E-1,1E0,-3.3634454E-1,-2.03738E-2,4.3412232E0,-1.0613155E4,-2.5448584E3,-4.547063E3,1.0931728E4,1.2757367E3,2.920366E4,3.2440865E4,1.0109111E5],"split_indices":[3,8,8,4,3,2,3,0,0,0,0,0,0,0,0],"split_type":[0,0,0,0,0,0,0,0,0,0,0,0,0,0,0],"sum_hessian":[1.152E3,1.015E3,1.37E2,6.09E2,4.06E2,6.3E1,7.4E1,4.03E2,2.06E2,1.72E2,2.34E2,5.8E1,5E0,6.9E1,5E0],"tree_param":{"num_deleted":"0","num_feature":"10","num_nodes":"15","size_leaf_vector":"1"}},{"base_weights":[8.834698E2,-2.3218354E4,2.494544E5,-7.0458625E4,4.7194387E4,1.5778858E5,6.415846E5,-9.186413E3,-1.4720219E3,-1.0640583E3,1.4726156E4,8.375697E3,2.8165691E4,3.9539906E4,1.2518245E5],"categories":[],"categories_nodes":[],"categories_segments":[],"categories_sizes":[],"default_left":[0,0,0,0,0,0,0,0,0,0,0,0,0,0,0],"id":8,"left_children":[1,3,5,7,9,11,13,-1,-1,-1,-1,-1,-1,-1,-1],"loss_changes":[6.9134293E12,3.5026106E12,3.565149E12,7.5030594E11,2.4496298E12,7.467037E11,2.3594433E12,0E0,0E0,0E0,0E0,0E0,0E0,0E0,0E0],"parents":[2147483647,0,0,1,1,2,2,3,3,4,4,5,5,6,6],"right_children":[2,4,6,8,10,12,14,-1,-1,-1,-1,-1,-1,-1,-1],"split_conditions":[4E0,1.321153E-2,8.297516E-1,1.9304721E-1,1.5309187E-2,1.9245596E0,5E0,-9.186413E3,-1.4720219E3,-1.0640583E3,1.4726156E4,8.375697E3,2.8165691E4,3.9539906E4,1.2518245E5],"split_indices":[0,8,8,3,3,3,0,0,0,0,0,0,0,0,0],"split_type":[0,0,0,0,0,0,0,0,0,0,0,0,0,0,0],"sum_hessian":[1.152E3,1.051E3,1.01E2,6.29E2,4.22E2,8.3E1,1.8E1,4.54E2,1.75E2,2.68E2,1.54E2,5.3E1,3E1,1.4E1,4E0],"tree_param":{"num_deleted":"0","num_feature":"10","num_nodes":"15","size_leaf_vector":"1"}},{"base_weights":[9.7228467E2,-2.0893664E4,2.2648214E5,-6.3429684E4,4.250725E4,1.4244473E5,5.860958E5,-1.3595698E4,-4.5921313E3,-4.1842617E3,9.99107E3,1.2038856E4,5.5347125E4,3.5849516E4,1.1516785E5],"categories":[],"categories_nodes":[],"categories_segments":[],"categories_sizes":[],"default_left":[0,0,0,0,0,0,0,0,0,0,0,0,0,0,0],"id":9,"left_children":[1,3,5,7,9,11,13,-1,-1,-1,-1,-1,-1,-1,-1],"loss_changes":[5.6901595E12,2.8397533E12,2.9990553E12,7.9375263E11,2.0523353E12,6.94885E11,2.0329414E12,0E0,0E0,0E0,0E0,0E0,0E0,0E0,0E0],"parents":[2147483647,0,0,1,1,2,2,3,3,4,4,5,5,6,6],"right_children":[2,4,6,8,10,12,14,-1,-1,-1,-1,-1,-1,-1,-1],"split_conditions":[4E0,1.321153E-2,8.297516E-1,-7.6920867E-1,-3.3634454E-1,4.3412232E0,5E0,-1.3595698E4,-4.5921313E3,-4.1842617E3,9.99107E3,1.2038856E4,5.5347125E4,3.5849516E4,1.1516785E5],"split_indices":[0,8,8,9,3,3,0,0,0,0,0,0,0,0,0],"split_type":[0,0,0,0,0,0,0,0,0,0,0,0,0,0,0],"sum_hessian":[1.152E3,1.051E3,1.01E2,6.29E2,4.22E2,8.3E1,1.8E1,1.21E2,5.08E2,1.71E2,2.51E2,8E1,3E0,1.4E1,4E0],"tree_param":{"num_deleted":"0","num_feature":"10","num_nodes":"15","size_leaf_vector":"1"}},{"base_weights":[1.053737E3,-4.8013062E4,8.6162375E4,-5.6442668E4,2.4007706E5,2.2012316E4,2.2090431E5,-6.111736E3,3.1549316E4,3.7491133E3,8.808538E4,-6.053106E3,4.993629E3,4.956997E4,1.7748229E4],"categories":[],"categories_nodes":[],"categories_segments":[],"categories_sizes":[],"default_left":[0,0,0,0,0,0,0,0,0,0,0,0,0,0,0],"id":10,"left_children":[1,3,5,7,9,11,13,-1,-1,-1,-1,-1,-1,-1,-1],"loss_changes":[4.8190744E12,1.7912027E12,3.6427803E12,1.2572248E12,2.6930352E12,6.6454015E11,1.5347975E12,0E0,0E0,0E0,0E0,0E0,0E0,0E0,0E0],"parents":[2147483647,0,0,1,1,2,2,3,3,4,4,5,5,6,6],"right_children":[2,4,6,8,10,12,14,-1,-1,-1,-1,-1,-1,-1,-1],"split_conditions":[1.5100166E-1,3.7988644E0,2.6698953E-1,4.7990523E-2,-3.0767712E-1,-6.356882E-1,-3.4145243E-2,-6.111736E3,3.1549316E4,3.7491133E3,8.808538E4,-6.053106E3,4.993629E3,4.956997E4,1.7748229E4],"split_indices":[3,8,9,2,3,8,2,0,0,0,0,0,0,0,0],"split_type":[0,0,0,0,0,0,0,0,0,0,0,0,0,0,0],"sum_hessian":[1.152E3,7.31E2,4.21E2,7.11E2,2E1,2.86E2,1.35E2,7.03E2,8E0,1.6E1,4E0,7.2E1,2.14E2,1.7E1,1.18E2],"tree_param":{"num_deleted":"0","num_feature":"10","num_nodes":"15","size_leaf_vector":"1"}},{"base_weights":[1.1075453E3,-1.7704057E4,1.9511439E5,-2.5108496E4,2.5398362E5,1.21132945E5,5.1192106E5,-5.3239863E3,3.0493152E3,3.3962544E3,5.445149E4,6.2864995E3,2.486974E4,2.9998479E4,1.0453456E5],"categories":[],"categories_nodes":[],"categories_segments":[],"categories_sizes":[],"default_left":[0,0,0,0,0,0,0,0,0,0,0,0,0,0,0],"id":11,"left_children":[1,3,5,7,9,11,13,-1,-1,-1,-1,-1,-1,-1,-1],"loss_changes":[4.211419E12,2.1226805E12,2.3286466E12,1.6048775E12,1.771351E12,6.0873074E11,1.8344009E12,0E0,0E0,0E0,0E0,0E0,0E0,0E0,0E0],"parents":[2147483647,0,0,1,1,2,2,3,3,4,4,5,5,6,6],"right_children":[2,4,6,8,10,12,14,-1,-1,-1,-1,-1,-1,-1,-1],"split_conditions":[4E0,3.7988644E0,8.297516E-1,7.4555196E-2,-3.0767712E-1,-2.9631509E-2,5E0,-5.3239863E3,3.0493152E3,3.3962544E3,5.445149E4,6.2864995E3,2.486974E4,2.9998479E4,1.0453456E5],"split_indices":[0,8,8,3,3,2,0,0,0,0,0,0,0,0,0],"split_type":[0,0,0,0,0,0,0,0,0,0,0,0,0,0,0],"sum_hessian":[1.152E3,1.051E3,1.01E2,1.024E3,2.7E1,8.3E1,1.8E1,6.8E2,3.44E2,1.6E1,1.1E1,5.8E1,2.5E1,1.4E1,4E0],"tree_param":{"num_deleted":"0","num_feature":"10","num_nodes":"15","size_leaf_vector":"1"}},{"base_weights":[1.1886976E3,-7.549014E3,3.525271E5,-1.5331868E4,2.5900644E5,2.1092369E5,9.6171805E4,-4.513281E3,4.4639604E3,3.0766074E3,4.853239E4,-4.0569064E2,3.1866754E4],"categories":[],"categories_nodes":[],"categories_segments":[],"categories_sizes":[],"default_left":[0,0,0,0,0,0,0,0,0,0,0,0,0],"id":12,"left_children":[1,3,5,7,9,11,-1,-1,-1,-1,-1,-1,-1],"loss_changes":[3.5422486E12,2.339928E12,2.2125292E12,1.9590051E12,1.6380216E12,5.572009E11,0E0,0E0,0E0,0E0,0E0,0E0,0E0],"parents":[2147483647,0,0,1,1,2,2,3,3,4,4,5,5],"right_children":[2,4,6,8,10,12,-1,-1,-1,-1,-1,-1,-1],"split_conditions":[5E0,3.8181505E0,8.098667E-1,1.9304721E-1,-3.0767712E-1,1E0,9.6171805E4,-4.513281E3,4.4639604E3,3.0766074E3,4.853239E4,-4.0569064E2,3.1866754E4],"split_indices":[0,9,9,3,3,4,0,0,0,0,0,0,0],"split_type":[0,0,0,0,0,0,0,0,0,0,0,0,0],"sum_hessian":[1.152E3,1.125E3,2.7E1,1.094E3,3.1E1,2.3E1,4E0,7.31E2,3.63E2,1.6E1,1.5E1,8E0,1.5E1],"tree_param":{"num_deleted":"0","num_feature":"10","num_nodes":"13","size_leaf_vector":"1"}},{"base_weights":[1.2252422E3,-4.0851598E4,6.379376E4,-1.1991426E5,-2.7090572E4,3.7631406E4,3.1906634E5,-1.782378E4,-8.678648E3,-4.5818213E3,1.5041118E3,-2.4681936E4,4.9449214E3,2.6408676E4,6.84094E4],"categories":[],"categories_nodes":[],"categories_segments":[],"categories_sizes":[],"default_left":[0,0,0,0,0,0,0,0,0,0,0,0,0,0,0],"id":13,"left_children":[1,3,5,7,9,11,13,-1,-1,-1,-1,-1,-1,-1,-1],"loss_changes":[3.0380925E12,7.4745984E11,3.086832E12,1.8160838E11,4.6542615E11,1.430794E12,6.8231E11,0E0,0E0,0E0,0E0,0E0,0E0,0E0,0E0],"parents":[2147483647,0,0,1,1,2,2,3,3,4,4,5,5,6,6],"right_children":[2,4,6,8,10,12,14,-1,-1,-1,-1,-1,-1,-1,-1],"split_conditions":[1.5388286E-2,-7.869445E-1,1.4458137E0,-1.1258072E0,3E0,3E0,4.3412232E0,-1.782378E4,-8.678648E3,-4.5818213E3,1.5041118E3,-2.4681936E4,4.9449214E3,2.6408676E4,6.84094E4],"split_indices":[8,9,3,9,0,1,3,0,0,0,0,0,0,0,0],"split_type":[0,0,0,0,0,0,0,0,0,0,0,0,0,0,0],"sum_hessian":[1.152E3,6.89E2,4.63E2,1.01E2,5.88E2,4.21E2,4.2E1,3.5E1,6.6E1,4.07E2,1.81E2,1.6E1,4.05E2,3.8E1,4E0],"tree_param":{"num_deleted":"0","num_feature":"10","num_nodes":"15","size_leaf_vector":"1"}},{"base_weights":[1.1421821E3,-6.3383325E3,3.0192494E5,-4.004374E4,4.495029E4,1.7581797E5,8.4685336E4,-6.148998E3,-2.9102377E2,3.7332751E3,4.582962E4,4.1920586E3,3.0622197E4],"categories":[],"categories_nodes":[],"categories_segments":[],"categories_sizes":[],"default_left":[0,0,0,0,0,0,0,0,0,0,0,0,0],"id":14,"left_children":[1,3,5,7,9,11,-1,-1,-1,-1,-1,-1,-1],"loss_changes":[2.596175E12,1.9483204E12,1.7752476E12,5.4135534E11,1.3903499E12,4.0622103E11,0E0,0E0,0E0,0E0,0E0,0E0,0E0],"parents":[2147483647,0,0,1,1,2,2,3,3,4,4,5,5],"right_children":[2,4,6,8,10,12,-1,-1,-1,-1,-1,-1,-1],"split_conditions":[5E0,1.5388286E-2,8.297516E-1,1E0,4.7990523E-2,-3.1911265E-2,8.4685336E4,-6.148998E3,-2.9102377E2,3.7332751E3,4.582962E4,4.1920586E3,3.0622197E4],"split_indices":[0,8,8,4,2,2,0,0,0,0,0,0,0],"split_type":[0,0,0,0,0,0,0,0,0,0,0,0,0],"sum_hessian":[1.152E3,1.125E3,2.7E1,6.79E2,4.46E2,2.3E1,4E0,4.3E2,2.49E2,4.39E2,7E0,1.2E1,1.1E1],"tree_param":{"num_deleted":"0","num_feature":"10","num_nodes":"13","size_leaf_vector":"1"}},{"base_weights":[1.1690087E3,-3.0378555E4,6.6700695E4,-3.4908203E4,2.196278E5,1.9779914E4,1.8877523E5,-7.5977964E3,-1.0279186E3,-1.1285821E4,6.817522E4,9.990425E2,2.1404818E4,1.1366433E4,5.6648027E4],"categories":[],"categories_nodes":[],"categories_segments":[],"categories_sizes":[],"default_left":[0,0,0,0,0,0,0,0,0,0,0,0,0,0,0],"id":15,"left_children":[1,3,5,7,9,11,13,-1,-1,-1,-1,-1,-1,-1,-1],"loss_changes":[2.385698E12,8.898381E11,2.1442037E12,7.7403397E11,2.2280397E12,5.1514766E11,2.886067E12,0E0,0E0,0E0,0E0,0E0,0E0,0E0,0E0],"parents":[2147483647,0,0,1,1,2,2,3,3,4,4,5,5,6,6],"right_children":[2,4,6,8,10,12,14,-1,-1,-1,-1,-1,-1,-1,-1],"split_conditions":[3E0,4.7990523E-2,1E0,-5.0124615E-1,1E0,3.7988644E0,8.297516E-1,-7.5977964E3,-1.0279186E3,-1.1285821E4,6.817522E4,9.990425E2,2.1404818E4,1.1366433E4,5.6648027E4],"split_indices":[0,2,5,8,6,8,8,0,0,0,0,0,0,0,0],"split_type":[0,0,0,0,0,0,0,0,0,0,0,0,0,0,0],"sum_hessian":[1.152E3,7.78E2,3.74E2,7.65E2,1.3E1,2.71E2,1.03E2,2.86E2,4.79E2,8E0,5E0,2.59E2,1.2E1,8.7E1,1.6E1],"tree_param":{"num_deleted":"0","num_feature":"10","num_nodes":"15","size_leaf_vector":"1"}},{"base_weights":[1.1723843E3,-1.126815E4,1.4476669E5,-1.7020658E4,2.0987502E5,2.5956244E4,2.6301284E5,-1.0782573E3,-2.412066E4,1.9350618E3,4.852423E4,-2.8103735E2,2.2299654E4,2.0715809E4,6.0085168E4],"categories":[],"categories_nodes":[],"categories_segments":[],"categories_sizes":[],"default_left":[0,0,0,0,0,0,0,0,0,0,0,0,0,0,0],"id":16,"left_children":[1,3,5,7,9,11,13,-1,-1,-1,-1,-1,-1,-1,-1],"loss_changes":[2.0613387E12,1.3545717E12,1.2856702E12,1.4462355E12,1.4071431E12,2.6703128E11,7.435447E11,0E0,0E0,0E0,0E0,0E0,0E0,0E0,0E0],"parents":[2147483647,0,0,1,1,2,2,3,3,4,4,5,5,6,6],"right_children":[2,4,6,8,10,12,14,-1,-1,-1,-1,-1,-1,-1,-1],"split_conditions":[1.4458137E0,3.7988644E0,-1.4189944E-1,2.553728E0,-3.0767712E-1,-2.03738E-2,4.3412232E0,-1.0782573E3,-2.412066E4,1.9350618E3,4.852423E4,-2.8103735E2,2.2299654E4,2.0715809E4,6.0085168E4],"split_indices":[3,8,8,8,3,2,3,0,0,0,0,0,0,0,0],"split_type":[0,0,0,0,0,0,0,0,0,0,0,0,0,0,0],"sum_hessian":[1.152E3,1.061E3,9.1E1,1.035E3,2.6E1,4.6E1,4.5E1,1.008E3,2.7E1,1.6E1,1E1,4.1E1,5E0,4E1,5E0],"tree_param":{"num_deleted":"0","num_feature":"10","num_nodes":"15","size_leaf_vector":"1"}},{"base_weights":[1.1662238E3,-1.8952625E4,8.111628E4,-2.2883861E4,2.2028172E5,4.0084477E4,3.033982E5,-4.8135903E3,1.1700009E3,-1.3744711E3,6.910835E4,-5.185963E2,1.5136602E4,8.765054E3,4.918224E4],"categories":[],"categories_nodes":[],"categories_segments":[],"categories_sizes":[],"default_left":[0,0,0,0,0,0,0,0,0,0,0,0,0,0,0],"id":17,"left_children":[1,3,5,7,9,11,13,-1,-1,-1,-1,-1,-1,-1,-1],"loss_changes":[1.8561414E12,8.7216973E11,2.1038241E12,7.935316E11,1.6621997E12,9.932244E11,1.4203667E12,0E0,0E0,0E0,0E0,0E0,0E0,0E0,0E0],"parents":[2147483647,0,0,1,1,2,2,3,3,4,4,5,5,6,6],"right_children":[2,4,6,8,10,12,14,-1,-1,-1,-1,-1,-1,-1,-1],"split_conditions":[1E0,4.7990523E-2,8.297516E-1,-1.0137629E-1,1E0,4.720768E-1,-2.589425E-1,-4.8135903E3,1.1700009E3,-1.3744711E3,6.910835E4,-5.185963E2,1.5136602E4,8.765054E3,4.918224E4],"split_indices":[5,2,8,9,6,3,3,0,0,0,0,0,0,0,0],"split_type":[0,0,0,0,0,0,0,0,0,0,0,0,0,0,0],"sum_hessian":[1.152E3,9.21E2,2.31E2,9.07E2,1.4E1,1.96E2,3.5E1,5.24E2,3.83E2,1E1,4E0,1.4E2,5.6E1,1.7E1,1.8E1],"tree_param":{"num_deleted":"0","num_feature":"10","num_nodes":"15","size_leaf_vector":"1"}},{"base_weights":[1.1681239E3,-4.843679E3,2.4288677E5,-5.0508418E4,1.8856816E4,1.3763792E5,6.995039E4,-1.3924948E4,-4.179335E3,-1.9709268E4,2.6038918E3,-1.2983055E3,2.1375986E4],"categories":[],"categories_nodes":[],"categories_segments":[],"categories_sizes":[],"default_left":[0,0,0,0,0,0,0,0,0,0,0,0,0],"id":18,"left_children":[1,3,5,7,9,11,-1,-1,-1,-1,-1,-1,-1],"loss_changes":[1.6766755E12,1.2195964E12,1.2493576E12,2.919334E11,1.1559525E12,2.779487E11,0E0,0E0,0E0,0E0,0E0,0E0,0E0],"parents":[2147483647,0,0,1,1,2,2,3,3,4,4,5,5],"right_children":[2,4,6,8,10,12,-1,-1,-1,-1,-1,-1,-1],"split_conditions":[5E0,-5.0124615E-1,8.297516E-1,-1.1333933E0,3E0,1E0,6.995039E4,-1.3924948E4,-4.179335E3,-1.9709268E4,2.6038918E3,-1.2983055E3,2.1375986E4],"split_indices":[0,8,8,8,1,4,0,0,0,0,0,0,0],"split_type":[0,0,0,0,0,0,0,0,0,0,0,0,0],"sum_hessian":[1.152E3,1.125E3,2.7E1,3.84E2,7.41E2,2.3E1,4E0,3.3E1,3.51E2,2.3E1,7.18E2,8E0,1.5E1],"tree_param":{"num_deleted":"0","num_feature":"10","num_nodes":"13","size_leaf_vector":"1"}},{"base_weights":[1.0988511E3,-1.0118861E4,1.16784484E5,-1.4755952E4,1.5999317E5,7.148742E4,3.108986E5,-9.09736E2,-2.1591732E4,2.2685994E2,3.7010355E4,3.2763914E3,1.5661049E4,1.7929037E4,6.4354355E4],"categories":[],"categories_nodes":[],"categories_segments":[],"categories_sizes":[],"default_left":[0,0,0,0,0,0,0,0,0,0,0,0,0,0,0],"id":19,"left_children":[1,3,5,7,9,11,13,-1,-1,-1,-1,-1,-1,-1,-1],"loss_changes":[1.4974623E12,8.3220477E11,8.746399E11,1.1647831E12,9.270685E11,2.7175502E11,7.164165E11,0E0,0E0,0E0,0E0,0E0,0E0,0E0,0E0],"parents":[2147483647,0,0,1,1,2,2,3,3,4,4,5,5,6,6],"right_children":[2,4,6,8,10,12,14,-1,-1,-1,-1,-1,-1,-1,-1],"split_conditions":[4E0,3.7988644E0,8.297516E-1,2.553728E0,1E0,-2.9631509E-2,5E0,-9.09736E2,-2.1591732E4,2.2685994E2,3.7010355E4,3.2763914E3,1.5661049E4,1.7929037E4,6.4354355E4],"split_indices":[0,8,8,8,5,2,0,0,0,0,0,0,0,0,0],"split_type":[0,0,0,0,0,0,0,0,0,0,0,0,0,0,0],"sum_hessian":[1.152E3,1.051E3,1.01E2,1.024E3,2.7E1,8.3E1,1.8E1,9.97E2,2.7E1,1.6E1,1.1E1,5.8E1,2.5E1,1.4E1,4E0],"tree_param":{"num_deleted":"0","num_feature":"10","num_nodes":"15","size_leaf_vector":"1"}},{"base_weights":[1.0895424E3,-2.2225693E4,4.9520152E4,-2.6027094E4,1.8735281E5,3.774816E4,3.1129494E5,-5.072931E3,8.009471E2,-9.211335E3,5.7532656E4,3.0196672E3,4.782533E4,5.9432996E4,8.204094E3],"categories":[],"categories_nodes":[],"categories_segments":[],"categories_sizes":[],"default_left":[0,0,0,0,0,0,0,0,0,0,0,0,0,0,0],"id":20,"left_children":[1,3,5,7,9,11,13,-1,-1,-1,-1,-1,-1,-1,-1],"loss_changes":[1.3030349E12,6.254993E11,1.143853E12,6.4444255E11,1.570953E12,1.1830876E12,9.894308E11,0E0,0E0,0E0,0E0,0E0,0E0,0E0,0E0],"parents":[2147483647,0,0,1,1,2,2,3,3,4,4,5,5,6,6],"right_children":[2,4,6,8,10,12,14,-1,-1,-1,-1,-1,-1,-1,-1],"split_conditions":[3E0,4.7990523E-2,3.7988644E0,-7.04575E-2,1E0,4.3412232E0,-3.419429E-2,-5.072931E3,8.009471E2,-9.211335E3,5.7532656E4,3.0196672E3,4.782533E4,5.9432996E4,8.204094E3],"split_indices":[0,2,8,9,6,3,2,0,0,0,0,0,0,0,0],"split_type":[0,0,0,0,0,0,0,0,0,0,0,0,0,0,0],"sum_hessian":[1.152E3,7.78E2,3.74E2,7.65E2,1.3E1,3.59E2,1.5E1,4.43E2,3.22E2,8E0,5E0,3.54E2,5E0,6E0,9E0],"tree_param":{"num_deleted":"0","num_feature":"10","num_nodes":"15","size_leaf_vector":"1"}},{"base_weights":[1.1215579E3,-1.5261042E4,6.622344E4,-1.873753E4,1.961997E5,3.335208E4,2.4426327E5,-1.6855256E4,-1.5173506E3,-1.14980675E2,5.911287E4,-3.1050352E3,7.6732095E3,9.619417E3,4.040938E4],"categories":[],"categories_nodes":[],"categories_segments":[],"categories_sizes":[],"default_left":[0,0,0,0,0,0,0,0,0,0,0,0,0,0,0],"id":21,"left_children":[1,3,5,7,9,11,13,-1,-1,-1,-1,-1,-1,-1,-1],"loss_changes":[1.230729E12,6.8147583E11,1.3496125E12,4.8226386E11,1.1697653E12,5.52757E11,8.1310305E11,0E0,0E0,0E0,0E0,0E0,0E0,0E0,0E0],"parents":[2147483647,0,0,1,1,2,2,3,3,4,4,5,5,6,6],"right_children":[2,4,6,8,10,12,14,-1,-1,-1,-1,-1,-1,-1,-1],"split_conditions":[1E0,4.7990523E-2,8.297516E-1,2E0,1E0,1E0,3E0,-1.6855256E4,-1.5173506E3,-1.14980675E2,5.911287E4,-3.1050352E3,7.6732095E3,9.619417E3,4.040938E4],"split_indices":[5,2,8,1,6,4,0,0,0,0,0,0,0,0,0],"split_type":[0,0,0,0,0,0,0,0,0,0,0,0,0,0,0],"sum_hessian":[1.152E3,9.21E2,2.31E2,9.07E2,1.4E1,1.96E2,3.5E1,2E1,8.87E2,1E1,4E0,7.9E1,1.17E2,1.9E1,1.6E1],"tree_param":{"num_deleted":"0","num_feature":"10","num_nodes":"15","size_leaf_vector":"1"}},{"base_weights":[1.0919852E3,-2.5636713E4,3.629868E4,-1.5948584E5,-2.0959047E4,3.18589E5,2.6267074E4,-1.6842404E4,1.4108141E3,1.5877651E4,-2.4970847E3,-1.3116981E3,5.520949E4,1.604345E3,1.9146287E4],"categories":[],"categories_nodes":[],"categories_segments":[],"categories_sizes":[],"default_left":[0,0,0,0,0,0,0,0,0,0,0,0,0,0,0],"id":22,"left_children":[1,3,5,7,9,11,13,-1,-1,-1,-1,-1,-1,-1,-1],"loss_changes":[1.0859372E12,4.073798E11,1.4018807E12,3.6511744E10,4.6183976E11,1.323982E12,8.10978E11,0E0,0E0,0E0,0E0,0E0,0E0,0E0,0E0],"parents":[2147483647,0,0,1,1,2,2,3,3,4,4,5,5,6,6],"right_children":[2,4,6,8,10,12,14,-1,-1,-1,-1,-1,-1,-1,-1],"split_conditions":[-3.2469854E-2,2E0,6E0,-3.6501196E-1,4E0,1E0,5E0,-1.6842404E4,1.4108141E3,1.5877651E4,-2.4970847E3,-1.3116981E3,5.520949E4,1.604345E3,1.9146287E4],"split_indices":[3,1,1,3,1,5,0,0,0,0,0,0,0,0,0],"split_type":[0,0,0,0,0,0,0,0,0,0,0,0,0,0,0],"sum_hessian":[1.152E3,6.55E2,4.97E2,2.1E1,6.34E2,1.6E1,4.81E2,2E1,1E0,1.3E1,6.21E2,7E0,9E0,4.54E2,2.7E1],"tree_param":{"num_deleted":"0","num_feature":"10","num_nodes":"15","size_leaf_vector":"1"}},{"base_weights":[1.0457489E3,-1.3141808E4,5.7424547E4,-4.261931E4,5.3047666E3,2.8083559E4,2.1638984E5,-1.1659387E4,-3.467597E3,-4.9735254E2,9.081407E3,-6.231599E2,1.1247573E4,2.3313594E3,3.3819684E4],"categories":[],"categories_nodes":[],"categories_segments":[],"categories_sizes":[],"default_left":[0,0,0,0,0,0,0,0,0,0,0,0,0,0,0],"id":23,"left_children":[1,3,5,7,9,11,13,-1,-1,-1,-1,-1,-1,-1,-1],"loss_changes":[9.2301335E11,5.0157178E11,1.0760171E12,2.0455673E11,4.996609E11,5.711992E11,8.3876486E11,0E0,0E0,0E0,0E0,0E0,0E0,0E0,0E0],"parents":[2147483647,0,0,1,1,2,2,3,3,4,4,5,5,6,6],"right_children":[2,4,6,8,10,12,14,-1,-1,-1,-1,-1,-1,-1,-1],"split_conditions":[1E0,-5.0124615E-1,8.297516E-1,-1.1333933E0,1.0119799E0,4.720768E-1,-6.0964066E-1,-1.1659387E4,-3.467597E3,-4.9735254E2,9.081407E3,-6.231599E2,1.1247573E4,2.3313594E3,3.3819684E4],"split_indices":[5,8,8,8,3,3,3,0,0,0,0,0,0,0,0],"split_type":[0,0,0,0,0,0,0,0,0,0,0,0,0,0,0],"sum_hessian":[1.152E3,9.21E2,2.31E2,3.54E2,5.67E2,1.96E2,3.5E1,3.3E1,3.21E2,5.07E2,6E1,1.4E2,5.6E1,1.4E1,2.1E1],"tree_param":{"num_deleted":"0","num_feature":"10","num_nodes":"15","size_leaf_vector":"1"}},{"base_weights":[9.760648E2,-3.0939547E4,2.3142156E4,-1.4296631E5,-2.4633068E4,1.5756711E4,3.106821E5,-6.6085024E3,-1.691932E4,2.6300592E4,-3.0447395E3,1.2304949E3,3.384646E4,6.057051E4,1.3728041E4],"categories":[],"categories_nodes":[],"categories_segments":[],"categories_sizes":[],"default_left":[0,0,0,0,0,0,0,0,0,0,0,0,0,0,0],"id":24,"left_children":[1,3,5,7,9,11,13,-1,-1,-1,-1,-1,-1,-1,-1],"loss_changes":[8.1639945E11,3.306502E11,1.4412834E12,3.9227785E10,7.5892746E11,7.365862E11,7.8652585E11,0E0,0E0,0E0,0E0,0E0,0E0,0E0,0E0],"parents":[2147483647,0,0,1,1,2,2,3,3,4,4,5,5,6,6],"right_children":[2,4,6,8,10,12,14,-1,-1,-1,-1,-1,-1,-1,-1],"split_conditions":[-2.7996528E-1,3E0,3.8181505E0,-4.3809772E-1,4E0,4.3412232E0,6E0,-6.6085024E3,-1.691932E4,2.6300592E4,-3.0447395E3,1.2304949E3,3.384646E4,6.057051E4,1.3728041E4],"split_indices":[3,1,9,9,1,3,1,0,0,0,0,0,0,0,0],"split_type":[0,0,0,0,0,0,0,0,0,0,0,0,0,0,0],"sum_hessian":[1.152E3,4.72E2,6.8E2,2.4E1,4.48E2,6.64E2,1.6E1,7E0,1.7E1,8E0,4.4E2,6.58E2,6E0,5E0,1.1E1],"tree_param":{"num_deleted":"0","num_feature":"10","num_nodes":"15","size_leaf_vector":"1"}},{"base_weights":[9.730823E2,-1.1713668E4,5.138778E4,-1.4933922E4,1.8399998E5,2.56857E4,1.9060786E5,-3.9633691E3,1.2154439E2,2.4967444E2,5.4650715E4,7.088694E1,1.1512112E4,1.3401447E3,2.9018531E4],"categories":[],"categories_nodes":[],"categories_segments":[],"categories_sizes":[],"default_left":[0,0,0,0,0,0,0,0,0,0,0,0,0,0,0],"id":25,"left_children":[1,3,5,7,9,11,13,-1,-1,-1,-1,-1,-1,-1,-1],"loss_changes":[7.380592E11,5.838364E11,8.252571E11,3.6223635E11,9.855788E11,4.399796E11,6.313586E11,0E0,0E0,0E0,0E0,0E0,0E0,0E0,0E0],"parents":[2147483647,0,0,1,1,2,2,3,3,4,4,5,5,6,6],"right_children":[2,4,6,8,10,12,14,-1,-1,-1,-1,-1,-1,-1,-1],"split_conditions":[1E0,4.7990523E-2,8.297516E-1,-3.191441E-1,1E0,7.807294E-1,-6.2492996E-1,-3.9633691E3,1.2154439E2,2.4967444E2,5.4650715E4,7.088694E1,1.1512112E4,1.3401447E3,2.9018531E4],"split_indices":[5,2,8,3,6,3,3,0,0,0,0,0,0,0,0],"split_type":[0,0,0,0,0,0,0,0,0,0,0,0,0,0,0],"sum_hessian":[1.152E3,9.21E2,2.31E2,9.07E2,1.4E1,1.96E2,3.5E1,3.58E2,5.49E2,1E1,4E0,1.54E2,4.2E1,1.3E1,2.2E1],"tree_param":{"num_deleted":"0","num_feature":"10","num_nodes":"15","size_leaf_vector":"1"}},{"base_weights":[9.564399E2,-3.3913625E4,1.7874146E4,-1.0649246E5,-2.6174586E4,1.4470422E4,3.4324838E5,-1.08108E4,-2.4974438E3,-3.198068E3,3.5274817E3,9.952801E2,2.411938E4,3.5757812E3,8.438134E4],"categories":[],"categories_nodes":[],"categories_segments":[],"categories_sizes":[],"default_left":[0,0,0,0,0,0,0,0,0,0,0,0,0,0,0],"id":26,"left_children":[1,3,5,7,9,11,13,-1,-1,-1,-1,-1,-1,-1,-1],"loss_changes":[6.8078574E11,2.0896992E11,8.555484E11,2.041086E9,1.2314722E11,7.8627216E11,1.2011793E12,0E0,0E0,0E0,0E0,0E0,0E0,0E0,0E0],"parents":[2147483647,0,0,1,1,2,2,3,3,4,4,5,5,6,6],"right_children":[2,4,6,8,10,12,14,-1,-1,-1,-1,-1,-1,-1,-1],"split_conditions":[-4.9216056E-1,-1.1258072E0,4.7990523E-2,1E0,1.5518831E0,2.7587817E0,1E0,-1.08108E4,-2.4974438E3,-3.198068E3,3.5274817E3,9.952801E2,2.411938E4,3.5757812E3,8.438134E4],"split_indices":[9,9,2,6,3,3,6,0,0,0,0,0,0,0,0],"split_type":[0,0,0,0,0,0,0,0,0,0,0,0,0,0,0],"sum_hessian":[1.152E3,3.76E2,7.76E2,3.5E1,3.41E2,7.69E2,7E0,3.4E1,1E0,3.12E2,2.9E1,7.55E2,1.4E1,5E0,2E0],"tree_param":{"num_deleted":"0","num_feature":"10","num_nodes":"15","size_leaf_vector":"1"}},{"base_weights":[9.4760815E2,-2.982014E3,1.3440697E5,1.5098462E3,-1.783789E5,7.099134E4,4.753362E5,-1.714578E3,3.3414617E3,-2.0904389E4,-7.558599E3,1.5003675E4,-5.34927E3,1.0053375E3,5.891435E4],"categories":[],"categories_nodes":[],"categories_segments":[],"categories_sizes":[],"default_left":[0,0,0,0,0,0,0,0,0,0,0,0,0,0,0],"id":27,"left_children":[1,3,5,7,9,11,13,-1,-1,-1,-1,-1,-1,-1,-1],"loss_changes":[6.0508576E11,8.834585E11,6.7972314E11,6.517255E11,7.245916E10,2.9338272E11,2.5884007E11,0E0,0E0,0E0,0E0,0E0,0E0,0E0,0E0],"parents":[2147483647,0,0,1,1,2,2,3,3,4,4,5,5,6,6],"right_children":[2,4,6,8,10,12,14,-1,-1,-1,-1,-1,-1,-1,-1],"split_conditions":[3.7988644E0,2.553728E0,1E0,1.6535772E-2,-3.2942835E-2,-3.419429E-2,3E0,-1.714578E3,3.3414617E3,-2.0904389E4,-7.558599E3,1.5003675E4,-5.34927E3,1.0053375E3,5.891435E4],"split_indices":[8,8,4,8,2,2,0,0,0,0,0,0,0,0,0],"split_type":[0,0,0,0,0,0,0,0,0,0,0,0,0,0,0],"sum_hessian":[1.152E3,1.12E3,3.2E1,1.093E3,2.7E1,2.8E1,4E0,6.9E2,4.03E2,2E1,7E0,1.7E1,1.1E1,1E0,3E0],"tree_param":{"num_deleted":"0","num_feature":"10","num_nodes":"15","size_leaf_vector":"1"}},{"base_weights":[8.899083E2,-8.413521E2,2.8444216E5,-4.5080645E3,1.2307457E5,-4.2674097E3,3.460739E5,-4.622059E1,-1.6155757E4,-2.081388E4,2.0438639E4,4.099789E4,1.3274437E3],"categories":[],"categories_nodes":[],"categories_segments":[],"categories_sizes":[],"default_left":[0,0,0,0,0,0,0,0,0,0,0,0,0],"id":28,"left_children":[1,3,5,7,9,-1,11,-1,-1,-1,-1,-1,-1],"loss_changes":[5.6625024E11,5.2171037E11,1.5589356E11,7.0839645E11,9.312822E11,0E0,1.221631E11,0E0,0E0,0E0,0E0,0E0,0E0],"parents":[2147483647,0,0,1,1,2,2,3,3,4,4,6,6],"right_children":[2,4,6,8,10,-1,12,-1,-1,-1,-1,-1,-1],"split_conditions":[4.3412232E0,3.8181505E0,2E0,2.5700607E0,-9.0300393E-1,-4.2674097E3,-2.8751977E-2,-4.622059E1,-1.6155757E4,-2.081388E4,2.0438639E4,4.099789E4,1.3274437E3],"split_indices":[3,9,0,9,3,0,2,0,0,0,0,0,0],"split_type":[0,0,0,0,0,0,0,0,0,0,0,0,0],"sum_hessian":[1.152E3,1.146E3,6E0,1.114E3,3.2E1,1E0,5E0,1.087E3,2.7E1,6E0,2.6E1,4E0,1E0],"tree_param":{"num_deleted":"0","num_feature":"10","num_nodes":"13","size_leaf_vector":"1"}},{"base_weights":[8.1954974E2,-5.7956436E3,6.9038805E4,-8.502513E3,1.5017128E5,3.8189977E4,2.0178947E5,-2.609563E3,1.371872E3,1.3040469E3,4.222595E4,-5.0898022E3,5.990036E3,1.0280628E4,4.583812E4],"categories":[],"categories_nodes":[],"categories_segments":[],"categories_sizes":[],"default_left":[0,0,0,0,0,0,0,0,0,0,0,0,0,0,0],"id":29,"left_children":[1,3,5,7,9,11,13,-1,-1,-1,-1,-1,-1,-1,-1],"loss_changes":[5.2073005E11,4.454123E11,4.1000432E11,4.049816E11,6.661038E11,1.655161E11,4.3544255E11,0E0,0E0,0E0,0E0,0E0,0E0,0E0,0E0],"parents":[2147483647,0,0,1,1,2,2,3,3,4,4,5,5,6,6],"right_children":[2,4,6,8,10,12,14,-1,-1,-1,-1,-1,-1,-1,-1],"split_conditions":[4E0,4.7990523E-2,8.098667E-1,-7.04575E-2,1E0,-3.3662975E-2,5E0,-2.609563E3,1.371872E3,1.3040469E3,4.222595E4,-5.0898022E3,5.990036E3,1.0280628E4,4.583812E4],"split_indices":[0,2,9,9,6,2,0,0,0,0,0,0,0,0,0],"split_type":[0,0,0,0,0,0,0,0,0,0,0,0,0,0,0],"sum_hessian":[1.152E3,1.051E3,1.01E2,1.034E3,1.7E1,8.3E1,1.8E1,5.77E2,4.57E2,1.2E1,5E0,1.6E1,6.7E1,1.4E1,4E0],"tree_param":{"num_deleted":"0","num_feature":"10","num_nodes":"15","size_leaf_vector":"1"}},{"base_weights":[8.2372626E2,-1.9416082E4,2.1062107E4,-2.3048682E4,2.1240231E5,3.6098628E3,7.8731766E4,-1.1710243E4,-1.8691998E3,-5.1430635E3,7.572118E4,-3.5193125E3,1.9786875E3,4.7974727E4,4.252288E3],"categories":[],"categories_nodes":[],"categories_segments":[],"categories_sizes":[],"default_left":[0,0,0,0,0,0,0,0,0,0,0,0,0,0,0],"id":30,"left_children":[1,3,5,7,9,11,13,-1,-1,-1,-1,-1,-1,-1,-1],"loss_changes":[4.727019E11,4.9078934E11,5.8044606E11,2.309659E11,1.332592E12,2.7940245E11,1.9253234E12,0E0,0E0,0E0,0E0,0E0,0E0,0E0,0E0],"parents":[2147483647,0,0,1,1,2,2,3,3,4,4,5,5,6,6],"right_children":[2,4,6,8,10,12,14,-1,-1,-1,-1,-1,-1,-1,-1],"split_conditions":[-1.3662817E-1,4.7990523E-2,1E0,3E0,1E0,-3.328669E-2,6E0,-1.1710243E4,-1.8691998E3,-5.1430635E3,7.572118E4,-3.5193125E3,1.9786875E3,4.7974727E4,4.252288E3],"split_indices":[3,2,5,1,6,2,1,0,0,0,0,0,0,0,0],"split_type":[0,0,0,0,0,0,0,0,0,0,0,0,0,0,0],"sum_hessian":[1.152E3,5.76E2,5.76E2,5.68E2,8E0,4.43E2,1.33E2,2.4E1,5.44E2,6E0,2E0,1.3E2,3.13E2,1E1,1.23E2],"tree_param":{"num_deleted":"0","num_feature":"10","num_nodes":"15","size_leaf_vector":"1"}},{"base_weights":[8.3474664E2,-6.2279543E4,6.9533994E3,-6.467482E4,8.982179E3,-1.560509E3,5.442819E4,-6.9014155E3,1.5533683E3,-5.677012E2,1.0589007E4,3.6503318E3,2.5430922E4],"categories":[],"categories_nodes":[],"categories_segments":[],"categories_sizes":[],"default_left":[0,0,0,0,0,0,0,0,0,0,0,0,0],"id":31,"left_children":[1,3,5,7,-1,9,11,-1,-1,-1,-1,-1,-1],"loss_changes":[4.4569218E11,4.2970382E10,4.2529915E11,3.6225253E10,0E0,3.9559342E11,5.6397175E11,0E0,0E0,0E0,0E0,0E0,0E0],"parents":[2147483647,0,0,1,1,2,2,3,3,5,5,6,6],"right_children":[2,4,6,8,-1,10,12,-1,-1,-1,-1,-1,-1],"split_conditions":[-7.869445E-1,3.3307874E-1,-3.0795773E-2,1E0,8.982179E3,3.7988644E0,2.5628877E0,-6.9014155E3,1.5533683E3,-5.677012E2,1.0589007E4,3.6503318E3,2.5430922E4],"split_indices":[9,2,2,6,0,8,3,0,0,0,0,0,0],"split_type":[0,0,0,0,0,0,0,0,0,0,0,0,0],"sum_hessian":[1.152E3,1.01E2,1.051E3,1E2,1E0,8.92E2,1.59E2,9.5E1,5E0,8.6E2,3.2E1,1.47E2,1.2E1],"tree_param":{"num_deleted":"0","num_feature":"10","num_nodes":"13","size_leaf_vector":"1"}},{"base_weights":[7.883317E2,-1.3862486E4,2.5002469E4,-1.7148088E4,1.5281592E5,2.0561168E4,4.0284215E4,-1.1080252E4,-1.340424E3,-1.7087269E3,5.818457E4,8.112675E2,9.053095E3],"categories":[],"categories_nodes":[],"categories_segments":[],"categories_sizes":[],"default_left":[0,0,0,0,0,0,0,0,0,0,0,0,0],"id":32,"left_children":[1,3,5,7,9,11,-1,-1,-1,-1,-1,-1,-1],"loss_changes":[4.0938134E11,3.9637287E11,7.216904E11,2.4605819E11,1.0304516E12,3.7467442E11,0E0,0E0,0E0,0E0,0E0,0E0,0E0],"parents":[2147483647,0,0,1,1,2,2,3,3,4,4,5,5],"right_children":[2,4,6,8,10,12,-1,-1,-1,-1,-1,-1,-1],"split_conditions":[1E0,4.7990523E-2,3.7988644E0,3E0,1E0,-2.9393915E-2,4.0284215E4,-1.1080252E4,-1.340424E3,-1.7087269E3,5.818457E4,8.112675E2,9.053095E3],"split_indices":[4,2,8,1,6,2,0,0,0,0,0,0,0],"split_type":[0,0,0,0,0,0,0,0,0,0,0,0,0],"sum_hessian":[1.152E3,7.18E2,4.34E2,7.05E2,1.3E1,4.3E2,4E0,2.6E1,6.79E2,1E1,3E0,3.66E2,6.4E1],"tree_param":{"num_deleted":"0","num_feature":"10","num_nodes":"13","size_leaf_vector":"1"}},{"base_weights":[7.912025E2,-8.1894673E3,3.647821E4,-5.7137594E4,-3.4071414E3,1.7206598E4,1.4092348E5,-8.291408E3,-3.6178215E3,7.280015E1,-7.025941E3,-2.5743743E3,5.003269E3,-9.516696E1,2.2115518E4],"categories":[],"categories_nodes":[],"categories_segments":[],"categories_sizes":[],"default_left":[0,0,0,0,0,0,0,0,0,0,0,0,0,0,0],"id":33,"left_children":[1,3,5,7,9,11,13,-1,-1,-1,-1,-1,-1,-1,-1],"loss_changes":[3.6982745E11,2.1563253E11,4.645516E11,4.1301557E10,2.3254029E11,2.790367E11,4.0999433E11,0E0,0E0,0E0,0E0,0E0,0E0,0E0,0E0],"parents":[2147483647,0,0,1,1,2,2,3,3,4,4,5,5,6,6],"right_children":[2,4,6,8,10,12,14,-1,-1,-1,-1,-1,-1,-1,-1],"split_conditions":[1E0,-7.869445E-1,8.297516E-1,-1.1258072E0,2.553728E0,-1.0031609E-1,-6.2492996E-1,-8.291408E3,-3.6178215E3,7.280015E1,-7.025941E3,-2.5743743E3,5.003269E3,-9.516696E1,2.2115518E4],"split_indices":[5,9,8,9,8,3,3,0,0,0,0,0,0,0,0],"split_type":[0,0,0,0,0,0,0,0,0,0,0,0,0,0,0],"sum_hessian":[1.152E3,9.21E2,2.31E2,8.1E1,8.4E2,1.96E2,3.5E1,3.5E1,4.6E1,7.92E2,4.8E1,8.5E1,1.11E2,1.3E1,2.2E1],"tree_param":{"num_deleted":"0","num_feature":"10","num_nodes":"15","size_leaf_vector":"1"}},{"base_weights":[7.1692444E2,-2.0231815E3,1.1088273E5,-2.512058E4,9.964044E3,4.7024195E4,3.9522715E4,-6.972083E3,-2.0741238E3,7.0828534E2,2.4383404E4,7.7167344E3,-1.897003E4],"categories":[],"categories_nodes":[],"categories_segments":[],"categories_sizes":[],"default_left":[0,0,0,0,0,0,0,0,0,0,0,0,0],"id":34,"left_children":[1,3,5,7,9,11,-1,-1,-1,-1,-1,-1,-1],"loss_changes":[3.482758E11,3.1201015E11,4.898336E11,7.3752035E10,4.982504E11,1.8589358E11,0E0,0E0,0E0,0E0,0E0,0E0,0E0],"parents":[2147483647,0,0,1,1,2,2,3,3,4,4,5,5],"right_children":[2,4,6,8,10,12,-1,-1,-1,-1,-1,-1,-1],"split_conditions":[5E0,-5.0124615E-1,8.297516E-1,-1.1333933E0,4.7990523E-2,1E0,3.9522715E4,-6.972083E3,-2.0741238E3,7.0828534E2,2.4383404E4,7.7167344E3,-1.897003E4],"split_indices":[0,8,8,8,2,7,0,0,0,0,0,0,0],"split_type":[0,0,0,0,0,0,0,0,0,0,0,0,0],"sum_hessian":[1.152E3,1.125E3,2.7E1,3.84E2,7.41E2,2.3E1,4E0,3.3E1,3.51E2,7.33E2,8E0,2.1E1,2E0],"tree_param":{"num_deleted":"0","num_feature":"10","num_nodes":"13","size_leaf_vector":"1"}},{"base_weights":[6.8366626E2,-5.826133E2,2.0807495E5,-3.3169922E3,9.182391E4,-3.5521235E3,2.5459452E5,6.1042523E0,-1.3445932E4,-1.953546E4,1.6287671E4,3.1051756E4,-1.2510375E3],"categories":[],"categories_nodes":[],"categories_segments":[],"categories_sizes":[],"default_left":[0,0,0,0,0,0,0,0,0,0,0,0,0],"id":35,"left_children":[1,3,5,7,9,-1,11,-1,-1,-1,-1,-1,-1],"loss_changes":[3.0291673E11,2.9012214E11,8.83675E10,4.939569E11,7.0517844E11,0E0,9.35086E10,0E0,0E0,0E0,0E0,0E0,0E0],"parents":[2147483647,0,0,1,1,2,2,3,3,4,4,6,6],"right_children":[2,4,6,8,10,-1,12,-1,-1,-1,-1,-1,-1],"split_conditions":[4.3412232E0,3.7988644E0,2E0,2.553728E0,-9.0300393E-1,-3.5521235E3,-2.8751977E-2,6.1042523E0,-1.3445932E4,-1.953546E4,1.6287671E4,3.1051756E4,-1.2510375E3],"split_indices":[3,8,0,8,3,0,2,0,0,0,0,0,0],"split_type":[0,0,0,0,0,0,0,0,0,0,0,0,0],"sum_hessian":[1.152E3,1.146E3,6E0,1.114E3,3.2E1,1E0,5E0,1.087E3,2.7E1,6E0,2.6E1,4E0,1E0],"tree_param":{"num_deleted":"0","num_feature":"10","num_nodes":"13","size_leaf_vector":"1"}},{"base_weights":[6.235939E2,-1.742946E4,1.4182985E4,-4.5962996E4,-5.9345703E3,1.1415374E4,2.7033538E5,-7.2549673E3,-2.5624578E3,-4.6502715E3,2.6700702E2,-2.836921E2,5.722492E3,-1.1050175E3,6.491995E4],"categories":[],"categories_nodes":[],"categories_segments":[],"categories_sizes":[],"default_left":[0,0,0,0,0,0,0,0,0,0,0,0,0,0,0],"id":36,"left_children":[1,3,5,7,9,11,13,-1,-1,-1,-1,-1,-1,-1,-1],"loss_changes":[2.8248827E11,1.6208221E11,4.6409895E11,7.492472E10,1.2369646E11,4.2650033E11,7.534219E11,0E0,0E0,0E0,0E0,0E0,0E0,0E0,0E0],"parents":[2147483647,0,0,1,1,2,2,3,3,4,4,5,5,6,6],"right_children":[2,4,6,8,10,12,14,-1,-1,-1,-1,-1,-1,-1,-1],"split_conditions":[-4.0788636E-1,2E0,4.7990523E-2,-6.8608713E-1,-7.869445E-1,4.5678753E-1,1E0,-7.2549673E3,-2.5624578E3,-4.6502715E3,2.6700702E2,-2.836921E2,5.722492E3,-1.1050175E3,6.491995E4],"split_indices":[9,0,2,3,9,3,6,0,0,0,0,0,0,0,0],"split_type":[0,0,0,0,0,0,0,0,0,0,0,0,0,0,0],"sum_hessian":[1.152E3,4.94E2,6.58E2,1.41E2,3.53E2,6.52E2,6E0,6E1,8.1E1,6.1E1,2.92E2,4.98E2,1.54E2,4E0,2E0],"tree_param":{"num_deleted":"0","num_feature":"10","num_nodes":"15","size_leaf_vector":"1"}},{"base_weights":[6.089806E2,-7.033147E3,3.0977225E4,-8.960696E3,1.1011673E5,2.16652E4,1.9989223E5,-6.055905E2,-6.087871E3,-1.2797424E3,2.5241824E4,-3.137261E1,9.310274E3,3.538986E3,4.231176E4],"categories":[],"categories_nodes":[],"categories_segments":[],"categories_sizes":[],"default_left":[0,0,0,0,0,0,0,0,0,0,0,0,0,0,0],"id":37,"left_children":[1,3,5,7,9,11,13,-1,-1,-1,-1,-1,-1,-1,-1],"loss_changes":[2.6780379E11,2.0918555E11,3.6059156E11,1.3656769E11,2.6559332E11,3.4702583E11,4.2567913E11,0E0,0E0,0E0,0E0,0E0,0E0,0E0,0E0],"parents":[2147483647,0,0,1,1,2,2,3,3,4,4,5,5,6,6],"right_children":[2,4,6,8,10,12,14,-1,-1,-1,-1,-1,-1,-1,-1],"split_conditions":[1E0,4.7990523E-2,1.3540049E0,2.553728E0,1.3400936E-2,7.807294E-1,2E0,-6.055905E2,-6.087871E3,-1.2797424E3,2.5241824E4,-3.137261E1,9.310274E3,3.538986E3,4.231176E4],"split_indices":[5,2,8,8,8,3,0,0,0,0,0,0,0,0,0],"split_type":[0,0,0,0,0,0,0,0,0,0,0,0,0,0,0],"sum_hessian":[1.152E3,9.21E2,2.31E2,9.07E2,1.4E1,2.2E2,1.1E1,8.6E2,4.7E1,8E0,6E0,1.69E2,5.1E1,7E0,4E0],"tree_param":{"num_deleted":"0","num_feature":"10","num_nodes":"15","size_leaf_vector":"1"}},{"base_weights":[6.1087585E2,-5.1484985E2,1.849818E5,-2.862144E3,7.881084E4,-3.216114E3,2.2653248E5,6.342443E0,-1.1643916E4,-1.7727443E4,1.422844E4,2.776163E4,-1.4443313E3],"categories":[],"categories_nodes":[],"categories_segments":[],"categories_sizes":[],"default_left":[0,0,0,0,0,0,0,0,0,0,0,0,0],"id":38,"left_children":[1,3,5,7,9,-1,11,-1,-1,-1,-1,-1,-1],"loss_changes":[2.3940165E11,2.1379783E11,7.04426E10,3.7049663E11,5.616266E11,0E0,7.786945E10,0E0,0E0,0E0,0E0,0E0,0E0],"parents":[2147483647,0,0,1,1,2,2,3,3,4,4,6,6],"right_children":[2,4,6,8,10,-1,12,-1,-1,-1,-1,-1,-1],"split_conditions":[4.3412232E0,3.7988644E0,2E0,2.553728E0,-9.0300393E-1,-3.216114E3,-2.8751977E-2,6.342443E0,-1.1643916E4,-1.7727443E4,1.422844E4,2.776163E4,-1.4443313E3],"split_indices":[3,8,0,8,3,0,2,0,0,0,0,0,0],"split_type":[0,0,0,0,0,0,0,0,0,0,0,0,0],"sum_hessian":[1.152E3,1.146E3,6E0,1.114E3,3.2E1,1E0,5E0,1.087E3,2.7E1,6E0,2.6E1,4E0,1E0],"tree_param":{"num_deleted":"0","num_feature":"10","num_nodes":"13","size_leaf_vector":"1"}},{"base_weights":[5.566967E2,-1.3057743E4,1.5663476E4,-1.5777765E4,4.0092994E5,-1.0279702E5,2.0354191E4,-4.4162295E3,-4.5576447E2,-8.177113E3,5.890873E4,-1.193407E4,-2.5989126E3,8.720765E3,6.0145917E2],"categories":[],"categories_nodes":[],"categories_segments":[],"categories_sizes":[],"default_left":[0,0,0,0,0,0,0,0,0,0,0,0,0,0,0],"id":39,"left_children":[1,3,5,7,9,11,13,-1,-1,-1,-1,-1,-1,-1,-1],"loss_changes":[2.3734243E11,6.898414E11,3.060408E11,1.9215932E11,4.1146542E11,2.3582818E10,5.04685E11,0E0,0E0,0E0,0E0,0E0,0E0,0E0,0E0],"parents":[2147483647,0,0,1,1,2,2,3,3,4,4,5,5,6,6],"right_children":[2,4,6,8,10,12,14,-1,-1,-1,-1,-1,-1,-1,-1],"split_conditions":[-1.0137629E-1,3.0050129E-2,3E0,2E0,1E0,-3.4616344E-2,-3.4679286E-2,-4.4162295E3,-4.5576447E2,-8.177113E3,5.890873E4,-1.193407E4,-2.5989126E3,8.720765E3,6.0145917E2],"split_indices":[9,8,1,0,6,2,2,0,0,0,0,0,0,0,0],"split_type":[0,0,0,0,0,0,0,0,0,0,0,0,0,0,0],"sum_hessian":[1.152E3,6.06E2,5.46E2,6.03E2,3E0,2E1,5.26E2,1.7E2,4.33E2,1E0,2E0,1.6E1,4E0,9.2E1,4.34E2],"tree_param":{"num_deleted":"0","num_feature":"10","num_nodes":"15","size_leaf_vector":"1"}},{"base_weights":[5.362792E2,-1.0059097E4,1.8047863E4,-1.2428903E4,1.101654E5,1.4498345E4,3.2040672E5,2.1093423E3,-2.0537253E3,-2.4262937E3,4.52302E4,9.919375E2,1.50177705E4,-3.507072E3,4.1804375E4],"categories":[],"categories_nodes":[],"categories_segments":[],"categories_sizes":[],"default_left":[0,0,0,0,0,0,0,0,0,0,0,0,0,0,0],"id":40,"left_children":[1,3,5,7,9,11,13,-1,-1,-1,-1,-1,-1,-1,-1],"loss_changes":[2.1411124E11,2.062187E11,4.622089E11,1.9233161E11,6.5487405E11,2.662784E11,1.8819986E11,0E0,0E0,0E0,0E0,0E0,0E0,0E0,0E0],"parents":[2147483647,0,0,1,1,2,2,3,3,4,4,5,5,6,6],"right_children":[2,4,6,8,10,12,14,-1,-1,-1,-1,-1,-1,-1,-1],"split_conditions":[1E0,4.7990523E-2,3.7988644E0,-3.4679286E-2,1E0,2.7587817E0,-3.545006E-1,2.1093423E3,-2.0537253E3,-2.4262937E3,4.52302E4,9.919375E2,1.50177705E4,-3.507072E3,4.1804375E4],"split_indices":[4,2,8,2,6,3,3,0,0,0,0,0,0,0,0],"split_type":[0,0,0,0,0,0,0,0,0,0,0,0,0,0,0],"sum_hessian":[1.152E3,7.18E2,4.34E2,7.05E2,1.3E1,4.3E2,4E0,1.37E2,5.68E2,1E1,3E0,4.17E2,1.3E1,1E0,3E0],"tree_param":{"num_deleted":"0","num_feature":"10","num_nodes":"15","size_leaf_vector":"1"}},{"base_weights":[5.669226E2,-1.6440854E4,1.029812E4,-7.9315063E2,-4.9469016E4,1.0040192E5,4.4068604E3,-1.2700527E3,1.0123981E4,-7.300535E3,-2.2999033E3,4.0004062E3,4.8632066E4,-2.2663533E3,1.5347108E3],"categories":[],"categories_nodes":[],"categories_segments":[],"categories_sizes":[],"default_left":[0,0,0,0,0,0,0,0,0,0,0,0,0,0,0],"id":41,"left_children":[1,3,5,7,9,11,13,-1,-1,-1,-1,-1,-1,-1,-1],"loss_changes":[1.9099776E11,2.1702302E11,3.8918295E11,3.4876E11,8.242682E10,1.02943516E12,2.0469601E11,0E0,0E0,0E0,0E0,0E0,0E0,0E0,0E0],"parents":[2147483647,0,0,1,1,2,2,3,3,4,4,5,5,6,6],"right_children":[2,4,6,8,10,12,14,-1,-1,-1,-1,-1,-1,-1,-1],"split_conditions":[-3.545006E-1,7.885706E-2,6E0,1.6833017E-2,-7.0902103E-1,4.2238662E-1,-3.327988E-2,-1.2700527E3,1.0123981E4,-7.300535E3,-2.2999033E3,4.0004062E3,4.8632066E4,-2.2663533E3,1.5347108E3],"split_indices":[3,8,1,8,3,3,2,0,0,0,0,0,0,0,0],"split_type":[0,0,0,0,0,0,0,0,0,0,0,0,0,0,0],"sum_hessian":[1.152E3,4.19E2,7.33E2,2.85E2,1.34E2,4.4E1,6.89E2,2.56E2,2.9E1,7E1,6.4E1,3.9E1,5E0,1.98E2,4.91E2],"tree_param":{"num_deleted":"0","num_feature":"10","num_nodes":"15","size_leaf_vector":"1"}},{"base_weights":[5.545965E2,-1.1502621E4,1.3933347E4,-1.3837358E4,3.439183E5,-9.18725E4,1.812308E4,-5.4611084E3,-7.597862E2,-8.1531406E3,5.12912E4,-1.0650063E4,-2.3762324E3,2.2474404E4,1.4099272E3],"categories":[],"categories_nodes":[],"categories_segments":[],"categories_sizes":[],"default_left":[0,0,0,0,0,0,0,0,0,0,0,0,0,0,0],"id":42,"left_children":[1,3,5,7,9,11,13,-1,-1,-1,-1,-1,-1,-1,-1],"loss_changes":[1.8615129E11,5.0845627E11,2.4414916E11,1.5324719E11,3.2941172E11,1.8392121E10,4.3498065E11,0E0,0E0,0E0,0E0,0E0,0E0,0E0,0E0],"parents":[2147483647,0,0,1,1,2,2,3,3,4,4,5,5,6,6],"right_children":[2,4,6,8,10,12,14,-1,-1,-1,-1,-1,-1,-1,-1],"split_conditions":[-1.0137629E-1,3.0050129E-2,3E0,-7.2908825E-1,1E0,-3.4616344E-2,4E0,-5.4611084E3,-7.597862E2,-8.1531406E3,5.12912E4,-1.0650063E4,-2.3762324E3,2.2474404E4,1.4099272E3],"split_indices":[9,8,1,3,6,2,1,0,0,0,0,0,0,0,0],"split_type":[0,0,0,0,0,0,0,0,0,0,0,0,0,0,0],"sum_hessian":[1.152E3,6.06E2,5.46E2,6.03E2,3E0,2E1,5.26E2,7.9E1,5.24E2,1E0,2E0,1.6E1,4E0,9E0,5.17E2],"tree_param":{"num_deleted":"0","num_feature":"10","num_nodes":"15","size_leaf_vector":"1"}},{"base_weights":[5.405687E2,-1.4035035E3,7.870074E4,-3.703645E4,2.105591E3,2.5487807E4,3.183827E4,-3.9408396E3,1.0007901E4,-7.5197812E3,4.0322174E2,5.4553213E3,-1.9615443E4],"categories":[],"categories_nodes":[],"categories_segments":[],"categories_sizes":[],"default_left":[0,0,0,0,0,0,0,0,0,0,0,0,0],"id":43,"left_children":[1,3,5,7,9,11,-1,-1,-1,-1,-1,-1,-1],"loss_changes":[1.7530769E11,1.4087234E11,3.4900214E11,3.679222E10,1.5311028E11,1.6531176E11,0E0,0E0,0E0,0E0,0E0,0E0,0E0],"parents":[2147483647,0,0,1,1,2,2,3,3,4,4,5,5],"right_children":[2,4,6,8,10,12,-1,-1,-1,-1,-1,-1,-1],"split_conditions":[5E0,-7.869445E-1,8.297516E-1,3.3307874E-1,3E0,1E0,3.183827E4,-3.9408396E3,1.0007901E4,-7.5197812E3,4.0322174E2,5.4553213E3,-1.9615443E4],"split_indices":[0,9,8,2,1,7,0,0,0,0,0,0,0],"split_type":[0,0,0,0,0,0,0,0,0,0,0,0,0],"sum_hessian":[1.152E3,1.125E3,2.7E1,1E2,1.025E3,2.3E1,4E0,9.9E1,1E0,2.4E1,1.001E3,2.1E1,2E0],"tree_param":{"num_deleted":"0","num_feature":"10","num_nodes":"13","size_leaf_vector":"1"}},{"base_weights":[5.0093222E2,-5.5681914E3,2.4618307E4,-7.043063E2,-3.391762E4,1.6799197E4,1.6656873E5,-1.1430409E3,2.7216165E3,-1.258587E4,-2.93807E2,-2.1578376E3,4.537455E3,2.959746E3,3.5240902E4],"categories":[],"categories_nodes":[],"categories_segments":[],"categories_sizes":[],"default_left":[0,0,0,0,0,0,0,0,0,0,0,0,0,0,0],"id":44,"left_children":[1,3,5,7,9,11,13,-1,-1,-1,-1,-1,-1,-1,-1],"loss_changes":[1.6890321E11,1.2710921E11,2.5470463E11,2.3629965E11,3.841498E11,2.4333936E11,2.9502698E11,0E0,0E0,0E0,0E0,0E0,0E0,0E0,0E0],"parents":[2147483647,0,0,1,1,2,2,3,3,4,4,5,5,6,6],"right_children":[2,4,6,8,10,12,14,-1,-1,-1,-1,-1,-1,-1,-1],"split_conditions":[1E0,5.3174305E-1,1.3540049E0,-7.04575E-2,9.2475367E-1,-1.0031609E-1,2E0,-1.1430409E3,2.7216165E3,-1.258587E4,-2.93807E2,-2.1578376E3,4.537455E3,2.959746E3,3.5240902E4],"split_indices":[5,8,8,9,8,3,0,0,0,0,0,0,0,0,0],"split_type":[0,0,0,0,0,0,0,0,0,0,0,0,0,0,0],"sum_hessian":[1.152E3,9.21E2,2.31E2,7.87E2,1.34E2,2.2E2,1.1E1,5.69E2,2.18E2,3.3E1,1.01E2,9.4E1,1.26E2,7E0,4E0],"tree_param":{"num_deleted":"0","num_feature":"10","num_nodes":"15","size_leaf_vector":"1"}},{"base_weights":[4.7623145E2,-4.1397787E2,1.4627536E5,-5.658525E3,2.0520404E4,1.796851E5,-2.7091562E3,-8.138915E1,-3.3997173E3,1.9815877E2,7.5463423E3,-2.5435142E3,2.2579617E4],"categories":[],"categories_nodes":[],"categories_segments":[],"categories_sizes":[],"default_left":[0,0,0,0,0,0,0,0,0,0,0,0,0],"id":45,"left_children":[1,3,5,7,9,11,-1,-1,-1,-1,-1,-1,-1],"loss_changes":[1.4971044E11,1.2604681E11,4.5412975E10,1.2600487E11,2.341235E11,6.249305E10,0E0,0E0,0E0,0E0,0E0,0E0,0E0],"parents":[2147483647,0,0,1,1,2,2,3,3,4,4,5,5],"right_children":[2,4,6,8,10,12,-1,-1,-1,-1,-1,-1,-1],"split_conditions":[4.3412232E0,1E0,-2.8751977E-2,5.3174305E-1,5.3174305E-1,2E0,-2.7091562E3,-8.138915E1,-3.3997173E3,1.9815877E2,7.5463423E3,-2.5435142E3,2.2579617E4],"split_indices":[3,5,2,8,8,0,0,0,0,0,0,0,0],"split_type":[0,0,0,0,0,0,0,0,0,0,0,0,0],"sum_hessian":[1.152E3,1.146E3,6E0,9.17E2,2.29E2,5E0,1E0,7.84E2,1.33E2,1.72E2,5.7E1,1E0,4E0],"tree_param":{"num_deleted":"0","num_feature":"10","num_nodes":"13","size_leaf_vector":"1"}},{"base_weights":[4.4732773E2,-2.8180107E3,3.4120746E4,2.6810162E4,-8.006409E3,1.3279685E4,1.2446435E5,-3.3584236E3,5.3713975E3,-4.280252E3,-2.0451865E2,-5.0085996E3,2.8925815E3,1.6417826E4,-1.4206917E4],"categories":[],"categories_nodes":[],"categories_segments":[],"categories_sizes":[],"default_left":[0,0,0,0,0,0,0,0,0,0,0,0,0,0,0],"id":46,"left_children":[1,3,5,7,9,11,13,-1,-1,-1,-1,-1,-1,-1,-1],"loss_changes":[1.26874395E11,1.6193102E11,1.9039851E11,2.5690371E11,1.857674E11,8.47287E10,2.2444124E11,0E0,0E0,0E0,0E0,0E0,0E0,0E0,0E0],"parents":[2147483647,0,0,1,1,2,2,3,3,4,4,5,5,6,6],"right_children":[2,4,6,8,10,12,14,-1,-1,-1,-1,-1,-1,-1,-1],"split_conditions":[4E0,-3.4679286E-2,8.297516E-1,-3.0768535E-1,-6.660199E-1,-3.3662975E-2,-2.8669963E-2,-3.3584236E3,5.3713975E3,-4.280252E3,-2.0451865E2,-5.0085996E3,2.8925815E3,1.6417826E4,-1.4206917E4],"split_indices":[0,2,8,8,3,2,2,0,0,0,0,0,0,0,0],"split_type":[0,0,0,0,0,0,0,0,0,0,0,0,0,0,0],"sum_hessian":[1.152E3,1.051E3,1.01E2,1.56E2,8.95E2,8.3E1,1.8E1,4.8E1,1.08E2,1.3E2,7.65E2,1.6E1,6.7E1,1.6E1,2E0],"tree_param":{"num_deleted":"0","num_feature":"10","num_nodes":"15","size_leaf_vector":"1"}},{"base_weights":[4.0053574E2,-3.183398E4,3.525555E3,-2.1397232E4,-8.275907E4,-1.9151332E3,3.386936E4,-2.3950786E3,9.782741E3,-2.813863E3,-9.2453545E3,-8.925961E3,-2.19841E1,1.9377865E3,1.4711461E4],"categories":[],"categories_nodes":[],"categories_segments":[],"categories_sizes":[],"default_left":[0,0,0,0,0,0,0,0,0,0,0,0,0,0,0],"id":47,"left_children":[1,3,5,7,9,11,13,-1,-1,-1,-1,-1,-1,-1,-1],"loss_changes":[1.1625794E11,5.2441407E10,1.737408E11,2.8525445E10,6.4002785E9,1.3221083E11,2.5972413E11,0E0,0E0,0E0,0E0,0E0,0E0,0E0,0E0],"parents":[2147483647,0,0,1,1,2,2,3,3,4,4,5,5,6,6],"right_children":[2,4,6,8,10,12,14,-1,-1,-1,-1,-1,-1,-1,-1],"split_conditions":[-7.869445E-1,4.9309957E-1,-3.0795773E-2,3.3307874E-1,-3.2172564E-2,2E0,2.022029E0,-2.3950786E3,9.782741E3,-2.813863E3,-9.2453545E3,-8.925961E3,-2.19841E1,1.9377865E3,1.4711461E4],"split_indices":[9,3,2,2,2,1,3,0,0,0,0,0,0,0,0],"split_type":[0,0,0,0,0,0,0,0,0,0,0,0,0,0,0],"sum_hessian":[1.152E3,1.01E2,1.051E3,8.5E1,1.6E1,8.92E2,1.59E2,8.4E1,1E0,3E0,1.3E1,1.6E1,8.76E2,1.42E2,1.7E1],"tree_param":{"num_deleted":"0","num_feature":"10","num_nodes":"15","size_leaf_vector":"1"}},{"base_weights":[3.6310516E2,-1.2376006E4,7.6520195E3,2.789739E3,-4.4413242E4,4.3673364E3,1.3806678E5,-1.4115516E3,6.409446E3,-6.4657026E3,-1.8030897E3,-5.1567365E2,2.6628923E3,7.0826055E3,3.5570285E4],"categories":[],"categories_nodes":[],"categories_segments":[],"categories_sizes":[],"default_left":[0,0,0,0,0,0,0,0,0,0,0,0,0,0,0],"id":48,"left_children":[1,3,5,7,9,11,13,-1,-1,-1,-1,-1,-1,-1,-1],"loss_changes":[1.0715569E11,2.0418866E11,3.1382146E11,2.9730708E11,7.093481E10,1.5215636E11,2.382191E11,0E0,0E0,0E0,0E0,0E0,0E0,0E0,0E0],"parents":[2147483647,0,0,1,1,2,2,3,3,4,4,5,5,6,6],"right_children":[2,4,6,8,10,12,14,-1,-1,-1,-1,-1,-1,-1,-1],"split_conditions":[-3.545006E-1,7.885706E-2,3.7988644E0,-7.04575E-2,2E0,2.6698953E-1,1E0,-1.4115516E3,6.409446E3,-6.4657026E3,-1.8030897E3,-5.1567365E2,2.6628923E3,7.0826055E3,3.5570285E4],"split_indices":[3,8,8,9,0,9,4,0,0,0,0,0,0,0,0],"split_type":[0,0,0,0,0,0,0,0,0,0,0,0,0,0,0],"sum_hessian":[1.152E3,4.19E2,7.33E2,2.85E2,1.34E2,7.16E2,1.7E1,2.24E2,6.1E1,7.5E1,5.9E1,5.02E2,2.14E2,1.4E1,3E0],"tree_param":{"num_deleted":"0","num_feature":"10","num_nodes":"15","size_leaf_vector":"1"}},{"base_weights":[3.628153E2,-8.361439E2,7.601031E4,-5.627915E3,1.8167195E4,1.5412175E3,2.2469162E5,-3.3064703E2,-4.715159E3,1.1354835E3,1.4041112E4,6.3649136E3,-1.5411388E4,-2.42885E3,4.8176793E4],"categories":[],"categories_nodes":[],"categories_segments":[],"categories_sizes":[],"default_left":[0,0,0,0,0,0,0,0,0,0,0,0,0,0,0],"id":49,"left_children":[1,3,5,7,9,11,13,-1,-1,-1,-1,-1,-1,-1,-1],"loss_changes":[1.0463866E11,1.03546E11,1.9895263E11,8.7370695E10,1.8910988E11,1.3548559E11,3.9574277E11,0E0,0E0,0E0,0E0,0E0,0E0,0E0,0E0],"parents":[2147483647,0,0,1,1,2,2,3,3,4,4,5,5,6,6],"right_children":[2,4,6,8,10,12,14,-1,-1,-1,-1,-1,-1,-1,-1],"split_conditions":[4.7990523E-2,1E0,1E0,2.553728E0,1.3540049E0,3.0050129E-2,8E0,-3.3064703E2,-4.715159E3,1.1354835E3,1.4041112E4,6.3649136E3,-1.5411388E4,-2.42885E3,4.8176793E4],"split_indices":[2,5,6,8,8,8,1,0,0,0,0,0,0,0,0],"split_type":[0,0,0,0,0,0,0,0,0,0,0,0,0,0,0],"sum_hessian":[1.152E3,1.135E3,1.7E1,9.07E2,2.28E2,1.2E1,5E0,8.6E2,4.7E1,2.17E2,1.1E1,9E0,3E0,3E0,2E0],"tree_param":{"num_deleted":"0","num_feature":"10","num_nodes":"15","size_leaf_vector":"1"}},{"base_weights":[3.6715265E2,-3.5573993E2,1.1876581E5,-1.4832764E3,7.044826E4,1.5046184E5,-3.5705188E3,-1.3974827E3,5.676671E2,6.912091E1,2.0984715E4,1.90005E4,-2.362697E3],"categories":[],"categories_nodes":[],"categories_segments":[],"categories_sizes":[],"default_left":[0,0,0,0,0,0,0,0,0,0,0,0,0],"id":50,"left_children":[1,3,5,7,9,11,-1,-1,-1,-1,-1,-1,-1],"loss_changes":[9.872696E10,9.167419E10,3.9645094E10,1.01145215E11,1.7488793E11,4.579338E10,0E0,0E0,0E0,0E0,0E0,0E0,0E0],"parents":[2147483647,0,0,1,1,2,2,3,3,4,4,5,5],"right_children":[2,4,6,8,10,12,-1,-1,-1,-1,-1,-1,-1],"split_conditions":[4.3412232E0,4.7990523E-2,-2.8751977E-2,-3.545006E-1,1E0,8E0,-3.5705188E3,-1.3974827E3,5.676671E2,6.912091E1,2.0984715E4,1.90005E4,-2.362697E3],"split_indices":[3,2,2,3,6,1,0,0,0,0,0,0,0],"split_type":[0,0,0,0,0,0,0,0,0,0,0,0,0],"sum_hessian":[1.152E3,1.146E3,6E0,1.129E3,1.7E1,5E0,1E0,4.11E2,7.18E2,1.2E1,5E0,4E0,1E0],"tree_param":{"num_deleted":"0","num_feature":"10","num_nodes":"13","size_leaf_vector":"1"}},{"base_weights":[3.5931128E2,-2.7732164E4,3.082668E3,-1.7905494E4,-7.581224E4,-1.5909028E3,2.9147768E4,-2.0243789E3,9.0424795E3,-4.87129E3,-1.002099E4,2.4136294E3,-6.8173035E2,1.6540104E3,1.2768934E4],"categories":[],"categories_nodes":[],"categories_segments":[],"categories_sizes":[],"default_left":[0,0,0,0,0,0,0,0,0,0,0,0,0,0,0],"id":51,"left_children":[1,3,5,7,9,11,13,-1,-1,-1,-1,-1,-1,-1,-1],"loss_changes":[8.829357E10,4.683418E10,1.28197935E11,2.3615048E10,6.3582126E9,1.2023788E11,1.9666862E11,0E0,0E0,0E0,0E0,0E0,0E0,0E0,0E0],"parents":[2147483647,0,0,1,1,2,2,3,3,4,4,5,5,6,6],"right_children":[2,4,6,8,10,12,14,-1,-1,-1,-1,-1,-1,-1,-1],"split_conditions":[-7.869445E-1,4.9309957E-1,-3.0795773E-2,3.3307874E-1,1.3397442E0,-3.4679286E-2,2.022029E0,-2.0243789E3,9.0424795E3,-4.87129E3,-1.002099E4,2.4136294E3,-6.8173035E2,1.6540104E3,1.2768934E4],"split_indices":[9,3,2,2,3,2,3,0,0,0,0,0,0,0,0],"split_type":[0,0,0,0,0,0,0,0,0,0,0,0,0,0,0],"sum_hessian":[1.152E3,1.01E2,1.051E3,8.5E1,1.6E1,8.92E2,1.59E2,8.4E1,1E0,9E0,7E0,1.5E2,7.42E2,1.42E2,1.7E1],"tree_param":{"num_deleted":"0","num_feature":"10","num_nodes":"15","size_leaf_vector":"1"}},{"base_weights":[3.30562E2,-5.9998492E4,1.6115945E3,-9.130012E3,-8.040727E4,1.3168377E5,-2.0117289E1,1.8223119E2,-2.0537915E3,-8.730376E3,1.4968235E3,2.9064969E4,-2.3871868E3,-7.927623E2,1.1983665E3],"categories":[],"categories_nodes":[],"categories_segments":[],"categories_sizes":[],"default_left":[0,0,0,0,0,0,0,0,0,0,0,0,0,0,0],"id":52,"left_children":[1,3,5,7,9,11,13,-1,-1,-1,-1,-1,-1,-1,-1],"loss_changes":[8.920454E10,2.418181E10,2.398342E11,1.0369709E9,1.248863E10,3.5313097E11,1.0612062E11,0E0,0E0,0E0,0E0,0E0,0E0,0E0,0E0],"parents":[2147483647,0,0,1,1,2,2,3,3,4,4,5,5,6,6],"right_children":[2,4,6,8,10,12,14,-1,-1,-1,-1,-1,-1,-1,-1],"split_conditions":[2E0,-4.4373548E-1,4E0,-1.0492078E0,1E0,-4.1448817E-2,1.6535772E-2,1.8223119E2,-2.0537915E3,-8.730376E3,1.4968235E3,2.9064969E4,-2.3871868E3,-7.927623E2,1.1983665E3],"split_indices":[1,8,1,3,4,8,8,0,0,0,0,0,0,0,0],"split_type":[0,0,0,0,0,0,0,0,0,0,0,0,0,0,0],"sum_hessian":[1.152E3,2.3E1,1.129E3,7E0,1.6E1,1.3E1,1.116E3,4E0,3E0,1.5E1,1E0,6E0,7E0,6.73E2,4.43E2],"tree_param":{"num_deleted":"0","num_feature":"10","num_nodes":"15","size_leaf_vector":"1"}},{"base_weights":[3.1309308E2,-9.4581555E2,5.0928023E4,2.0140691E4,-4.4084277E3,7.7779907E3,2.4786258E5,-5.188066E2,7.0896094E3,-2.4845037E3,2.3630437E2,2.0168404E4,-2.9526877E3,2.8759373E4,4.4469E3],"categories":[],"categories_nodes":[],"categories_segments":[],"categories_sizes":[],"default_left":[0,0,0,0,0,0,0,0,0,0,0,0,0,0,0],"id":53,"left_children":[1,3,5,7,9,11,13,-1,-1,-1,-1,-1,-1,-1,-1],"loss_changes":[7.3516835E10,8.230299E10,2.3600864E11,2.0477365E11,1.3401629E11,1.7956245E11,2.761628E10,0E0,0E0,0E0,0E0,0E0,0E0,0E0,0E0],"parents":[2147483647,0,0,1,1,2,2,3,3,4,4,5,5,6,6],"right_children":[2,4,6,8,10,12,14,-1,-1,-1,-1,-1,-1,-1,-1],"split_conditions":[5E0,-3.4679286E-2,8.297516E-1,7E0,2E0,-5.8653224E-1,7E0,-5.188066E2,7.0896094E3,-2.4845037E3,2.3630437E2,2.0168404E4,-2.9526877E3,2.8759373E4,4.4469E3],"split_indices":[0,2,8,1,0,8,0,0,0,0,0,0,0,0,0],"split_type":[0,0,0,0,0,0,0,0,0,0,0,0,0,0,0],"sum_hessian":[1.152E3,1.125E3,2.7E1,1.58E2,9.67E2,2.3E1,4E0,1.06E2,5.2E1,2.4E2,7.27E2,3E0,2E1,3E0,1E0],"tree_param":{"num_deleted":"0","num_feature":"10","num_nodes":"15","size_leaf_vector":"1"}},{"base_weights":[3.2926202E2,-6.799075E2,6.4000777E4,-1.2302655E4,5.9259575E3,9.9431695E4,-1.46297705E4,5.758447E1,-3.8731697E3,2.9069354E2,1.2434495E4,-7.0433334E1,3.1987182E4],"categories":[],"categories_nodes":[],"categories_segments":[],"categories_sizes":[],"default_left":[0,0,0,0,0,0,0,0,0,0,0,0,0],"id":54,"left_children":[1,3,5,7,9,11,-1,-1,-1,-1,-1,-1,-1],"loss_changes":[7.412993E10,8.729306E10,1.4866583E11,1.4025323E11,2.5883297E11,3.534093E11,0E0,0E0,0E0,0E0,0E0,0E0,0E0],"parents":[2147483647,0,0,1,1,2,2,3,3,4,4,5,5],"right_children":[2,4,6,8,10,12,-1,-1,-1,-1,-1,-1,-1],"split_conditions":[4.7990523E-2,-3.545006E-1,5.227191E-2,7.885706E-2,3.7988644E0,-4.0788636E-1,-1.46297705E4,5.758447E1,-3.8731697E3,2.9069354E2,1.2434495E4,-7.0433334E1,3.1987182E4],"split_indices":[2,3,8,8,8,9,0,0,0,0,0,0,0],"split_type":[0,0,0,0,0,0,0,0,0,0,0,0,0],"sum_hessian":[1.152E3,1.135E3,1.7E1,4.11E2,7.24E2,1.5E1,2E0,2.77E2,1.34E2,7.07E2,1.7E1,1.1E1,4E0],"tree_param":{"num_deleted":"0","num_feature":"10","num_nodes":"13","size_leaf_vector":"1"}},{"base_weights":[3.190578E2,-3.754089E3,1.650493E4,1.3374913E3,-2.6613549E4,-1.3790894E4,3.956079E4,-7.273722E2,2.7719502E3,-6.7267495E3,3.5143078E1,-4.0387107E3,7.8160913E3,2.11846E4,1.8959496E3],"categories":[],"categories_nodes":[],"categories_segments":[],"categories_sizes":[],"default_left":[0,0,0,0,0,0,0,0,0,0,0,0,0,0,0],"id":55,"left_children":[1,3,5,7,9,11,13,-1,-1,-1,-1,-1,-1,-1,-1],"loss_changes":[7.607629E10,1.073479E11,1.6259672E11,1.7172336E11,1.8419075E11,2.5015924E11,4.6449076E11,0E0,0E0,0E0,0E0,0E0,0E0,0E0,0E0],"parents":[2147483647,0,0,1,1,2,2,3,3,4,4,5,5,6,6],"right_children":[2,4,6,8,10,12,14,-1,-1,-1,-1,-1,-1,-1,-1],"split_conditions":[1E0,5.3196377E-1,1E0,-7.04575E-2,9.3722194E-1,1.338012E-1,6E0,-7.273722E2,2.7719502E3,-6.7267495E3,3.5143078E1,-4.0387107E3,7.8160913E3,2.11846E4,1.8959496E3],"split_indices":[5,9,4,9,9,3,1,0,0,0,0,0,0,0,0],"split_type":[0,0,0,0,0,0,0,0,0,0,0,0,0,0,0],"sum_hessian":[1.152E3,9.21E2,2.31E2,7.54E2,1.67E2,1E2,1.31E2,5.69E2,1.85E2,6.6E1,1.01E2,7.8E1,2.2E1,1.3E1,1.18E2],"tree_param":{"num_deleted":"0","num_feature":"10","num_nodes":"15","size_leaf_vector":"1"}},{"base_weights":[3.0641922E2,-4.925556E3,1.1752326E4,1.1948602E4,-1.3433337E4,-1.0938236E4,2.4978453E4,2.1462782E1,3.4699492E4,-8.461551E2,-1.2717382E4,-4.646237E3,-4.665012E2,2.0636118E3,1.4235594E4],"categories":[],"categories_nodes":[],"categories_segments":[],"categories_sizes":[],"default_left":[0,0,0,0,0,0,0,0,0,0,0,0,0,0,0],"id":56,"left_children":[1,3,5,7,9,11,13,-1,-1,-1,-1,-1,-1,-1,-1],"loss_changes":[6.910495E10,1.1386133E11,1.0891241E11,1.04568436E12,2.969389E11,2.9645263E10,1.1378185E11,0E0,0E0,0E0,0E0,0E0,0E0,0E0,0E0],"parents":[2147483647,0,0,1,1,2,2,3,3,4,4,5,5,6,6],"right_children":[2,4,6,8,10,12,14,-1,-1,-1,-1,-1,-1,-1,-1],"split_conditions":[-3.212379E-2,-3.4145243E-2,-5.3993183E-1,-3.4220446E-2,2.553728E0,-1.1258072E0,4.7990523E-2,2.1462782E1,3.4699492E4,-8.461551E2,-1.2717382E4,-4.646237E3,-4.665012E2,2.0636118E3,1.4235594E4],"split_indices":[2,2,9,2,8,9,2,0,0,0,0,0,0,0,0],"split_type":[0,0,0,0,0,0,0,0,0,0,0,0,0,0,0],"sum_hessian":[1.152E3,7.91E2,3.61E2,2.65E2,5.26E2,1.33E2,2.28E2,2.57E2,8E0,5.05E2,2.1E1,1.9E1,1.14E2,2.21E2,7E0],"tree_param":{"num_deleted":"0","num_feature":"10","num_nodes":"15","size_leaf_vector":"1"}},{"base_weights":[3.0382547E2,-5.276745E4,1.4307341E3,-8.171982E3,-7.0649586E4,1.2152437E5,-7.5748985E1,2.5568008E2,-1.9539965E3,-3.4173813E3,-9.276524E3,2.6373785E4,-1.8102958E3,-6.963713E2,1.0380475E3],"categories":[],"categories_nodes":[],"categories_segments":[],"categories_sizes":[],"default_left":[0,0,0,0,0,0,0,0,0,0,0,0,0,0,0],"id":57,"left_children":[1,3,5,7,9,11,13,-1,-1,-1,-1,-1,-1,-1,-1],"loss_changes":[6.903237E10,1.856175E10,2.0444771E11,1.02567686E9,1.0543514E10,2.8277087E11,8.052095E10,0E0,0E0,0E0,0E0,0E0,0E0,0E0,0E0],"parents":[2147483647,0,0,1,1,2,2,3,3,4,4,5,5,6,6],"right_children":[2,4,6,8,10,12,14,-1,-1,-1,-1,-1,-1,-1,-1],"split_conditions":[2E0,-4.4373548E-1,4E0,-1.0492078E0,-1.0492078E0,-4.1448817E-2,1.6535772E-2,2.5568008E2,-1.9539965E3,-3.4173813E3,-9.276524E3,2.6373785E4,-1.8102958E3,-6.963713E2,1.0380475E3],"split_indices":[1,8,1,3,3,8,8,0,0,0,0,0,0,0,0],"split_type":[0,0,0,0,0,0,0,0,0,0,0,0,0,0,0],"sum_hessian":[1.152E3,2.3E1,1.129E3,7E0,1.6E1,1.3E1,1.116E3,4E0,3E0,7E0,9E0,6E0,7E0,6.73E2,4.43E2],"tree_param":{"num_deleted":"0","num_feature":"10","num_nodes":"15","size_leaf_vector":"1"}},{"base_weights":[2.825596E2,-3.0894385E2,9.716426E4,-1.5787833E3,4.26056E4,1.2594497E5,-3.776E3,2.2787283E1,-7.17239E3,-1.604118E4,9.366176E3,-1.9476532E3,1.5892458E4],"categories":[],"categories_nodes":[],"categories_segments":[],"categories_sizes":[],"default_left":[0,0,0,0,0,0,0,0,0,0,0,0,0],"id":58,"left_children":[1,3,5,7,9,11,-1,-1,-1,-1,-1,-1,-1],"loss_changes":[6.6103677E10,6.2572556E10,3.1938195E10,1.4131818E11,3.5707896E11,3.187096E10,0E0,0E0,0E0,0E0,0E0,0E0,0E0],"parents":[2147483647,0,0,1,1,2,2,3,3,4,4,5,5],"right_children":[2,4,6,8,10,12,-1,-1,-1,-1,-1,-1,-1],"split_conditions":[4.3412232E0,3.7988644E0,5.632213E0,2.553728E0,-9.0300393E-1,2E0,-3.776E3,2.2787283E1,-7.17239E3,-1.604118E4,9.366176E3,-1.9476532E3,1.5892458E4],"split_indices":[3,8,3,8,3,0,0,0,0,0,0,0,0],"split_type":[0,0,0,0,0,0,0,0,0,0,0,0,0],"sum_hessian":[1.152E3,1.146E3,6E0,1.114E3,3.2E1,5E0,1E0,1.087E3,2.7E1,6E0,2.6E1,1E0,4E0],"tree_param":{"num_deleted":"0","num_feature":"10","num_nodes":"13","size_leaf_vector":"1"}},{"base_weights":[2.5113557E2,-4.4757285E3,1.059209E4,1.0558941E4,-1.2055893E4,2.0187589E3,3.7668492E4,-8.650697E0,3.1455521E4,-1.6942332E2,-6.234868E3,-1.3680554E1,1.1887771E4,7.2520977E3,-2.7630222E3],"categories":[],"categories_nodes":[],"categories_segments":[],"categories_sizes":[],"default_left":[0,0,0,0,0,0,0,0,0,0,0,0,0,0,0],"id":59,"left_children":[1,3,5,7,9,11,13,-1,-1,-1,-1,-1,-1,-1,-1],"loss_changes":[5.6406376E10,9.038778E10,8.395683E10,8.608502E11,2.745229E11,6.953983E10,2.0000034E11,0E0,0E0,0E0,0E0,0E0,0E0,0E0,0E0],"parents":[2147483647,0,0,1,1,2,2,3,3,4,4,5,5,6,6],"right_children":[2,4,6,8,10,12,14,-1,-1,-1,-1,-1,-1,-1,-1],"split_conditions":[-3.212379E-2,-3.4145243E-2,2.750896E-1,-3.4220446E-2,5.204545E-1,5E0,-2.6782837E-2,-8.650697E0,3.1455521E4,-1.6942332E2,-6.234868E3,-1.3680554E1,1.1887771E4,7.2520977E3,-2.7630222E3],"split_indices":[2,2,9,2,8,0,2,0,0,0,0,0,0,0,0],"split_type":[0,0,0,0,0,0,0,0,0,0,0,0,0,0,0],"sum_hessian":[1.152E3,7.91E2,3.61E2,2.65E2,5.26E2,2.75E2,8.6E1,2.57E2,8E0,4.37E2,8.9E1,2.71E2,4E0,5.6E1,3E1],"tree_param":{"num_deleted":"0","num_feature":"10","num_nodes":"15","size_leaf_vector":"1"}},{"base_weights":[2.6193787E2,-2.4095566E2,9.643858E4,-2.3989018E4,2.0479711E3,-3.0902148E4,2.3408002E5,-1.7187643E3,-9.160446E3,-8.749914E2,8.178238E2,8.851799E3,-1.0021485E4,3.0329E4,4.7830034E3],"categories":[],"categories_nodes":[],"categories_segments":[],"categories_sizes":[],"default_left":[0,0,0,0,0,0,0,0,0,0,0,0,0,0,0],"id":60,"left_children":[1,3,5,7,9,11,13,-1,-1,-1,-1,-1,-1,-1,-1],"loss_changes":[5.578994E10,6.245162E10,1.1239773E11,4.4873232E10,6.944278E10,4.198015E10,2.4164712E10,0E0,0E0,0E0,0E0,0E0,0E0,0E0,0E0],"parents":[2147483647,0,0,1,1,2,2,3,3,4,4,5,5,6,6],"right_children":[2,4,6,8,10,12,14,-1,-1,-1,-1,-1,-1,-1,-1],"split_conditions":[3.3307874E-1,-7.869445E-1,1E0,9.11644E-1,-3.3634454E-1,-8.9204675E-1,1E0,-1.7187643E3,-9.160446E3,-8.749914E2,8.178238E2,8.851799E3,-1.0021485E4,3.0329E4,4.7830034E3],"split_indices":[2,9,6,3,3,8,0,0,0,0,0,0,0,0,0],"split_type":[0,0,0,0,0,0,0,0,0,0,0,0,0,0,0],"sum_hessian":[1.152E3,1.147E3,5E0,1E2,1.047E3,3E0,2E0,9.2E1,8E0,3.79E2,6.68E2,1E0,2E0,1E0,1E0],"tree_param":{"num_deleted":"0","num_feature":"10","num_nodes":"15","size_leaf_vector":"1"}},{"base_weights":[2.5570062E2,-3.1172864E3,1.3659314E4,1.2338431E3,-2.3087219E4,7.645309E3,1.2327896E5,-4.799881E2,2.790271E3,-6.2402876E3,1.8077733E2,-3.7854675E3,2.151798E3,-4.1712417E3,2.1098871E4],"categories":[],"categories_nodes":[],"categories_segments":[],"categories_sizes":[],"default_left":[0,0,0,0,0,0,0,0,0,0,0,0,0,0,0],"id":61,"left_children":[1,3,5,7,9,11,13,-1,-1,-1,-1,-1,-1,-1,-1],"loss_changes":[5.2169957E10,8.01427E10,1.5200423E11,1.2210565E11,1.616087E11,1.4031115E11,1.8245707E11,0E0,0E0,0E0,0E0,0E0,0E0,0E0,0E0],"parents":[2147483647,0,0,1,1,2,2,3,3,4,4,5,5,6,6],"right_children":[2,4,6,8,10,12,14,-1,-1,-1,-1,-1,-1,-1,-1],"split_conditions":[1E0,5.204545E-1,1.3540049E0,1.6535772E-2,9.2475367E-1,-3.419429E-2,-8.50447E-1,-4.799881E2,2.790271E3,-6.2402876E3,1.8077733E2,-3.7854675E3,2.151798E3,-4.1712417E3,2.1098871E4],"split_indices":[5,8,8,8,8,2,3,0,0,0,0,0,0,0,0],"split_type":[0,0,0,0,0,0,0,0,0,0,0,0,0,0,0],"sum_hessian":[1.152E3,9.21E2,2.31E2,7.57E2,1.64E2,2.2E2,1.1E1,6.18E2,1.39E2,6.3E1,1.01E2,5.1E1,1.69E2,4E0,7E0],"tree_param":{"num_deleted":"0","num_feature":"10","num_nodes":"15","size_leaf_vector":"1"}},{"base_weights":[2.4014429E2,-2.3840047E2,9.176168E4,-2.1743744E4,1.834384E3,-2.856193E4,2.2160594E5,-1.268811E3,-6.5742866E3,-3.1633746E2,1.4019623E3,8.433208E3,-9.430396E3,2.8673037E4,4.567853E3],"categories":[],"categories_nodes":[],"categories_segments":[],"categories_sizes":[],"default_left":[0,0,0,0,0,0,0,0,0,0,0,0,0,0,0],"id":62,"left_children":[1,3,5,7,9,11,13,-1,-1,-1,-1,-1,-1,-1,-1],"loss_changes":[5.051999E10,5.1213066E10,1.0006946E11,3.9408284E10,6.386638E10,3.7640372E10,2.12741E10,0E0,0E0,0E0,0E0,0E0,0E0,0E0,0E0],"parents":[2147483647,0,0,1,1,2,2,3,3,4,4,5,5,6,6],"right_children":[2,4,6,8,10,12,14,-1,-1,-1,-1,-1,-1,-1,-1],"split_conditions":[3.3307874E-1,-7.869445E-1,1E0,4.9309957E-1,-3.212379E-2,-7.869445E-1,1E0,-1.268811E3,-6.5742866E3,-3.1633746E2,1.4019623E3,8.433208E3,-9.430396E3,2.8673037E4,4.567853E3],"split_indices":[2,9,6,3,2,9,0,0,0,0,0,0,0,0,0],"split_type":[0,0,0,0,0,0,0,0,0,0,0,0,0,0,0],"sum_hessian":[1.152E3,1.147E3,5E0,1E2,1.047E3,3E0,2E0,8.4E1,1.6E1,7.43E2,3.04E2,1E0,2E0,1E0,1E0],"tree_param":{"num_deleted":"0","num_feature":"10","num_nodes":"15","size_leaf_vector":"1"}},{"base_weights":[2.3823607E2,-4.4987445E4,1.1985707E3,-1.4171849E4,-6.997204E4,1.1301867E5,-2.0400758E2,4.4130963E2,-2.4015957E3,-1.0022892E4,-1.7967538E3,2.425522E4,-1.4450504E3,-3.8946875E2,1.436365E3],"categories":[],"categories_nodes":[],"categories_segments":[],"categories_sizes":[],"default_left":[0,0,0,0,0,0,0,0,0,0,0,0,0,0,0],"id":63,"left_children":[1,3,5,7,9,11,13,-1,-1,-1,-1,-1,-1,-1,-1],"loss_changes":[5.0130776E10,1.7486332E10,1.7724822E11,2.3014116E9,1.8654544E10,2.3466646E11,6.011095E10,0E0,0E0,0E0,0E0,0E0,0E0,0E0,0E0],"parents":[2147483647,0,0,1,1,2,2,3,3,4,4,5,5,6,6],"right_children":[2,4,6,8,10,12,14,-1,-1,-1,-1,-1,-1,-1,-1],"split_conditions":[2E0,-1.0492078E0,4E0,-7.6920867E-1,-3.464904E-2,-3.1272512E-2,1E0,4.4130963E2,-2.4015957E3,-1.0022892E4,-1.7967538E3,2.425522E4,-1.4450504E3,-3.8946875E2,1.436365E3],"split_indices":[1,3,1,9,2,9,5,0,0,0,0,0,0,0,0],"split_type":[0,0,0,0,0,0,0,0,0,0,0,0,0,0,0],"sum_hessian":[1.152E3,2.3E1,1.129E3,1.1E1,1.2E1,1.3E1,1.116E3,4E0,7E0,7E0,5E0,6E0,7E0,8.91E2,2.25E2],"tree_param":{"num_deleted":"0","num_feature":"10","num_nodes":"15","size_leaf_vector":"1"}},{"base_weights":[2.231517E2,-2.8126764E2,8.2843984E4,1.58171875E4,-2.9069717E3,1.0741317E5,-3.2285564E3,-3.4525247E3,3.9471638E3,-1.7296328E3,3.5229855E2,-1.8233984E3,1.361894E4],"categories":[],"categories_nodes":[],"categories_segments":[],"categories_sizes":[],"default_left":[0,0,0,0,0,0,0,0,0,0,0,0,0],"id":64,"left_children":[1,3,5,7,9,11,-1,-1,-1,-1,-1,-1,-1],"loss_changes":[4.807521E10,4.8529416E10,2.3268372E10,1.9308521E11,9.138108E10,2.417718E10,0E0,0E0,0E0,0E0,0E0,0E0,0E0],"parents":[2147483647,0,0,1,1,2,2,3,3,4,4,5,5],"right_children":[2,4,6,8,10,12,-1,-1,-1,-1,-1,-1,-1],"split_conditions":[4.3412232E0,-3.4679286E-2,-2.8751977E-2,-3.0768535E-1,-3.3227567E-2,2E0,-3.2285564E3,-3.4525247E3,3.9471638E3,-1.7296328E3,3.5229855E2,-1.8233984E3,1.361894E4],"split_indices":[3,2,2,8,2,0,0,0,0,0,0,0,0],"split_type":[0,0,0,0,0,0,0,0,0,0,0,0,0],"sum_hessian":[1.152E3,1.146E3,6E0,1.6E2,9.86E2,5E0,1E0,5.1E1,1.09E2,3.04E2,6.82E2,1E0,4E0],"tree_param":{"num_deleted":"0","num_feature":"10","num_nodes":"13","size_leaf_vector":"1"}},{"base_weights":[2.0749611E2,-4.2785355E4,1.1204349E3,-4.728408E3,-5.817772E4,1.0170831E5,-1.4129349E2,9.233088E2,-1.4951924E3,-7.860746E3,-2.5368333E3,2.1837873E4,-1.3091852E3,-1.183369E3,4.1666046E2],"categories":[],"categories_nodes":[],"categories_segments":[],"categories_sizes":[],"default_left":[0,0,0,0,0,0,0,0,0,0,0,0,0,0,0],"id":65,"left_children":[1,3,5,7,9,11,13,-1,-1,-1,-1,-1,-1,-1,-1],"loss_changes":[4.5303005E10,1.378379E10,1.4342785E11,1.279937E9,9.400742E9,1.9037197E11,5.631221E10,0E0,0E0,0E0,0E0,0E0,0E0,0E0,0E0],"parents":[2147483647,0,0,1,1,2,2,3,3,4,4,5,5,6,6],"right_children":[2,4,6,8,10,12,14,-1,-1,-1,-1,-1,-1,-1,-1],"split_conditions":[2E0,-4.4373548E-1,4E0,-9.669329E-1,5.204545E-1,-4.1448817E-2,2E0,9.233088E2,-1.4951924E3,-7.860746E3,-2.5368333E3,2.1837873E4,-1.3091852E3,-1.183369E3,4.1666046E2],"split_indices":[1,8,1,8,8,8,0,0,0,0,0,0,0,0,0],"split_type":[0,0,0,0,0,0,0,0,0,0,0,0,0,0,0],"sum_hessian":[1.152E3,2.3E1,1.129E3,7E0,1.6E1,1.3E1,1.116E3,3E0,4E0,9E0,7E0,6E0,7E0,3E2,8.16E2],"tree_param":{"num_deleted":"0","num_feature":"10","num_nodes":"15","size_leaf_vector":"1"}},{"base_weights":[1.9437344E2,-2.6702692E2,8.844324E4,-1.2412117E3,3.874469E4,-2.5439633E4,2.10806E5,-1.7209822E2,1.7812693E4,1.587448E2,2.0935053E4,8.072575E3,-8.773668E3,2.730042E4,4.3204814E3],"categories":[],"categories_nodes":[],"categories_segments":[],"categories_sizes":[],"default_left":[0,0,0,0,0,0,0,0,0,0,0,0,0,0,0],"id":66,"left_children":[1,3,5,7,9,11,13,-1,-1,-1,-1,-1,-1,-1,-1],"loss_changes":[4.697154E10,4.36774E10,8.897295E10,9.677483E10,1.7716645E11,3.3537765E10,1.9478372E10,0E0,0E0,0E0,0E0,0E0,0E0,0E0,0E0],"parents":[2147483647,0,0,1,1,2,2,3,3,4,4,5,5,6,6],"right_children":[2,4,6,8,10,12,14,-1,-1,-1,-1,-1,-1,-1,-1],"split_conditions":[3.3307874E-1,5E0,1E0,3.6732724E0,8.098667E-1,-7.869445E-1,1E0,-1.7209822E2,1.7812693E4,1.587448E2,2.0935053E4,8.072575E3,-8.773668E3,2.730042E4,4.3204814E3],"split_indices":[2,0,6,3,9,9,0,0,0,0,0,0,0,0,0],"split_type":[0,0,0,0,0,0,0,0,0,0,0,0,0,0,0],"sum_hessian":[1.152E3,1.147E3,5E0,1.12E3,2.7E1,3E0,2E0,1.118E3,2E0,2.3E1,4E0,1E0,2E0,1E0,1E0],"tree_param":{"num_deleted":"0","num_feature":"10","num_nodes":"15","size_leaf_vector":"1"}},{"base_weights":[2.3534807E2,-5.486694E2,4.9702484E4,1.695412E3,-1.8234055E4,8.326493E4,-1.4586474E4,-4.342779E2,1.0104798E3,6.362806E3,-4.7340137E3,-6.420169E2,2.3381014E4],"categories":[],"categories_nodes":[],"categories_segments":[],"categories_sizes":[],"default_left":[0,0,0,0,0,0,0,0,0,0,0,0,0],"id":67,"left_children":[1,3,5,7,9,11,-1,-1,-1,-1,-1,-1,-1],"loss_changes":[4.474418E10,4.511585E10,1.3029227E11,5.127836E10,3.079959E11,2.1752768E11,0E0,0E0,0E0,0E0,0E0,0E0,0E0],"parents":[2147483647,0,0,1,1,2,2,3,3,4,4,5,5],"right_children":[2,4,6,8,10,12,-1,-1,-1,-1,-1,-1,-1],"split_conditions":[4.7990523E-2,9E0,5.227191E-2,-3.2469854E-2,-3.419429E-2,1.3400936E-2,-1.4586474E4,-4.342779E2,1.0104798E3,6.362806E3,-4.7340137E3,-6.420169E2,2.3381014E4],"split_indices":[2,1,8,3,2,8,0,0,0,0,0,0,0],"split_type":[0,0,0,0,0,0,0,0,0,0,0,0,0],"sum_hessian":[1.152E3,1.135E3,1.7E1,1.008E3,1.27E2,1.5E1,2E0,5.87E2,4.21E2,3.3E1,9.4E1,1E1,5E0],"tree_param":{"num_deleted":"0","num_feature":"10","num_nodes":"13","size_leaf_vector":"1"}},{"base_weights":[2.2079596E2,-7.734772E2,3.398926E4,7.7588495E2,-6.1281645E4,-1.440074E5,7.887768E4,3.045618E3,-2.1096504E2,-3.5309324E3,-1.2179878E4,-2.0551656E4,-4.649639E3,1.9125617E4,-5.685733E3],"categories":[],"categories_nodes":[],"categories_segments":[],"categories_sizes":[],"default_left":[0,0,0,0,0,0,0,0,0,0,0,0,0,0,0],"id":68,"left_children":[1,3,5,7,9,11,13,-1,-1,-1,-1,-1,-1,-1,-1],"loss_changes":[3.873836E10,1.0514025E11,2.7502864E11,9.375828E10,3.9708934E10,3.2428966E10,4.227241E11,0E0,0E0,0E0,0E0,0E0,0E0,0E0,0E0],"parents":[2147483647,0,0,1,1,2,2,3,3,4,4,5,5,6,6],"right_children":[2,4,6,8,10,12,14,-1,-1,-1,-1,-1,-1,-1,-1],"split_conditions":[3.7988644E0,2.553728E0,-9.0300393E-1,-1.0090734E0,-1.0492078E0,-1.0492078E0,-3.419429E-2,3.045618E3,-2.1096504E2,-3.5309324E3,-1.2179878E4,-2.0551656E4,-4.649639E3,1.9125617E4,-5.685733E3],"split_indices":[8,8,3,3,3,3,2,0,0,0,0,0,0,0,0],"split_type":[0,0,0,0,0,0,0,0,0,0,0,0,0,0,0],"sum_hessian":[1.152E3,1.12E3,3.2E1,1.093E3,2.7E1,6E0,2.6E1,9.6E1,9.97E2,2E1,7E0,3E0,3E0,1.4E1,1.2E1],"tree_param":{"num_deleted":"0","num_feature":"10","num_nodes":"15","size_leaf_vector":"1"}},{"base_weights":[1.7734798E2,-1.0945597E4,3.0062522E3,-2.2590809E4,2.063734E5,5.8392207E4,-7.195783E2,-2.8452576E3,3.8328755E3,5.129157E4,4.7202007E3,2.3746544E2,2.7292828E4,-2.0379086E3,4.748923E2],"categories":[],"categories_nodes":[],"categories_segments":[],"categories_sizes":[],"default_left":[0,0,0,0,0,0,0,0,0,0,0,0,0,0,0],"id":69,"left_children":[1,3,5,7,9,11,13,-1,-1,-1,-1,-1,-1,-1,-1],"loss_changes":[3.6312908E10,5.96852E11,1.89892E11,8.072303E10,5.6130254E11,6.9638344E11,9.287622E10,0E0,0E0,0E0,0E0,0E0,0E0,0E0,0E0],"parents":[2147483647,0,0,1,1,2,2,3,3,4,4,5,5,6,6],"right_children":[2,4,6,8,10,12,14,-1,-1,-1,-1,-1,-1,-1,-1],"split_conditions":[7E0,8.055745E-1,-3.4599725E-2,3.8181505E0,8.619538E-1,-3.1272512E-2,-3.3227567E-2,-2.8452576E3,3.8328755E3,5.129157E4,4.7202007E3,2.3746544E2,2.7292828E4,-2.0379086E3,4.748923E2],"split_indices":[1,3,2,9,3,9,2,0,0,0,0,0,0,0,0],"split_type":[0,0,0,0,0,0,0,0,0,0,0,0,0,0,0],"sum_hessian":[1.152E3,2.33E2,9.19E2,2.22E2,1.1E1,5.7E1,8.62E2,2.03E2,1.9E1,3E0,8E0,4.6E1,1.1E1,1.87E2,6.75E2],"tree_param":{"num_deleted":"0","num_feature":"10","num_nodes":"15","size_leaf_vector":"1"}},{"base_weights":[2.3156699E2,-3.0723709E4,1.2281309E3,-1.640163E4,-7.186754E3,-9.607457E3,4.091746E3,-8.6808624E2,-2.9430925E3,-2.0327307E3,1.904037E4,8.7152405E2,-1.4583097E3],"categories":[],"categories_nodes":[],"categories_segments":[],"categories_sizes":[],"default_left":[0,0,0,0,0,0,0,0,0,0,0,0,0],"id":70,"left_children":[1,3,5,7,-1,9,11,-1,-1,-1,-1,-1,-1],"loss_changes":[3.560652E10,2.0034804E10,3.472968E10,2.5612073E9,0E0,5.055873E11,7.654067E10,0E0,0E0,0E0,0E0,0E0,0E0],"parents":[2147483647,0,0,1,1,2,2,3,3,5,5,6,6],"right_children":[2,4,6,8,-1,10,12,-1,-1,-1,-1,-1,-1],"split_conditions":[-1.1258072E0,-1.0509399E-1,7E0,8E0,-7.186754E3,8.055745E-1,8.055745E-1,-8.6808624E2,-2.9430925E3,-2.0327307E3,1.904037E4,8.7152405E2,-1.4583097E3],"split_indices":[9,3,1,1,0,3,3,0,0,0,0,0,0],"split_type":[0,0,0,0,0,0,0,0,0,0,0,0,0],"sum_hessian":[1.152E3,3.5E1,1.117E3,2.7E1,8E0,2.33E2,8.84E2,1.8E1,9E0,2.22E2,1.1E1,7.09E2,1.75E2],"tree_param":{"num_deleted":"0","num_feature":"10","num_nodes":"13","size_leaf_vector":"1"}},{"base_weights":[2.131089E2,-6.974342E2,3.682234E4,-1.1500813E3,1.6912681E5,6.0990965E4,-1.849132E4,6.4840416E1,-2.1331443E3,-2.1416345E3,2.7510656E4,2.7763545E3,1.9499342E4],"categories":[],"categories_nodes":[],"categories_segments":[],"categories_sizes":[],"default_left":[0,0,0,0,0,0,0,0,0,0,0,0,0],"id":71,"left_children":[1,3,5,7,9,11,-1,-1,-1,-1,-1,-1,-1],"loss_changes":[3.8460105E10,8.675063E10,1.6133125E11,4.0810406E10,6.6472927E10,1.10352744E11,0E0,0E0,0E0,0E0,0E0,0E0,0E0],"parents":[2147483647,0,0,1,1,2,2,3,3,4,4,5,5],"right_children":[2,4,6,8,10,12,-1,-1,-1,-1,-1,-1,-1],"split_conditions":[5E0,3.6732724E0,1E0,1.2145631E0,2E0,8.297516E-1,-1.849132E4,6.4840416E1,-2.1331443E3,-2.1416345E3,2.7510656E4,2.7763545E3,1.9499342E4],"split_indices":[0,3,7,3,0,8,0,0,0,0,0,0,0],"split_type":[0,0,0,0,0,0,0,0,0,0,0,0,0],"sum_hessian":[1.152E3,1.125E3,2.7E1,1.123E3,2E0,2.5E1,2E0,1.032E3,9.1E1,1E0,1E0,2.1E1,4E0],"tree_param":{"num_deleted":"0","num_feature":"10","num_nodes":"13","size_leaf_vector":"1"}},{"base_weights":[2.1528769E2,-1.4807507E4,2.0892666E3,-1.1932923E4,-7.126857E3,4.056234E1,2.1709945E4,-1.4378202E3,3.0642864E3,3.728797E2,-1.2940072E3,-4.3710376E2,7.7378203E3],"categories":[],"categories_nodes":[],"categories_segments":[],"categories_sizes":[],"default_left":[0,0,0,0,0,0,0,0,0,0,0,0,0],"id":72,"left_children":[1,3,5,7,-1,9,11,-1,-1,-1,-1,-1,-1],"loss_changes":[3.2490656E10,1.9924226E10,4.124121E10,1.3246077E10,0E0,4.4572578E10,1.4117085E11,0E0,0E0,0E0,0E0,0E0,0E0],"parents":[2147483647,0,0,1,1,2,2,3,3,5,5,6,6],"right_children":[2,4,6,8,-1,10,12,-1,-1,-1,-1,-1,-1],"split_conditions":[-7.6920867E-1,4E0,4E0,1E0,-7.126857E3,5.3196377E-1,1E0,-1.4378202E3,3.0642864E3,3.728797E2,-1.2940072E3,-4.3710376E2,7.7378203E3],"split_indices":[9,0,0,6,0,9,5,0,0,0,0,0,0],"split_type":[0,0,0,0,0,0,0,0,0,0,0,0,0],"sum_hessian":[1.152E3,1.27E2,1.025E3,1.22E2,5E0,9.29E2,9.6E1,1.16E2,6E0,7.24E2,2.05E2,6.6E1,3E1],"tree_param":{"num_deleted":"0","num_feature":"10","num_nodes":"13","size_leaf_vector":"1"}},{"base_weights":[1.9452307E2,-5.227715E2,4.5452973E4,-2.6739211E3,1.5859261E4,1.7334178E5,-3.46824E3,7.2155205E1,-3.0881895E3,2.3836865E3,-1.1077321E4,2.8822238E4,7.256603E3,2.322841E3,-1.7526234E4],"categories":[],"categories_nodes":[],"categories_segments":[],"categories_sizes":[],"default_left":[0,0,0,0,0,0,0,0,0,0,0,0,0,0,0],"id":73,"left_children":[1,3,5,7,9,11,13,-1,-1,-1,-1,-1,-1,-1,-1],"loss_changes":[3.7454336E10,4.007528E10,1.1321774E11,9.62806E10,1.35990034E11,3.697074E10,6.827964E10,0E0,0E0,0E0,0E0,0E0,0E0,0E0,0E0],"parents":[2147483647,0,0,1,1,2,2,3,3,4,4,5,5,6,6],"right_children":[2,4,6,8,10,12,14,-1,-1,-1,-1,-1,-1,-1,-1],"split_conditions":[4.7990523E-2,9.2475367E-1,5.950319E-2,5.3196377E-1,-2.9176757E-2,1E0,1E0,7.2155205E1,-3.0881895E3,2.3836865E3,-1.1077321E4,2.8822238E4,7.256603E3,2.322841E3,-1.7526234E4],"split_indices":[2,8,2,9,2,0,4,0,0,0,0,0,0,0,0],"split_type":[0,0,0,0,0,0,0,0,0,0,0,0,0,0,0],"sum_hessian":[1.152E3,1.135E3,1.7E1,1.004E3,1.31E2,4E0,1.3E1,8.97E2,1.07E2,1.24E2,7E0,1E0,3E0,1.2E1,1E0],"tree_param":{"num_deleted":"0","num_feature":"10","num_nodes":"15","size_leaf_vector":"1"}},{"base_weights":[1.8302373E2,-2.0012164E2,7.3461E4,-1.115903E4,2.6783171E3,-3.2692828E4,1.9051244E5,-1.5612238E3,1.386633E4,-1.5806978E2,4.298579E3,7.4339507E3,-9.315011E3,2.4408719E4,4.168147E3],"categories":[],"categories_nodes":[],"categories_segments":[],"categories_sizes":[],"default_left":[0,0,0,0,0,0,0,0,0,0,0,0,0,0,0],"id":74,"left_children":[1,3,5,7,9,11,13,-1,-1,-1,-1,-1,-1,-1,-1],"loss_changes":[3.2386464E10,3.6243026E10,8.078113E10,1.6162323E11,1.5628775E11,3.280827E10,1.374684E10,0E0,0E0,0E0,0E0,0E0,0E0,0E0,0E0],"parents":[2147483647,0,0,1,1,2,2,3,3,4,4,5,5,6,6],"right_children":[2,4,6,8,10,12,14,-1,-1,-1,-1,-1,-1,-1,-1],"split_conditions":[3.3307874E-1,-6.2492996E-1,1E0,3E0,9.2475367E-1,-8.9204675E-1,1E0,-1.5612238E3,1.386633E4,-1.5806978E2,4.298579E3,7.4339507E3,-9.315011E3,2.4408719E4,4.168147E3],"split_indices":[2,3,6,0,8,8,0,0,0,0,0,0,0,0,0],"split_type":[0,0,0,0,0,0,0,0,0,0,0,0,0,0,0],"sum_hessian":[1.152E3,1.147E3,5E0,2.38E2,9.09E2,3E0,2E0,2.32E2,6E0,8.23E2,8.6E1,1E0,2E0,1E0,1E0],"tree_param":{"num_deleted":"0","num_feature":"10","num_nodes":"15","size_leaf_vector":"1"}},{"base_weights":[2.0213254E2,-4.5002637E2,4.1349375E4,1.6129141E3,-1.6708283E4,1.6363044E5,-5.275962E3,-9.197574E1,1.5898567E3,5.3288174E3,-4.158377E3,2.7459188E4,6.724212E3,-4.2202617E3,1.4418932E4],"categories":[],"categories_nodes":[],"categories_segments":[],"categories_sizes":[],"default_left":[0,0,0,0,0,0,0,0,0,0,0,0,0,0,0],"id":75,"left_children":[1,3,5,7,9,11,13,-1,-1,-1,-1,-1,-1,-1,-1],"loss_changes":[3.0958832E10,3.8128177E10,1.0348844E11,3.6521116E10,2.25089E11,3.5012796E10,8.335471E10,0E0,0E0,0E0,0E0,0E0,0E0,0E0,0E0],"parents":[2147483647,0,0,1,1,2,2,3,3,4,4,5,5,6,6],"right_children":[2,4,6,8,10,12,14,-1,-1,-1,-1,-1,-1,-1,-1],"split_conditions":[4.7990523E-2,9E0,5.950319E-2,-3.0795773E-2,-3.419429E-2,1E0,1.5996622E0,-9.197574E1,1.5898567E3,5.3288174E3,-4.158377E3,2.7459188E4,6.724212E3,-4.2202617E3,1.4418932E4],"split_indices":[2,1,2,2,2,0,3,0,0,0,0,0,0,0,0],"split_type":[0,0,0,0,0,0,0,0,0,0,0,0,0,0,0],"sum_hessian":[1.152E3,1.135E3,1.7E1,1.008E3,1.27E2,4E0,1.3E1,8.57E2,1.51E2,3.3E1,9.4E1,1E0,3E0,1.1E1,2E0],"tree_param":{"num_deleted":"0","num_feature":"10","num_nodes":"15","size_leaf_vector":"1"}},{"base_weights":[2.2272453E2,-1.4725253E2,7.097455E4,-9.565511E2,3.2258854E4,-2.6728617E4,1.7758725E5,-1.3943434E2,1.6265883E4,5.4678027E3,-1.7279363E4,7.2732666E3,-8.41266E3,2.3399295E4,3.2387937E3],"categories":[],"categories_nodes":[],"categories_segments":[],"categories_sizes":[],"default_left":[0,0,0,0,0,0,0,0,0,0,0,0,0,0,0],"id":76,"left_children":[1,3,5,7,9,11,13,-1,-1,-1,-1,-1,-1,-1,-1],"loss_changes":[3.0192015E10,3.0138552E10,6.7245048E10,8.052353E10,1.3816701E11,2.8954257E10,1.699165E10,0E0,0E0,0E0,0E0,0E0,0E0,0E0,0E0],"parents":[2147483647,0,0,1,1,2,2,3,3,4,4,5,5,6,6],"right_children":[2,4,6,8,10,12,14,-1,-1,-1,-1,-1,-1,-1,-1],"split_conditions":[3.3307874E-1,5E0,1E0,3.6732724E0,1E0,-7.869445E-1,1E0,-1.3943434E2,1.6265883E4,5.4678027E3,-1.7279363E4,7.2732666E3,-8.41266E3,2.3399295E4,3.2387937E3],"split_indices":[2,0,6,3,7,9,0,0,0,0,0,0,0,0,0],"split_type":[0,0,0,0,0,0,0,0,0,0,0,0,0,0,0],"sum_hessian":[1.152E3,1.147E3,5E0,1.12E3,2.7E1,3E0,2E0,1.118E3,2E0,2.5E1,2E0,1E0,2E0,1E0,1E0],"tree_param":{"num_deleted":"0","num_feature":"10","num_nodes":"15","size_leaf_vector":"1"}},{"base_weights":[2.2631158E2,1.2421492E4,-1.7511812E3,-2.864371E4,3.172121E4,-3.2510408E4,6.168105E2,-1.6391058E3,-7.846575E3,-7.4420364E1,1.2682507E4,-3.9126228E3,2.1529838E4,7.2831147E3,-2.3114922E2],"categories":[],"categories_nodes":[],"categories_segments":[],"categories_sizes":[],"default_left":[0,0,0,0,0,0,0,0,0,0,0,0,0,0,0],"id":77,"left_children":[1,3,5,7,9,11,13,-1,-1,-1,-1,-1,-1,-1,-1],"loss_changes":[2.7827362E10,1.2850865E11,7.234778E10,3.0457377E10,3.397289E11,1.248253E11,1.9535095E11,0E0,0E0,0E0,0E0,0E0,0E0,0E0,0E0],"parents":[2147483647,0,0,1,1,2,2,3,3,4,4,5,5,6,6],"right_children":[2,4,6,8,10,12,14,-1,-1,-1,-1,-1,-1,-1,-1],"split_conditions":[-3.4679286E-2,-3.0768535E-1,-3.436322E-2,3E0,7E0,1.0119799E0,-3.4145243E-2,-1.6391058E3,-7.846575E3,-7.4420364E1,1.2682507E4,-3.9126228E3,2.1529838E4,7.2831147E3,-2.3114922E2],"split_indices":[2,8,2,0,1,3,2,0,0,0,0,0,0,0,0],"split_type":[0,0,0,0,0,0,0,0,0,0,0,0,0,0,0],"sum_hessian":[1.152E3,1.6E2,9.92E2,5.1E1,1.09E2,7E1,9.22E2,4.2E1,9E0,8.2E1,2.7E1,6.9E1,1E0,3.5E1,8.87E2],"tree_param":{"num_deleted":"0","num_feature":"10","num_nodes":"15","size_leaf_vector":"1"}},{"base_weights":[2.2778455E2,-1.2829391E2,6.83195E4,1.7621348E3,-1.4568499E4,9.628155E3,-3.5745383E3,-1.3673201E3,3.7667703E2,4.1026997E3,-3.332528E3],"categories":[],"categories_nodes":[],"categories_segments":[],"categories_sizes":[],"default_left":[0,0,0,0,0,0,0,0,0,0,0],"id":78,"left_children":[1,3,5,7,9,-1,-1,-1,-1,-1,-1],"loss_changes":[2.7964391E10,3.136398E10,2.090083E10,3.1488799E10,1.4005866E11,0E0,0E0,0E0,0E0,0E0,0E0],"parents":[2147483647,0,0,1,1,2,2,3,3,4,4],"right_children":[2,4,6,8,10,-1,-1,-1,-1,-1,-1],"split_conditions":[3.3307874E-1,9E0,3.7850315E1,-7.6920867E-1,-3.419429E-2,9.628155E3,-3.5745383E3,-1.3673201E3,3.7667703E2,4.1026997E3,-3.332528E3],"split_indices":[2,1,2,9,2,0,0,0,0,0,0],"split_type":[0,0,0,0,0,0,0,0,0,0,0],"sum_hessian":[1.152E3,1.147E3,5E0,1.015E3,1.32E2,4E0,1E0,1.16E2,8.99E2,3.3E1,9.9E1],"tree_param":{"num_deleted":"0","num_feature":"10","num_nodes":"11","size_leaf_vector":"1"}},{"base_weights":[2.100615E2,-2.9293416E3,7.480604E3,-2.103317E3,-1.6802144E5,4.6594365E3,1.267978E5,-5.857904E2,1.6685315E3,-2.7720375E4,-3.9226074E3,1.599598E3,-2.9671755E3,1.5463036E4,-3.4015063E3],"categories":[],"categories_nodes":[],"categories_segments":[],"categories_sizes":[],"default_left":[0,0,0,0,0,0,0,0,0,0,0,0,0,0,0],"id":79,"left_children":[1,3,5,7,9,11,13,-1,-1,-1,-1,-1,-1,-1,-1],"loss_changes":[2.6339326E10,1.0956091E11,1.16550795E11,5.674422E10,4.5375095E10,1.3319083E11,4.1066422E10,0E0,0E0,0E0,0E0,0E0,0E0,0E0,0E0],"parents":[2147483647,0,0,1,1,2,2,3,3,4,4,5,5,6,6],"right_children":[2,4,6,8,10,12,14,-1,-1,-1,-1,-1,-1,-1,-1],"split_conditions":[-3.2100085E-2,3.6732724E0,3.6732724E0,5.236782E-1,8E0,8.055745E-1,-2.6782837E-2,-5.857904E2,1.6685315E3,-2.7720375E4,-3.9226074E3,1.599598E3,-2.9671755E3,1.5463036E4,-3.4015063E3],"split_indices":[2,3,3,3,1,3,2,0,0,0,0,0,0,0,0],"split_type":[0,0,0,0,0,0,0,0,0,0,0,0,0,0,0],"sum_hessian":[1.152E3,8.05E2,3.47E2,8.02E2,3E0,3.4E2,7E0,6.69E2,1.33E2,1E0,2E0,2.56E2,8.4E1,6E0,1E0],"tree_param":{"num_deleted":"0","num_feature":"10","num_nodes":"15","size_leaf_vector":"1"}},{"base_weights":[1.7182365E2,-3.1082263E3,7.23332E3,1.348313E3,-4.744476E4,7.4055055E4,-3.329204E3,-5.977085E1,3.4837605E4,-1.8101857E4,-3.9013748E3,-3.0040308E3,8.893261E3,-2.6268755E3,1.2550958E3],"categories":[],"categories_nodes":[],"categories_segments":[],"categories_sizes":[],"default_left":[0,0,0,0,0,0,0,0,0,0,0,0,0,0,0],"id":80,"left_children":[1,3,5,7,9,11,13,-1,-1,-1,-1,-1,-1,-1,-1],"loss_changes":[2.672834E10,1.5576293E11,2.585716E11,4.8441514E11,7.40215E10,8.010582E10,1.1580765E11,0E0,0E0,0E0,0E0,0E0,0E0,0E0,0E0],"parents":[2147483647,0,0,1,1,2,2,3,3,4,4,5,5,6,6],"right_children":[2,4,6,8,10,12,14,-1,-1,-1,-1,-1,-1,-1,-1],"split_conditions":[2.6698953E-1,6.372193E-2,3.7185156E-1,2.7147578E-2,-1.0090734E0,1.5388286E-2,-2.9047668E-1,-5.977085E1,3.4837605E4,-1.8101857E4,-3.9013748E3,-3.0040308E3,8.893261E3,-2.6268755E3,1.2550958E3],"split_indices":[9,9,9,9,3,8,3,0,0,0,0,0,0,0,0],"split_type":[0,0,0,0,0,0,0,0,0,0,0,0,0,0,0],"sum_hessian":[1.152E3,7.87E2,3.65E2,7.16E2,7.1E1,4.9E1,3.16E2,7.13E2,3E0,3E0,6.8E1,6E0,4.3E1,1.29E2,1.87E2],"tree_param":{"num_deleted":"0","num_feature":"10","num_nodes":"15","size_leaf_vector":"1"}},{"base_weights":[1.6963742E2,-4.4151645E2,3.8730812E4,1.5373705E3,-1.6037262E4,1.5543584E5,-5.71604E3,6.361828E2,-3.964951E2,3.7034294E3,-3.4862478E3,2.2363295E4,3.542677E3,1.8890365E3,-1.6279966E4],"categories":[],"categories_nodes":[],"categories_segments":[],"categories_sizes":[],"default_left":[0,0,0,0,0,0,0,0,0,0,0,0,0,0,0],"id":81,"left_children":[1,3,5,7,9,11,13,-1,-1,-1,-1,-1,-1,-1,-1],"loss_changes":[2.7189633E10,3.5084136E10,9.425756E10,2.6809854E10,1.29173815E11,3.2998777E10,5.7189024E10,0E0,0E0,0E0,0E0,0E0,0E0,0E0,0E0],"parents":[2147483647,0,0,1,1,2,2,3,3,4,4,5,5,6,6],"right_children":[2,4,6,8,10,12,14,-1,-1,-1,-1,-1,-1,-1,-1],"split_conditions":[4.7990523E-2,9E0,5.950319E-2,-2.6480269E-2,-3.419429E-2,1E0,1E0,6.361828E2,-3.964951E2,3.7034294E3,-3.4862478E3,2.2363295E4,3.542677E3,1.8890365E3,-1.6279966E4],"split_indices":[2,1,2,8,2,5,4,0,0,0,0,0,0,0,0],"split_type":[0,0,0,0,0,0,0,0,0,0,0,0,0,0,0],"sum_hessian":[1.152E3,1.135E3,1.7E1,1.008E3,1.27E2,4E0,1.3E1,5.37E2,4.71E2,3.3E1,9.4E1,2E0,2E0,1.2E1,1E0],"tree_param":{"num_deleted":"0","num_feature":"10","num_nodes":"15","size_leaf_vector":"1"}},{"base_weights":[1.6305748E2,-3.0811787E3,7.14747E3,8.8760034E2,-4.256081E4,6.723379E4,-2.3524148E3,-9.156465E1,3.2254525E4,-1.2060846E4,-2.331966E3,5.117201E3,2.0155541E4,2.8361765E2,-5.3978296E3],"categories":[],"categories_nodes":[],"categories_segments":[],"categories_sizes":[],"default_left":[0,0,0,0,0,0,0,0,0,0,0,0,0,0,0],"id":82,"left_children":[1,3,5,7,9,11,13,-1,-1,-1,-1,-1,-1,-1,-1],"loss_changes":[2.6147946E10,1.23506295E11,2.0907577E11,4.1617552E11,1.0531175E11,9.755822E10,8.506647E10,0E0,0E0,0E0,0E0,0E0,0E0,0E0,0E0],"parents":[2147483647,0,0,1,1,2,2,3,3,4,4,5,5,6,6],"right_children":[2,4,6,8,10,12,14,-1,-1,-1,-1,-1,-1,-1,-1],"split_conditions":[2.6698953E-1,6.372193E-2,3.7185156E-1,2.7147578E-2,6E0,-3.1411827E-2,1E0,-9.156465E1,3.2254525E4,-1.2060846E4,-2.331966E3,5.117201E3,2.0155541E4,2.8361765E2,-5.3978296E3],"split_indices":[9,9,9,9,1,2,7,0,0,0,0,0,0,0,0],"split_type":[0,0,0,0,0,0,0,0,0,0,0,0,0,0,0],"sum_hessian":[1.152E3,7.87E2,3.65E2,7.16E2,7.1E1,4.9E1,3.16E2,7.13E2,3E0,1.3E1,5.8E1,4.5E1,4E0,2.88E2,2.8E1],"tree_param":{"num_deleted":"0","num_feature":"10","num_nodes":"15","size_leaf_vector":"1"}},{"base_weights":[1.7964525E2,-6.386522E2,2.7971518E4,7.140015E2,-5.3465957E4,-1.184843E5,7.1959016E4,2.6048467E3,-1.7490819E2,-2.781875E3,-1.1410663E4,-1.8866775E4,-3.8640664E3,1.799513E4,-4.987568E3],"categories":[],"categories_nodes":[],"categories_segments":[],"categories_sizes":[],"default_left":[0,0,0,0,0,0,0,0,0,0,0,0,0,0,0],"id":83,"left_children":[1,3,5,7,9,11,13,-1,-1,-1,-1,-1,-1,-1,-1],"loss_changes":[2.6239412E10,8.0141525E10,2.2111943E11,6.8312146E10,4.0373092E10,3.7539365E10,3.510626E11,0E0,0E0,0E0,0E0,0E0,0E0,0E0,0E0],"parents":[2147483647,0,0,1,1,2,2,3,3,4,4,5,5,6,6],"right_children":[2,4,6,8,10,12,14,-1,-1,-1,-1,-1,-1,-1,-1],"split_conditions":[3.7988644E0,2.553728E0,-8.50447E-1,-1.0090734E0,-1.0492078E0,-1.0492078E0,-3.419429E-2,2.6048467E3,-1.7490819E2,-2.781875E3,-1.1410663E4,-1.8866775E4,-3.8640664E3,1.799513E4,-4.987568E3],"split_indices":[8,8,3,3,3,3,2,0,0,0,0,0,0,0,0],"split_type":[0,0,0,0,0,0,0,0,0,0,0,0,0,0,0],"sum_hessian":[1.152E3,1.12E3,3.2E1,1.093E3,2.7E1,7E0,2.5E1,9.6E1,9.97E2,2E1,7E0,3E0,4E0,1.3E1,1.2E1],"tree_param":{"num_deleted":"0","num_feature":"10","num_nodes":"15","size_leaf_vector":"1"}},{"base_weights":[1.43048E2,-5.742157E2,2.8982188E4,-9.757425E2,1.5005588E5,1.5989266E5,-6.428465E3,1.186172E2,-1.5240707E3,-2.0893376E3,2.4597719E4,1.1511656E3,3.0443645E4,-2.9785527E3,1.1196397E4],"categories":[],"categories_nodes":[],"categories_segments":[],"categories_sizes":[],"default_left":[0,0,0,0,0,0,0,0,0,0,0,0,0,0,0],"id":84,"left_children":[1,3,5,7,9,11,13,-1,-1,-1,-1,-1,-1,-1,-1],"loss_changes":[2.386676E10,6.8249158E10,1.3082537E11,3.4681827E10,5.4332318E10,1.2518076E11,6.69368E10,0E0,0E0,0E0,0E0,0E0,0E0,0E0,0E0],"parents":[2147483647,0,0,1,1,2,2,3,3,4,4,5,5,6,6],"right_children":[2,4,6,8,10,12,14,-1,-1,-1,-1,-1,-1,-1,-1],"split_conditions":[5E0,3.6732724E0,1.5996622E0,8.4857565E-1,2E0,1.4458137E0,8.297516E-1,1.186172E2,-1.5240707E3,-2.0893376E3,2.4597719E4,1.1511656E3,3.0443645E4,-2.9785527E3,1.1196397E4],"split_indices":[0,3,3,3,0,3,8,0,0,0,0,0,0,0,0],"split_type":[0,0,0,0,0,0,0,0,0,0,0,0,0,0,0],"sum_hessian":[1.152E3,1.125E3,2.7E1,1.123E3,2E0,5E0,2.2E1,9.76E2,1.47E2,1E0,1E0,3E0,2E0,1.9E1,3E0],"tree_param":{"num_deleted":"0","num_feature":"10","num_nodes":"15","size_leaf_vector":"1"}},{"base_weights":[1.815685E2,-2.8778276E3,6.8745522E3,-2.1078643E3,-1.5403366E5,4.4825874E3,1.1215867E5,-5.835497E2,1.6833252E3,-2.5949725E4,-3.2380032E3,1.4653851E3,-2.608157E3,1.3712671E4,-3.130875E3],"categories":[],"categories_nodes":[],"categories_segments":[],"categories_sizes":[],"default_left":[0,0,0,0,0,0,0,0,0,0,0,0,0,0,0],"id":85,"left_children":[1,3,5,7,9,11,13,-1,-1,-1,-1,-1,-1,-1,-1],"loss_changes":[2.3629175E10,9.18518E10,9.066184E10,5.580599E10,4.2917585E10,1.1074322E11,3.295005E10,0E0,0E0,0E0,0E0,0E0,0E0,0E0,0E0],"parents":[2147483647,0,0,1,1,2,2,3,3,4,4,5,5,6,6],"right_children":[2,4,6,8,10,12,14,-1,-1,-1,-1,-1,-1,-1,-1],"split_conditions":[-3.212379E-2,3.6732724E0,3.6732724E0,5.236782E-1,8E0,8.055745E-1,-2.6782837E-2,-5.835497E2,1.6833252E3,-2.5949725E4,-3.2380032E3,1.4653851E3,-2.608157E3,1.3712671E4,-3.130875E3],"split_indices":[2,3,3,3,1,3,2,0,0,0,0,0,0,0,0],"split_type":[0,0,0,0,0,0,0,0,0,0,0,0,0,0,0],"sum_hessian":[1.152E3,7.91E2,3.61E2,7.88E2,3E0,3.54E2,7E0,6.59E2,1.29E2,1E0,2E0,2.66E2,8.8E1,6E0,1E0],"tree_param":{"num_deleted":"0","num_feature":"10","num_nodes":"15","size_leaf_vector":"1"}},{"base_weights":[1.472436E2,-1.4714664E3,1.2572475E4,1.5584574E3,-2.7099975E4,-3.599196E4,3.866392E4,-2.8452768E2,2.8870144E3,-5.478842E3,2.979881E3,-6.119057E3,6.3361963E3,1.0447636E4,-5.5266266E2],"categories":[],"categories_nodes":[],"categories_segments":[],"categories_sizes":[],"default_left":[0,0,0,0,0,0,0,0,0,0,0,0,0,0,0],"id":86,"left_children":[1,3,5,7,9,11,13,-1,-1,-1,-1,-1,-1,-1,-1],"loss_changes":[2.3208612E10,7.9325364E10,1.6991807E11,1.1001203E11,1.7178001E11,1.2154544E11,2.5359842E11,0E0,0E0,0E0,0E0,0E0,0E0,0E0,0E0],"parents":[2147483647,0,0,1,1,2,2,3,3,4,4,5,5,6,6],"right_children":[2,4,6,8,10,12,14,-1,-1,-1,-1,-1,-1,-1,-1],"split_conditions":[9.3722194E-1,5.3196377E-1,-6.2492996E-1,2.6698953E-1,5.676349E-1,-3.2942835E-2,-3.419429E-2,-2.8452768E2,2.8870144E3,-5.478842E3,2.979881E3,-6.119057E3,6.3361963E3,1.0447636E4,-5.5266266E2],"split_indices":[9,9,3,9,3,2,2,0,0,0,0,0,0,0,0],"split_type":[0,0,0,0,0,0,0,0,0,0,0,0,0,0,0],"sum_hessian":[1.152E3,1.02E3,1.32E2,9.13E2,1.07E2,4.6E1,8.6E1,7.87E2,1.26E2,7.2E1,3.5E1,3.7E1,9E0,3.4E1,5.2E1],"tree_param":{"num_deleted":"0","num_feature":"10","num_nodes":"15","size_leaf_vector":"1"}},{"base_weights":[1.4138167E2,-2.0464203E3,8.835399E3,2.6048835E3,-1.4423319E4,-3.3190444E3,4.4530953E4,2.8870361E1,1.7294072E4,-5.8522046E3,-8.426077E2,-5.7337656E3,4.068682E2,-3.817479E2,1.2037274E4],"categories":[],"categories_nodes":[],"categories_segments":[],"categories_sizes":[],"default_left":[0,0,0,0,0,0,0,0,0,0,0,0,0,0,0],"id":87,"left_children":[1,3,5,7,9,11,13,-1,-1,-1,-1,-1,-1,-1,-1],"loss_changes":[2.194905E10,5.311593E10,1.0080323E11,2.6467867E11,6.6153505E10,6.967229E10,2.1680256E11,0E0,0E0,0E0,0E0,0E0,0E0,0E0,0E0],"parents":[2147483647,0,0,1,1,2,2,3,3,4,4,5,5,6,6],"right_children":[2,4,6,8,10,12,14,-1,-1,-1,-1,-1,-1,-1,-1],"split_conditions":[1E0,7.885706E-2,5.3174305E-1,5.840516E-2,3.2943666E-1,6E0,1E0,2.8870361E1,1.7294072E4,-5.8522046E3,-8.426077E2,-5.7337656E3,4.068682E2,-3.817479E2,1.2037274E4],"split_indices":[5,8,8,8,8,1,4,0,0,0,0,0,0,0,0],"split_type":[0,0,0,0,0,0,0,0,0,0,0,0,0,0,0],"sum_hessian":[1.152E3,9.21E2,2.31E2,6.7E2,2.51E2,1.73E2,5.8E1,6.62E2,8E0,2.9E1,2.22E2,2E1,1.53E2,3.6E1,2.2E1],"tree_param":{"num_deleted":"0","num_feature":"10","num_nodes":"15","size_leaf_vector":"1"}},{"base_weights":[1.419472E2,-4.0762173E2,3.481797E4,1.5102115E3,-1.5522357E4,1.458033E5,-7.3066494E3,2.7763591E3,-9.084524E0,-1.9074156E3,2.1777799E4,2.4884139E4,5.7833438E3,-3.938285E3,1.2343369E4],"categories":[],"categories_nodes":[],"categories_segments":[],"categories_sizes":[],"default_left":[0,0,0,0,0,0,0,0,0,0,0,0,0,0,0],"id":88,"left_children":[1,3,5,7,9,11,13,-1,-1,-1,-1,-1,-1,-1,-1],"loss_changes":[2.1986755E10,3.2953293E10,8.52192E10,4.2413974E10,1.102193E11,3.092987E10,6.3572304E10,0E0,0E0,0E0,0E0,0E0,0E0,0E0,0E0],"parents":[2147483647,0,0,1,1,2,2,3,3,4,4,5,5,6,6],"right_children":[2,4,6,8,10,12,14,-1,-1,-1,-1,-1,-1,-1,