{"learner":{"attributes":{"scikit_learn":"{\"_estimator_type\": \"regressor\"}"},"feature_names":["year_built","garage","stories","beds","baths","type","lot_sqft","sqft","total_sqft","building_ratio","garage_1_or_more","central_air","community_outdoor_space","dishwasher","basement","fireplace","forced_air","single_story","two_or_more_stories","garage_2_or_more","hardwood_floors","laundry_room","washer_dryer","shopping","recreation_facilities","dining_room","community_security_features","view","central_heat","family_room","city_view","fenced_yard","big_lot","floor_plan","new_roof","rental_property","updated_kitchen","community_swimming_pool","farm","ensuite","corner_lot","ranch","big_yard","modern_kitchen","energy_efficient","open_floor_plan","encoded_city","encoded_state"],"feature_types":["int","int","int","int","int","int","float","float","float","float","int","int","int","int","int","int","int","int","int","int","int","int","int","int","int","int","int","int","int","int","int","int","int","int","int","int","int","int","int","int","int","int","int","int","int","int","float","float"],"gradient_booster":{"model":{"gbtree_model_param":{"num_parallel_tree":"1","num_trees":"500"},"iteration_indptr":[0,1,2,3,4,5,6,7,8,9,10,11,12,13,14,15,16,17,18,19,20,21,22,23,24,25,26,27,28,29,30,31,32,33,34,35,36,37,38,39,40,41,42,43,44,45,46,47,48,49,50,51,52,53,54,55,56,57,58,59,60,61,62,63,64,65,66,67,68,69,70,71,72,73,74,75,76,77,78,79,80,81,82,83,84,85,86,87,88,89,90,91,92,93,94,95,96,97,98,99,100,101,102,103,104,105,106,107,108,109,110,111,112,113,114,115,116,117,118,119,120,121,122,123,124,125,126,127,128,129,130,131,132,133,134,135,136,137,138,139,140,141,142,143,144,145,146,147,148,149,150,151,152,153,154,155,156,157,158,159,160,161,162,163,164,165,166,167,168,169,170,171,172,173,174,175,176,177,178,179,180,181,182,183,184,185,186,187,188,189,190,191,192,193,194,195,196,197,198,199,200,201,202,203,204,205,206,207,208,209,210,211,212,213,214,215,216,217,218,219,220,221,222,223,224,225,226,227,228,229,230,231,232,233,234,235,236,237,238,239,240,241,242,243,244,245,246,247,248,249,250,251,252,253,254,255,256,257,258,259,260,261,262,263,264,265,266,267,268,269,270,271,272,273,274,275,276,277,278,279,280,281,282,283,284,285,286,287,288,289,290,291,292,293,294,295,296,297,298,299,300,301,302,303,304,305,306,307,308,309,310,311,312,313,314,315,316,317,318,319,320,321,322,323,324,325,326,327,328,329,330,331,332,333,334,335,336,337,338,339,340,341,342,343,344,345,346,347,348,349,350,351,352,353,354,355,356,357,358,359,360,361,362,363,364,365,366,367,368,369,370,371,372,373,374,375,376,377,378,379,380,381,382,383,384,385,386,387,388,389,390,391,392,393,394,395,396,397,398,399,400,401,402,403,404,405,406,407,408,409,410,411,412,413,414,415,416,417,418,419,420,421,422,423,424,425,426,427,428,429,430,431,432,433,434,435,436,437,438,439,440,441,442,443,444,445,446,447,448,449,450,451,452,453,454,455,456,457,458,459,460,461,462,463,464,465,466,467,468,469,470,471,472,473,474,475,476,477,478,479,480,481,482,483,484,485,486,487,488,489,490,491,492,493,494,495,496,497,498,499,500],"tree_info":[0,0,0,0,0,0,0,0,0,0,0,0,0,0,0,0,0,0,0,0,0,0,0,0,0,0,0,0,0,0,0,0,0,0,0,0,0,0,0,0,0,0,0,0,0,0,0,0,0,0,0,0,0,0,0,0,0,0,0,0,0,0,0,0,0,0,0,0,0,0,0,0,0,0,0,0,0,0,0,0,0,0,0,0,0,0,0,0,0,0,0,0,0,0,0,0,0,0,0,0,0,0,0,0,0,0,0,0,0,0,0,0,0,0,0,0,0,0,0,0,0,0,0,0,0,0,0,0,0,0,0,0,0,0,0,0,0,0,0,0,0,0,0,0,0,0,0,0,0,0,0,0,0,0,0,0,0,0,0,0,0,0,0,0,0,0,0,0,0,0,0,0,0,0,0,0,0,0,0,0,0,0,0,0,0,0,0,0,0,0,0,0,0,0,0,0,0,0,0,0,0,0,0,0,0,0,0,0,0,0,0,0,0,0,0,0,0,0,0,0,0,0,0,0,0,0,0,0,0,0,0,0,0,0,0,0,0,0,0,0,0,0,0,0,0,0,0,0,0,0,0,0,0,0,0,0,0,0,0,0,0,0,0,0,0,0,0,0,0,0,0,0,0,0,0,0,0,0,0,0,0,0,0,0,0,0,0,0,0,0,0,0,0,0,0,0,0,0,0,0,0,0,0,0,0,0,0,0,0,0,0,0,0,0,0,0,0,0,0,0,0,0,0,0,0,0,0,0,0,0,0,0,0,0,0,0,0,0,0,0,0,0,0,0,0,0,0,0,0,0,0,0,0,0,0,0,0,0,0,0,0,0,0,0,0,0,0,0,0,0,0,0,0,0,0,0,0,0,0,0,0,0,0,0,0,0,0,0,0,0,0,0,0,0,0,0,0,0,0,0,0,0,0,0,0,0,0,0,0,0,0,0,0,0,0,0,0,0,0,0,0,0,0,0,0,0,0,0,0,0,0,0,0,0,0,0,0,0,0,0,0,0,0,0,0,0,0,0,0,0,0,0,0,0,0,0,0,0,0,0,0,0,0,0,0,0,0,0,0,0,0,0,0,0,0,0,0,0,0,0,0,0,0,0,0,0,0,0,0,0,0,0,0,0,0,0,0,0,0,0],"trees":[{"base_weights":[-8.1248066E3,-6.431516E4,4.1285778E5,-1.7818814E5,5.0847664E4,4.462888E4,7.066971E5,-2.1247923E5,-6.640754E4,2.1064605E4,6.2014006E5,-1.0702724E4,3.295412E5,5.2764894E5,1.3134368E6,-2.9328344E5,-1.8463647E5,-1.3560208E5,1.3256024E4,-4.2136465E4,1.4487389E5,1.5108473E5,1.1766426E6,-1.1868609E5,3.1442541E4,4.649285E5,7.792172E4,3.947352E5,6.341402E5,1.4868051E6,2.399404E3,-2.9673403E3,-1.3794687E2,-2.2675798E3,-1.6253383E3,-1.5387189E3,6.6908496E2,6.220649E2,-5.3489905E2,-2.3211868E2,-2.6333984E3,1.1662134E3,3.141886E3,-1.7879468E3,1.9732784E3,6.2625884E3,1.7080576E4,-2.0972148E3,-4.69532E2,5.3948676E2,-7.1324475E2,1.0870531E3,5.26808E3,3.3425418E2,1.0570531E3,5.02867E3,2.2122783E3,8.78078E3,4.9049336E3,8.725505E3,1.8532588E4],"categories":[],"categories_nodes":[],"categories_segments":[],"categories_sizes":[],"default_left":[0,0,0,0,0,0,0,0,0,0,0,0,0,0,0,0,0,0,0,0,0,0,0,0,0,0,0,0,0,0,0,0,0,0,0,0,0,0,0,0,0,0,0,0,0,0,0,0,0,0,0,0,0,0,0,0,0,0,0,0,0],"id":0,"left_children":[1,3,5,7,9,11,13,15,17,19,21,23,25,27,29,31,33,35,37,39,41,43,45,47,49,51,53,55,57,59,-1,-1,-1,-1,-1,-1,-1,-1,-1,-1,-1,-1,-1,-1,-1,-1,-1,-1,-1,-1,-1,-1,-1,-1,-1,-1,-1,-1,-1,-1,-1],"loss_changes":[2.169468E13,1.0618233E13,1.1654075E13,1.5459544E12,6.8199105E12,7.75995E11,5.825104E12,6.455401E11,5.36489E11,3.0108583E12,5.042838E12,1.9487326E11,2.363006E11,4.290815E11,2.0626916E12,7.112963E10,1.8099732E11,2.0268653E11,1.5362066E11,1.0613643E12,5.852234E11,2.1833695E11,1.562653E12,6.851571E10,7.554741E10,5.2947714E10,1.4118257E9,3.390319E11,4.4533023E11,8.5899136E11,0E0,0E0,0E0,0E0,0E0,0E0,0E0,0E0,0E0,0E0,0E0,0E0,0E0,0E0,0E0,0E0,0E0,0E0,0E0,0E0,0E0,0E0,0E0,0E0,0E0,0E0,0E0,0E0,0E0,0E0,0E0],"parents":[2147483647,0,0,1,1,2,2,3,3,4,4,5,5,6,6,7,7,8,8,9,9,10,10,11,11,12,12,13,13,14,14,15,15,16,16,17,17,18,18,19,19,20,20,21,21,22,22,23,23,24,24,25,25,26,26,27,27,28,28,29,29],"right_children":[2,4,6,8,10,12,14,16,18,20,22,24,26,28,30,32,34,36,38,40,42,44,46,48,50,52,54,56,58,60,-1,-1,-1,-1,-1,-1,-1,-1,-1,-1,-1,-1,-1,-1,-1,-1,-1,-1,-1,-1,-1,-1,-1,-1,-1,-1,-1,-1,-1,-1,-1],"split_conditions":[1.0231923E0,-5.5923034E-2,-1.4395411E-1,2.237148E-1,3.7799532E0,2.008E3,2.591691E0,-7.6868534E-1,1.985E3,-3.040484E-2,-3.092702E-1,3E0,1E0,4E0,1E0,2.3405999E-1,2E0,-1.4395411E-1,1E0,2.540143E0,-3.0737964E-2,1E0,1.926E3,-6.3563067E-1,1E0,2.015E3,3E0,1.3325139E0,1.975E3,3.649095E0,2.399404E3,-2.9673403E3,-1.3794687E2,-2.2675798E3,-1.6253383E3,-1.5387189E3,6.6908496E2,6.220649E2,-5.3489905E2,-2.3211868E2,-2.6333984E3,1.1662134E3,3.141886E3,-1.7879468E3,1.9732784E3,6.2625884E3,1.7080576E4,-2.0972148E3,-4.69532E2,5.3948676E2,-7.1324475E2,1.0870531E3,5.26808E3,3.3425418E2,1.0570531E3,5.02867E3,2.2122783E3,8.78078E3,4.9049336E3,8.725505E3,1.8532588E4],"split_indices":[7,46,46,7,46,0,7,47,0,7,7,4,11,4,45,6,4,46,14,46,6,3,0,46,35,0,1,7,0,7,0,0,0,0,0,0,0,0,0,0,0,0,0,0,0,0,0,0,0,0,0,0,0,0,0,0,0,0,0,0,0],"split_type":[0,0,0,0,0,0,0,0,0,0,0,0,0,0,0,0,0,0,0,0,0,0,0,0,0,0,0,0,0,0,0,0,0,0,0,0,0,0,0,0,0,0,0,0,0,0,0,0,0,0,0,0,0,0,0,0,0,0,0,0,0],"sum_hessian":[9.15E2,8.08E2,1.07E2,4.06E2,4.02E2,4.8E1,5.9E1,3.1E2,9.6E1,3.83E2,1.9E1,4.1E1,7E0,4.7E1,1.2E1,7.7E1,2.33E2,5.1E1,4.5E1,2.54E2,1.29E2,1.1E1,8E0,1.1E1,3E1,4E0,3E0,2.3E1,2.4E1,1E1,2E0,7.6E1,1E0,7.7E1,1.56E2,4.7E1,4E0,2.6E1,1.9E1,2.35E2,1.9E1,1.12E2,1.7E1,1E0,1E1,5E0,3E0,4E0,7E0,2.5E1,5E0,1E0,3E0,2E0,1E0,1.3E1,1E1,7E0,1.7E1,5E0,5E0],"tree_param":{"num_deleted":"0","num_feature":"48","num_nodes":"61","size_leaf_vector":"1"}},{"base_weights":[5.2940735E2,-7.941162E4,3.2029066E5,-1.9137531E5,3.6124312E4,1.1534729E5,6.220689E5,-2.2306545E5,-1.1696164E5,2.77564E3,5.58966E5,2.3946043E4,2.4596764E5,5.0205056E5,1.0686721E6,-2.8496453E5,-1.9557569E5,-1.3563975E5,-2.145859E4,-6.7352856E3,4.6433834E5,1.5619303E5,1.0266742E6,-6.344634E4,1.27480625E5,1.6863625E5,3.9454344E5,3.13449E5,5.8640625E5,1.4716364E6,6.3651406E5,-3.191313E3,-2.1852107E3,-2.201127E3,-1.3902802E3,-1.8618353E3,-1.1620594E3,-4.7091605E2,1.3949237E3,-5.451099E2,1.0527578E3,2.6166E1,1.0790951E4,-1.7790072E3,1.9885923E3,3.9103152E3,1.2432309E4,-9.767653E2,1.7516218E3,2.4199155E3,9.031834E2,7.9940717E2,2.5233547E3,1.6913943E3,5.7062954E3,1.9137463E3,4.285933E3,-1.3990083E3,6.0806143E3,3.4375283E3,1.6023248E4,6.885769E3,1.100056E3],"categories":[],"categories_nodes":[],"categories_segments":[],"categories_sizes":[],"default_left":[0,0,0,0,0,0,0,0,0,0,0,0,0,0,0,0,0,0,0,0,0,0,0,0,0,0,0,0,0,0,0,0,0,0,0,0,0,0,0,0,0,0,0,0,0,0,0,0,0,0,0,0,0,0,0,0,0,0,0,0,0,0,0],"id":1,"left_children":[1,3,5,7,9,11,13,15,17,19,21,23,25,27,29,31,33,35,37,39,41,43,45,47,49,51,53,55,57,59,61,-1,-1,-1,-1,-1,-1,-1,-1,-1,-1,-1,-1,-1,-1,-1,-1,-1,-1,-1,-1,-1,-1,-1,-1,-1,-1,-1,-1,-1,-1,-1,-1],"loss_changes":[2.3772573E13,9.631171E12,1.1431871E13,8.6530064E11,6.397488E12,1.3312629E12,3.4835163E12,3.9348863E11,2.0222824E11,1.5220289E12,3.9840058E12,6.1431316E11,4.6198607E11,7.866784E11,1.6754462E12,1.0960555E11,2.2747493E11,7.266107E10,8.908209E10,1.8252174E12,1.9841027E12,2.2068586E11,8.903836E11,3.19311E11,1.1006388E11,2.1738802E11,4.9884168E11,2.1315754E11,7.299295E11,4.8100593E11,1.7095642E11,0E0,0E0,0E0,0E0,0E0,0E0,0E0,0E0,0E0,0E0,0E0,0E0,0E0,0E0,0E0,0E0,0E0,0E0,0E0,0E0,0E0,0E0,0E0,0E0,0E0,0E0,0E0,0E0,0E0,0E0,0E0,0E0],"parents":[2147483647,0,0,1,1,2,2,3,3,4,4,5,5,6,6,7,7,8,8,9,9,10,10,11,11,12,12,13,13,14,14,15,15,16,16,17,17,18,18,19,19,20,20,21,21,22,22,23,23,24,24,25,25,26,26,27,27,28,28,29,29,30,30],"right_children":[2,4,6,8,10,12,14,16,18,20,22,24,26,28,30,32,34,36,38,40,42,44,46,48,50,52,54,56,58,60,62,-1,-1,-1,-1,-1,-1,-1,-1,-1,-1,-1,-1,-1,-1,-1,-1,-1,-1,-1,-1,-1,-1,-1,-1,-1,-1,-1,-1,-1,-1,-1,-1],"split_conditions":[7.0625657E-1,-5.5923034E-2,2.6300332E-1,1E0,3.7799532E0,4E0,5E0,-7.6868534E-1,4.292947E-1,4.8336345E-3,-3.092702E-1,-5.017637E-1,-1.4395411E-1,1.0051088E0,1E0,1E0,-6.5619916E-2,1E0,-2.7836332E-2,-3.040484E-2,1E0,1E0,1E0,-1.9395363E-2,-3.340675E-2,1E0,1.2630355E0,-3.2103714E-2,2E0,-3.317281E-2,3.649095E0,-3.191313E3,-2.1852107E3,-2.201127E3,-1.3902802E3,-1.8618353E3,-1.1620594E3,-4.7091605E2,1.3949237E3,-5.451099E2,1.0527578E3,2.6166E1,1.0790951E4,-1.7790072E3,1.9885923E3,3.9103152E3,1.2432309E4,-9.767653E2,1.7516218E3,2.4199155E3,9.031834E2,7.9940717E2,2.5233547E3,1.6913943E3,5.7062954E3,1.9137463E3,4.285933E3,-1.3990083E3,6.0806143E3,3.4375283E3,1.6023248E4,6.885769E3,1.100056E3],"split_indices":[7,46,47,19,46,4,4,47,7,6,7,46,46,7,29,13,7,11,6,7,38,4,11,6,6,20,7,6,5,6,7,0,0,0,0,0,0,0,0,0,0,0,0,0,0,0,0,0,0,0,0,0,0,0,0,0,0,0,0,0,0,0,0],"split_type":[0,0,0,0,0,0,0,0,0,0,0,0,0,0,0,0,0,0,0,0,0,0,0,0,0,0,0,0,0,0,0,0,0,0,0,0,0,0,0,0,0,0,0,0,0,0,0,0,0,0,0,0,0,0,0,0,0,0,0,0,0,0,0],"sum_hessian":[9.28E2,7.43E2,1.85E2,3.77E2,3.66E2,1.11E2,7.4E1,2.63E2,1.14E2,3.45E2,2.1E1,6.6E1,4.5E1,6E1,1.4E1,7.8E1,1.85E2,9.5E1,1.9E1,3.39E2,6E0,1.2E1,9E0,3.6E1,3E1,3.1E1,1.4E1,2E1,4E1,6E0,8E0,4.9E1,2.9E1,1.27E2,5.8E1,2.4E1,7.1E1,1.7E1,2E0,2.38E2,1.01E2,4E0,2E0,1E0,1.1E1,3E0,6E0,3.2E1,4E0,6E0,2.4E1,1.6E1,1.5E1,7E0,7E0,1.1E1,9E0,1E0,3.9E1,1E0,5E0,7E0,1E0],"tree_param":{"num_deleted":"0","num_feature":"48","num_nodes":"63","size_leaf_vector":"1"}},{"base_weights":[-2.1477502E3,-6.0956324E4,4.0601216E5,-7.858586E4,6.4110275E5,8.862566E4,6.8613525E5,-1.8051562E5,-1.2881475E3,3.5900803E5,1.4155852E6,-4.4899184E4,1.5305581E5,5.4596356E5,1.1724775E6,-2.1754175E5,-7.904205E4,-4.7399734E4,1.3268506E5,1.7110675E5,5.7615156E5,1.685923E4,1.6711714E3,-8.27811E4,3.1867125E4,1.0847528E5,3.0667344E5,6.077275E5,2.717343E5,5.4331794E5,1.4977875E6,-3.0534167E3,-1.967791E3,-1.6794397E3,-3.613424E2,-5.699111E2,7.6533E3,7.3152985E2,1.9516313E3,-1.7701122E3,2.2945444E3,6.4197056E3,9.061886E2,-1.173943E3,-4.647357E2,4.9290903E2,-3.6337766E2,6.8846716E2,2.6211985E3,5.401675E2,4.4746406E3,6.469619E3,2.0369417E3,-1.3920133E3,3.26748E3,6.081992E3,1.0945558E3,3.3130225E3,1.6170993E4],"categories":[],"categories_nodes":[],"categories_segments":[],"categories_sizes":[],"default_left":[0,0,0,0,0,0,0,0,0,0,0,0,0,0,0,0,0,0,0,0,0,0,0,0,0,0,0,0,0,0,0,0,0,0,0,0,0,0,0,0,0,0,0,0,0,0,0,0,0,0,0,0,0,0,0,0,0,0,0],"id":2,"left_children":[1,3,5,7,9,11,13,15,17,19,21,23,25,27,29,31,33,35,37,39,41,-1,-1,43,45,47,49,51,53,55,57,-1,-1,-1,-1,-1,-1,-1,-1,-1,-1,-1,-1,-1,-1,-1,-1,-1,-1,-1,-1,-1,-1,-1,-1,-1,-1,-1,-1],"loss_changes":[2.2299812E13,1.0100488E13,1.0341344E13,6.2477655E12,3.8613428E12,4.886416E11,3.586497E12,1.2677577E12,2.7986176E12,5.5424136E11,1.4057944E12,5.7891045E10,2.2697109E11,6.817338E11,1.8469597E12,3.9565394E11,3.4868802E11,2.670598E12,4.1717924E11,2.437348E11,1.6552611E11,0E0,0E0,1.0881622E10,1.0109829E10,1.7070401E11,2.6040304E11,5.022983E11,2.9416174E11,1.0232673E11,5.776542E11,0E0,0E0,0E0,0E0,0E0,0E0,0E0,0E0,0E0,0E0,0E0,0E0,0E0,0E0,0E0,0E0,0E0,0E0,0E0,0E0,0E0,0E0,0E0,0E0,0E0,0E0,0E0,0E0],"parents":[2147483647,0,0,1,1,2,2,3,3,4,4,5,5,6,6,7,7,8,8,9,9,10,10,11,11,12,12,13,13,14,14,15,15,16,16,17,17,18,18,19,19,20,20,23,23,24,24,25,25,26,26,27,27,28,28,29,29,30,30],"right_children":[2,4,6,8,10,12,14,16,18,20,22,24,26,28,30,32,34,36,38,40,42,-1,-1,44,46,48,50,52,54,56,58,-1,-1,-1,-1,-1,-1,-1,-1,-1,-1,-1,-1,-1,-1,-1,-1,-1,-1,-1,-1,-1,-1,-1,-1,-1,-1,-1,-1],"split_conditions":[1.0231923E0,3.7987096E0,-1.10220194E-1,-4.0893552E-1,3E0,1E0,2.6250026E0,1.9611378E-1,1.5518814E-1,-3.5685813E-1,4E0,4E0,5E0,1E0,-2.9371945E-2,-9.576029E-1,1E0,4.8336345E-3,2.6300332E-1,1E0,1E0,1.685923E4,1.6711714E3,5E0,1.1003786E0,-2.3671197E-2,1E0,1E0,3E0,1E0,1E0,-3.0534167E3,-1.967791E3,-1.6794397E3,-3.613424E2,-5.699111E2,7.6533E3,7.3152985E2,1.9516313E3,-1.7701122E3,2.2945444E3,6.4197056E3,9.061886E2,-1.173943E3,-4.647357E2,4.9290903E2,-3.6337766E2,6.8846716E2,2.6211985E3,5.401675E2,4.4746406E3,6.469619E3,2.0369417E3,-1.3920133E3,3.26748E3,6.081992E3,1.0945558E3,3.3130225E3,1.6170993E4],"split_indices":[7,47,47,47,4,15,7,7,7,7,3,4,4,17,6,47,10,6,47,3,37,0,0,3,9,6,19,42,3,28,3,0,0,0,0,0,0,0,0,0,0,0,0,0,0,0,0,0,0,0,0,0,0,0,0,0,0,0,0],"split_type":[0,0,0,0,0,0,0,0,0,0,0,0,0,0,0,0,0,0,0,0,0,0,0,0,0,0,0,0,0,0,0,0,0,0,0,0,0,0,0,0,0,0,0,0,0,0,0,0,0,0,0,0,0,0,0,0,0,0,0],"sum_hessian":[9.27E2,8.11E2,1.16E2,7.92E2,1.9E1,5.5E1,6.1E1,3.41E2,4.51E2,1.5E1,4E0,1.8E1,3.7E1,4.9E1,1.2E1,2.49E2,9.2E1,3.36E2,1.15E2,9E0,6E0,3E0,1E0,1.2E1,6E0,3E1,7E0,3.9E1,1E1,5E0,7E0,4.5E1,2.04E2,2.9E1,6.3E1,3.33E2,3E0,6E1,5.5E1,1E0,8E0,5E0,1E0,5E0,7E0,5E0,1E0,2.5E1,5E0,3E0,4E0,3.5E1,4E0,1E0,9E0,4E0,1E0,1E0,6E0],"tree_param":{"num_deleted":"0","num_feature":"48","num_nodes":"59","size_leaf_vector":"1"}},{"base_weights":[1.2153032E3,-5.608353E4,4.112651E5,-7.6866375E4,6.7013994E5,7.3640375E4,6.8877056E5,-1.7304834E5,2.493834E4,2.8774212E5,1.351168E6,-4.8180133E4,1.7611873E5,5.340856E5,1.242629E6,-2.1172223E5,-5.3434348E4,-3.0993271E4,1.396655E5,-8.869937E4,3.4785512E5,1.9305089E3,1.7050318E4,-1.0017684E5,7.4834984E4,5.4192336E4,3.0288328E5,-1.3850532E3,5.5030756E5,1.4057686E6,2.3024084E3,-2.6360698E3,-1.7774432E3,-1.2044475E3,4.5162534E2,-3.7219196E2,8.000992E3,6.31628E2,2.0019353E3,-1.7612615E3,4.307711E2,5.112601E3,2.0026788E3,-1.8781097E3,-6.1723444E2,-1.1991328E1,1.2069528E3,-5.522125E2,1.089459E3,3.810004E3,8.607235E2,5.8835654E3,2.3252705E3,3.4076123E3,1.4781933E4],"categories":[],"categories_nodes":[],"categories_segments":[],"categories_sizes":[],"default_left":[0,0,0,0,0,0,0,0,0,0,0,0,0,0,0,0,0,0,0,0,0,0,0,0,0,0,0,0,0,0,0,0,0,0,0,0,0,0,0,0,0,0,0,0,0,0,0,0,0,0,0,0,0,0,0],"id":3,"left_children":[1,3,5,7,9,11,13,15,17,19,21,23,25,27,29,31,33,35,37,39,41,-1,-1,43,45,47,49,-1,51,53,-1,-1,-1,-1,-1,-1,-1,-1,-1,-1,-1,-1,-1,-1,-1,-1,-1,-1,-1,-1,-1,-1,-1,-1,-1],"loss_changes":[2.2038232E13,1.2473039E13,1.072394E13,7.84753E12,5.600955E12,6.701356E11,4.733765E12,1.8945724E12,2.50691E12,3.9291925E11,2.9493685E12,1.6740627E11,4.318083E11,6.3266777E11,1.8234212E12,5.014196E11,6.7935535E11,1.3906246E12,5.800665E11,4.214939E10,2.3524187E11,0E0,0E0,4.9064608E10,2.804031E10,1.0186868E11,2.0431962E11,0E0,4.6775193E11,3.4475082E11,0E0,0E0,0E0,0E0,0E0,0E0,0E0,0E0,0E0,0E0,0E0,0E0,0E0,0E0,0E0,0E0,0E0,0E0,0E0,0E0,0E0,0E0,0E0,0E0,0E0],"parents":[2147483647,0,0,1,1,2,2,3,3,4,4,5,5,6,6,7,7,8,8,9,9,10,10,11,11,12,12,13,13,14,14,15,15,16,16,17,17,18,18,19,19,20,20,23,23,24,24,25,25,26,26,28,28,29,29],"right_children":[2,4,6,8,10,12,14,16,18,20,22,24,26,28,30,32,34,36,38,40,42,-1,-1,44,46,48,50,-1,52,54,-1,-1,-1,-1,-1,-1,-1,-1,-1,-1,-1,-1,-1,-1,-1,-1,-1,-1,-1,-1,-1,-1,-1,-1,-1],"split_conditions":[1.0231923E0,3.7799532E0,-1.4395411E-1,-5.5923034E-2,3E0,1E0,2.6250026E0,2.237148E-1,1.4327831E-2,1.901E3,1.926E3,4E0,1.988E3,2E0,1E0,2E0,-5.017637E-1,6.144808E-1,3.2536584E-1,1E0,1E0,1.9305089E3,1.7050318E4,8E0,-3.364396E-2,-6.3563067E-1,1E0,-1.3850532E3,1E0,-3.3839732E-2,2.3024084E3,-2.6360698E3,-1.7774432E3,-1.2044475E3,4.5162534E2,-3.7219196E2,8.000992E3,6.31628E2,2.0019353E3,-1.7612615E3,4.307711E2,5.112601E3,2.0026788E3,-1.8781097E3,-6.1723444E2,-1.1991328E1,1.2069528E3,-5.522125E2,1.089459E3,3.810004E3,8.607235E2,5.8835654E3,2.3252705E3,3.4076123E3,1.4781933E4],"split_indices":[7,46,46,46,4,15,7,7,7,0,0,4,0,5,45,4,46,6,46,2,20,0,0,5,6,46,33,0,32,6,0,0,0,0,0,0,0,0,0,0,0,0,0,0,0,0,0,0,0,0,0,0,0,0,0],"split_type":[0,0,0,0,0,0,0,0,0,0,0,0,0,0,0,0,0,0,0,0,0,0,0,0,0,0,0,0,0,0,0,0,0,0,0,0,0,0,0,0,0,0,0,0,0,0,0,0,0,0,0,0,0,0,0],"sum_hessian":[9.36E2,8.22E2,1.14E2,8E2,2.2E1,5.2E1,6.2E1,4.11E2,3.89E2,1.5E1,7E0,2.4E1,2.8E1,5E1,1.2E1,3.1E2,1.01E2,2.62E2,1.27E2,2E0,1.3E1,2E0,5E0,1.7E1,7E0,1.5E1,1.3E1,1E0,4.9E1,1E1,2E0,1.2E2,1.9E2,6E1,4.1E1,2.61E2,1E0,5.7E1,7E1,1E0,1E0,5E0,8E0,4E0,1.3E1,3E0,4E0,5E0,1E1,9E0,4E0,4.3E1,6E0,1E0,9E0],"tree_param":{"num_deleted":"0","num_feature":"48","num_nodes":"55","size_leaf_vector":"1"}},{"base_weights":[-1.0568489E2,-1.2433673E5,1.7394745E5,-1.6599761E5,3.5605535E4,8.943979E4,6.571855E5,-1.9302888E5,-4.63366E4,-2.2751422E4,1.8882053E5,4.3765105E4,6.661622E5,5.386425E5,1.4269725E6,-3.0373794E5,-1.7430297E5,7.1773234E4,-8.6902766E4,-1.0654496E5,5.2037203E4,1.5037392E5,6.7110938E3,-3.017064E4,1.7890873E5,1.4346427E5,1.1769048E6,5.616911E5,1.2739791E3,1.5863672E6,2.3530178E3,-3.068589E3,-7.696578E2,-1.9612736E3,-1.0499973E3,2.5229697E3,-8.464431E2,-1.2357737E3,-3.4190692E2,-1.6387703E3,-4.3885648E2,-3.4295584E2,9.346902E2,1.9674873E3,2.0305058E2,5.634323E3,-4.8468292E2,3.5374077E3,1.4465815E3,-1.7524553E3,1.846272E3,1.44791045E4,2.7291587E3,3.4599297E3,6.239796E3,3.3905742E3,1.7680178E4],"categories":[],"categories_nodes":[],"categories_segments":[],"categories_sizes":[],"default_left":[0,0,0,0,0,0,0,0,0,0,0,0,0,0,0,0,0,0,0,0,0,0,0,0,0,0,0,0,0,0,0,0,0,0,0,0,0,0,0,0,0,0,0,0,0,0,0,0,0,0,0,0,0,0,0,0,0],"id":4,"left_children":[1,3,5,7,9,11,13,15,17,19,21,23,25,27,29,31,33,35,37,39,41,43,-1,45,47,49,51,53,-1,55,-1,-1,-1,-1,-1,-1,-1,-1,-1,-1,-1,-1,-1,-1,-1,-1,-1,-1,-1,-1,-1,-1,-1,-1,-1,-1,-1],"loss_changes":[1.993623E13,3.5907856E12,1.5622754E13,1.3722253E12,1.0057059E12,8.6108946E12,4.432788E12,6.68506E11,3.8953838E11,5.194222E11,4.7389632E11,3.052941E12,6.2382953E12,4.1185234E11,9.5634745E11,1.1061953E10,4.331573E11,6.143342E11,1.1176647E11,1.32911235E11,1.6059027E11,1.7696247E11,0E0,2.1778937E12,5.9554346E11,2.0290254E11,2.5446738E12,4.290123E11,0E0,7.599869E11,0E0,0E0,0E0,0E0,0E0,0E0,0E0,0E0,0E0,0E0,0E0,0E0,0E0,0E0,0E0,0E0,0E0,0E0,0E0,0E0,0E0,0E0,0E0,0E0,0E0,0E0,0E0],"parents":[2147483647,0,0,1,1,2,2,3,3,4,4,5,5,6,6,7,7,8,8,9,9,10,10,11,11,12,12,13,13,14,14,15,15,16,16,17,17,18,18,19,19,20,20,21,21,23,23,24,24,25,25,26,26,27,27,29,29],"right_children":[2,4,6,8,10,12,14,16,18,20,22,24,26,28,30,32,34,36,38,40,42,44,-1,46,48,50,52,54,-1,56,-1,-1,-1,-1,-1,-1,-1,-1,-1,-1,-1,-1,-1,-1,-1,-1,-1,-1,-1,-1,-1,-1,-1,-1,-1,-1,-1],"split_conditions":[1.1046839E-2,5.634927E-1,1.0051088E0,-5.5923034E-2,4E0,3.7799532E0,3.2683916E0,-9.654585E-1,1E0,1E0,3.8841796E0,1.4327831E-2,-3.092702E-1,1E0,1E0,3E0,7.1433365E-2,-4.393318E-2,-1.2082194E-1,-5.492181E-1,-5.86685E-1,1E0,6.7110938E3,-2.9966736E-1,-5.005683E-1,1E0,4E0,8.544184E-2,1.2739791E3,5E0,2.3530178E3,-3.068589E3,-7.696578E2,-1.9612736E3,-1.0499973E3,2.5229697E3,-8.464431E2,-1.2357737E3,-3.4190692E2,-1.6387703E3,-4.3885648E2,-3.4295584E2,9.346902E2,1.9674873E3,2.0305058E2,5.634323E3,-4.8468292E2,3.5374077E3,1.4465815E3,-1.7524553E3,1.846272E3,1.44791045E4,2.7291587E3,3.4599297E3,6.239796E3,3.3905742E3,1.7680178E4],"split_indices":[46,7,7,46,4,46,7,46,3,15,7,7,7,42,34,4,7,46,7,46,46,24,0,47,9,3,3,47,0,4,0,0,0,0,0,0,0,0,0,0,0,0,0,0,0,0,0,0,0,0,0,0,0,0,0,0,0],"split_type":[0,0,0,0,0,0,0,0,0,0,0,0,0,0,0,0,0,0,0,0,0,0,0,0,0,0,0,0,0,0,0,0,0,0,0,0,0,0,0,0,0,0,0,0,0,0,0,0,0,0,0,0,0,0,0,0,0],"sum_hessian":[9.2E2,5.37E2,3.83E2,4.26E2,1.11E2,3.27E2,5.6E1,3.47E2,7.9E1,8.1E1,3E1,3.04E2,2.3E1,5E1,6E0,4.8E1,2.99E2,2E1,5.9E1,3.8E1,4.3E1,2.9E1,1E0,1.97E2,1.07E2,1.2E1,1.1E1,4.7E1,3E0,5E0,1E0,4.7E1,1E0,2.26E2,7.3E1,9E0,1.1E1,3.4E1,2.5E1,1.9E1,1.9E1,1.4E1,2.9E1,2.1E1,8E0,5E0,1.92E2,1.6E1,9.1E1,1E0,1.1E1,8E0,3E0,1.2E1,3.5E1,1E0,4E0],"tree_param":{"num_deleted":"0","num_feature":"48","num_nodes":"57","size_leaf_vector":"1"}},{"base_weights":[7.355171E3,-1.19852516E5,1.9148736E5,-1.7378002E5,1.6333655E3,9.3378836E4,6.5980425E5,-2.0476756E5,-6.4383902E4,-9.157882E4,7.8962266E4,5.388305E4,6.205321E5,5.1661297E5,1.2038448E6,-2.8158988E5,-1.7766772E5,-1.5854083E5,-3.1524887E4,-1.4737372E5,-1.882012E4,5.1379027E4,4.749533E5,-2.7275658E4,1.9136302E5,2.985746E5,1.4293231E6,6.571926E5,3.6260353E5,1.287679E6,9.8917E2,-3.1736814E3,-2.2805881E3,-2.137435E3,-1.4065815E3,-1.8978376E3,2.9498343E2,1.0868259E3,-7.576078E2,-2.032383E3,-7.0174286E2,-3.9140698E2,6.8053723E2,-6.616518E2,8.865246E2,7.904541E1,7.0650156E3,6.965057E3,-4.6902057E2,1.5104651E3,2.8923254E3,1.0563369E3,5.591139E3,1.6395173E3,1.649607E4,7.288047E3,1.9633859E3,2.4535413E3,5.215022E3,7.2088975E3,1.4809625E4],"categories":[],"categories_nodes":[],"categories_segments":[],"categories_sizes":[],"default_left":[0,0,0,0,0,0,0,0,0,0,0,0,0,0,0,0,0,0,0,0,0,0,0,0,0,0,0,0,0,0,0,0,0,0,0,0,0,0,0,0,0,0,0,0,0,0,0,0,0,0,0,0,0,0,0,0,0,0,0,0,0],"id":5,"left_children":[1,3,5,7,9,11,13,15,17,19,21,23,25,27,29,31,33,35,37,39,41,43,45,47,49,51,53,55,57,59,-1,-1,-1,-1,-1,-1,-1,-1,-1,-1,-1,-1,-1,-1,-1,-1,-1,-1,-1,-1,-1,-1,-1,-1,-1,-1,-1,-1,-1,-1,-1],"loss_changes":[2.190006E13,3.6232249E12,1.7489716E13,1.2851547E12,1.2397985E12,6.5666086E12,4.5196016E12,5.703687E11,2.6107776E11,3.1387242E11,1.0023328E12,3.3078976E12,5.30196E12,9.3083245E11,1.07682464E12,7.318012E10,2.6767314E11,1.3484602E11,4.1137707E11,1.7549728E11,6.4450114E10,3.957993E11,6.4328145E11,2.6890443E12,3.903458E11,7.9550664E11,1.4019912E12,7.479797E11,3.9370883E11,2.4700047E11,0E0,0E0,0E0,0E0,0E0,0E0,0E0,0E0,0E0,0E0,0E0,0E0,0E0,0E0,0E0,0E0,0E0,0E0,0E0,0E0,0E0,0E0,0E0,0E0,0E0,0E0,0E0,0E0,0E0,0E0,0E0],"parents":[2147483647,0,0,1,1,2,2,3,3,4,4,5,5,6,6,7,7,8,8,9,9,10,10,11,11,12,12,13,13,14,14,15,15,16,16,17,17,18,18,19,19,20,20,21,21,22,22,23,23,24,24,25,25,26,26,27,27,28,28,29,29],"right_children":[2,4,6,8,10,12,14,16,18,20,22,24,26,28,30,32,34,36,38,40,42,44,46,48,50,52,54,56,58,60,-1,-1,-1,-1,-1,-1,-1,-1,-1,-1,-1,-1,-1,-1,-1,-1,-1,-1,-1,-1,-1,-1,-1,-1,-1,-1,-1,-1,-1,-1,-1],"split_conditions":[1.1518229E-2,2.237148E-1,1.0051088E0,-5.5923034E-2,1E0,3.7799532E0,2.6250026E0,-7.6868534E-1,-5.483417E-1,-5.492181E-1,5E0,1.4327831E-2,3E0,1.978E3,2.018E3,1E0,-2.930903E-1,1E0,1E0,1E0,4E0,-6.094297E-1,1E0,-2.9966736E-1,7.0625657E-1,-3.854109E-1,1.896E3,1E0,2.006E3,5E0,9.8917E2,-3.1736814E3,-2.2805881E3,-2.137435E3,-1.4065815E3,-1.8978376E3,2.9498343E2,1.0868259E3,-7.576078E2,-2.032383E3,-7.0174286E2,-3.9140698E2,6.8053723E2,-6.616518E2,8.865246E2,7.904541E1,7.0650156E3,6.965057E3,-4.6902057E2,1.5104651E3,2.8923254E3,1.0563369E3,5.591139E3,1.6395173E3,1.649607E4,7.288047E3,1.9633859E3,2.4535413E3,5.215022E3,7.2088975E3,1.4809625E4],"split_indices":[46,8,8,46,15,46,8,47,9,46,4,8,4,0,0,11,8,36,4,18,4,46,1,47,8,8,0,42,0,4,0,0,0,0,0,0,0,0,0,0,0,0,0,0,0,0,0,0,0,0,0,0,0,0,0,0,0,0,0,0,0],"split_type":[0,0,0,0,0,0,0,0,0,0,0,0,0,0,0,0,0,0,0,0,0,0,0,0,0,0,0,0,0,0,0,0,0,0,0,0,0,0,0,0,0,0,0,0,0,0,0,0,0,0,0,0,0,0,0,0,0,0,0,0,0],"sum_hessian":[9.33E2,5.52E2,3.81E2,3.82E2,1.7E2,3.16E2,6.5E1,2.97E2,8.5E1,7.7E1,9.3E1,2.95E2,2.1E1,5.3E1,1.2E1,7.5E1,2.22E2,2.1E1,6.4E1,4.3E1,3.4E1,8.8E1,5E0,1.86E2,1.09E2,1.6E1,5E0,2.6E1,2.7E1,1.1E1,1E0,4.2E1,3.3E1,1.1E2,1.12E2,1.8E1,3E0,1.5E1,4.9E1,2.4E1,1.9E1,2.8E1,6E0,2.1E1,6.7E1,2E0,3E0,4E0,1.82E2,7.9E1,3E1,1E1,6E0,1E0,4E0,2.2E1,4E0,1.7E1,1E1,4E0,7E0],"tree_param":{"num_deleted":"0","num_feature":"48","num_nodes":"61","size_leaf_vector":"1"}},{"base_weights":[-4.7208647E3,-6.4687605E4,4.656528E5,-1.6801505E5,4.1681074E4,3.4473222E5,1.4346564E6,-2.1005381E5,-8.111505E4,-3.43116E4,1.3741078E5,9.815813E4,6.000839E5,1.532778E6,2.2672046E3,-2.8206056E5,-1.9017162E5,-1.3751748E5,-7.0862363E3,-4.363847E4,6.57987E5,1.1521146E5,6.537358E5,-1.1094092E5,1.561037E5,6.3132044E5,1.2207919E5,3.337577E3,1.6289182E6,-2.8683801E3,-7.260656E1,-2.3016921E3,-1.6465709E3,-1.8954896E3,-6.0050793E2,-3.0044907E2,1.67756E3,-5.7995996E2,2.3312175E3,1.9718145E3,7.89799E3,7.4588336E2,2.6860894E3,8.804858E3,2.6355188E3,-2.0344873E3,-2.9015213E2,6.492383E1,2.0930444E3,5.329815E3,8.927068E3,1.5597938E3,1.0189281E2,1.9720438E4,9.600091E3],"categories":[],"categories_nodes":[],"categories_segments":[],"categories_sizes":[],"default_left":[0,0,0,0,0,0,0,0,0,0,0,0,0,0,0,0,0,0,0,0,0,0,0,0,0,0,0,0,0,0,0,0,0,0,0,0,0,0,0,0,0,0,0,0,0,0,0,0,0,0,0,0,0,0,0],"id":6,"left_children":[1,3,5,7,9,11,13,15,17,19,21,23,25,27,-1,29,31,33,35,37,39,41,43,45,47,49,51,-1,53,-1,-1,-1,-1,-1,-1,-1,-1,-1,-1,-1,-1,-1,-1,-1,-1,-1,-1,-1,-1,-1,-1,-1,-1,-1,-1],"loss_changes":[2.5444426E13,8.799647E12,1.1457018E13,1.4661473E12,2.878244E12,5.7337027E12,9.562594E11,3.3720107E11,5.585298E11,1.4557057E12,1.9305438E12,5.9890375E11,5.948341E11,6.0907795E11,0E0,7.274968E10,1.8355375E11,2.949512E11,2.418748E11,8.837372E11,2.6485457E10,1.0330859E12,3.872656E11,7.746335E10,3.0109945E11,6.03791E11,1.3583045E10,0E0,1.7249704E11,0E0,0E0,0E0,0E0,0E0,0E0,0E0,0E0,0E0,0E0,0E0,0E0,0E0,0E0,0E0,0E0,0E0,0E0,0E0,0E0,0E0,0E0,0E0,0E0,0E0,0E0],"parents":[2147483647,0,0,1,1,2,2,3,3,4,4,5,5,6,6,7,7,8,8,9,9,10,10,11,11,12,12,13,13,15,15,16,16,17,17,18,18,19,19,20,20,21,21,22,22,23,23,24,24,25,25,26,26,28,28],"right_children":[2,4,6,8,10,12,14,16,18,20,22,24,26,28,-1,30,32,34,36,38,40,42,44,46,48,50,52,-1,54,-1,-1,-1,-1,-1,-1,-1,-1,-1,-1,-1,-1,-1,-1,-1,-1,-1,-1,-1,-1,-1,-1,-1,-1,-1,-1],"split_conditions":[1.154535E0,-5.5923034E-2,3.2683916E0,7.1433365E-2,-1.8744506E-1,1.3803383E-2,1E0,-8.908927E-1,-5.492181E-1,6.144808E-1,3.7799532E0,3E0,1E0,-3.3839732E-2,2.2672046E3,2.3405999E-1,2E0,1.979E3,2.016E3,3.7799532E0,1E0,7.0625657E-1,-3.441831E-2,-6.3563067E-1,-6.094297E-1,5E0,1.976E3,3.337577E3,1E0,-2.8683801E3,-7.260656E1,-2.3016921E3,-1.6465709E3,-1.8954896E3,-6.0050793E2,-3.0044907E2,1.67756E3,-5.7995996E2,2.3312175E3,1.9718145E3,7.89799E3,7.4588336E2,2.6860894E3,8.804858E3,2.6355188E3,-2.0344873E3,-2.9015213E2,6.492383E1,2.0930444E3,5.329815E3,8.927068E3,1.5597938E3,1.0189281E2,1.9720438E4,9.600091E3],"split_indices":[7,46,7,7,7,46,34,46,46,6,46,4,36,6,0,6,4,0,0,46,32,7,6,46,46,4,0,0,16,0,0,0,0,0,0,0,0,0,0,0,0,0,0,0,0,0,0,0,0,0,0,0,0,0,0],"split_type":[0,0,0,0,0,0,0,0,0,0,0,0,0,0,0,0,0,0,0,0,0,0,0,0,0,0,0,0,0,0,0,0,0,0,0,0,0,0,0,0,0,0,0,0,0,0,0,0,0,0,0,0,0,0,0],"sum_hessian":[9E2,7.99E2,1.01E2,4.05E2,3.94E2,9.1E1,1E1,2.72E2,1.33E2,2.2E2,1.74E2,4.7E1,4.4E1,9E0,1E0,5.6E1,2.16E2,7.5E1,5.8E1,2.18E2,2E0,1.68E2,6E0,1E1,3.7E1,4.1E1,3E0,1E0,8E0,5.5E1,1E0,8.1E1,1.35E2,4.4E1,3.1E1,5.2E1,6E0,2.08E2,1E1,1E0,1E0,1.34E2,3.4E1,3E0,3E0,4E0,6E0,1E1,2.7E1,3.2E1,9E0,2E0,1E0,4E0,4E0],"tree_param":{"num_deleted":"0","num_feature":"48","num_nodes":"55","size_leaf_vector":"1"}},{"base_weights":[-3.8896335E3,-1.1961356E5,1.6556262E5,-1.6516753E5,2.6582164E4,3.0590514E4,4.2480675E5,-2.7142916E5,-1.3545462E5,-2.9156277E4,1.9468102E5,1.7088179E1,3.8065538E5,3.5048966E5,1.01023344E6,-2.742845E5,-7.224359E1,-1.5850584E5,-2.8698117E4,-9.7837336E4,7.206371E4,1.5955097E5,6.594213E3,-1.4586211E4,5.4763794E5,1.474126E5,9.0031975E5,2.8129128E5,8.34557E5,7.173796E5,1.563023E4,-3.0782725E3,-2.286207E3,-1.8938673E3,-1.0434725E3,6.663312E2,-7.802956E2,-1.1802373E3,2.1427817E3,-6.783877E2,9.337902E2,2.0440679E3,-5.673828E0,1.1765145E2,-2.5827214E3,6.8919165E3,-8.006542E2,-1.7606307E3,1.8309393E3,1.0189474E4,1.5359084E3,1.6016604E3,3.840885E3,9.662819E3,2.6367412E3,3.4981902E3,8.774401E3],"categories":[],"categories_nodes":[],"categories_segments":[],"categories_sizes":[],"default_left":[0,0,0,0,0,0,0,0,0,0,0,0,0,0,0,0,0,0,0,0,0,0,0,0,0,0,0,0,0,0,0,0,0,0,0,0,0,0,0,0,0,0,0,0,0,0,0,0,0,0,0,0,0,0,0,0,0],"id":7,"left_children":[1,3,5,7,9,11,13,15,17,19,21,23,25,27,29,31,-1,33,35,37,39,41,-1,43,45,47,49,51,53,55,-1,-1,-1,-1,-1,-1,-1,-1,-1,-1,-1,-1,-1,-1,-1,-1,-1,-1,-1,-1,-1,-1,-1,-1,-1,-1,-1],"loss_changes":[1.8217586E13,3.6805988E12,1.3178506E13,1.2924748E12,1.2424591E12,2.6649611E12,5.258353E12,6.6668986E10,8.0999875E11,7.0224006E11,4.3355826E11,1.8473144E12,2.2914413E12,3.6508596E12,1.145132E12,6.7475866E10,0E0,4.3514908E11,2.87369E11,4.0331923E11,1.2859941E11,2.2994767E11,0E0,1.4478657E12,5.8830304E11,2.0536672E11,3.749949E11,1.2209703E12,7.980093E11,3.4020576E11,0E0,0E0,0E0,0E0,0E0,0E0,0E0,0E0,0E0,0E0,0E0,0E0,0E0,0E0,0E0,0E0,0E0,0E0,0E0,0E0,0E0,0E0,0E0,0E0,0E0,0E0,0E0],"parents":[2147483647,0,0,1,1,2,2,3,3,4,4,5,5,6,6,7,7,8,8,9,9,10,10,11,11,12,12,13,13,14,14,15,15,17,17,18,18,19,19,20,20,21,21,23,23,24,24,25,25,26,26,27,27,28,28,29,29],"right_children":[2,4,6,8,10,12,14,16,18,20,22,24,26,28,30,32,-1,34,36,38,40,42,-1,44,46,48,50,52,54,56,-1,-1,-1,-1,-1,-1,-1,-1,-1,-1,-1,-1,-1,-1,-1,-1,-1,-1,-1,-1,-1,-1,-1,-1,-1,-1,-1],"split_conditions":[1.1518229E-2,4.1216305E-1,3.0175903E-1,-7.6868534E-1,4E0,3.7799532E0,3.7799532E0,6.144808E-1,-7.2975144E-2,-5.017637E-1,3.2683916E0,4.8336345E-3,-3.092702E-1,2.5498135E0,1.921E3,1E0,-7.224359E1,-1.5889229E-1,1E0,-1.9395363E-2,2E0,1E0,6.594213E3,2.540143E0,1E0,1E0,-3.441831E-2,8.166606E-1,1E0,1.3577385E0,1.563023E4,-3.0782725E3,-2.286207E3,-1.8938673E3,-1.0434725E3,6.663312E2,-7.802956E2,-1.1802373E3,2.1427817E3,-6.783877E2,9.337902E2,2.0440679E3,-5.673828E0,1.1765145E2,-2.5827214E3,6.8919165E3,-8.006542E2,-1.7606307E3,1.8309393E3,1.0189474E4,1.5359084E3,1.6016604E3,3.840885E3,9.662819E3,2.6367412E3,3.4981902E3,8.774401E3],"split_indices":[46,8,8,47,4,46,46,6,47,46,8,6,8,8,0,11,0,8,3,6,1,24,0,46,27,3,6,8,45,9,0,0,0,0,0,0,0,0,0,0,0,0,0,0,0,0,0,0,0,0,0,0,0,0,0,0,0],"split_type":[0,0,0,0,0,0,0,0,0,0,0,0,0,0,0,0,0,0,0,0,0,0,0,0,0,0,0,0,0,0,0,0,0,0,0,0,0,0,0,0,0,0,0,0,0,0,0,0,0,0,0,0,0,0,0,0,0],"sum_hessian":[9.27E2,5.51E2,3.76E2,4.2E2,1.31E2,2.48E2,1.28E2,9E1,3.3E2,9.9E1,3.2E1,2.29E2,1.9E1,1.15E2,1.3E1,8.9E1,1E0,2.71E2,5.9E1,5.9E1,4E1,3.1E1,1E0,2.24E2,5E0,1.4E1,5E0,1.02E2,1.3E1,1E1,3E0,4.8E1,4.1E1,1.71E2,1E2,2E1,3.9E1,5.6E1,3E0,5E0,3.5E1,2.4E1,7E0,2.03E2,2.1E1,4E0,1E0,1E0,1.3E1,4E0,1E0,4.8E1,5.4E1,1E1,3E0,4E0,6E0],"tree_param":{"num_deleted":"0","num_feature":"48","num_nodes":"57","size_leaf_vector":"1"}},{"base_weights":[2.747079E3,-6.977128E4,3.1781106E5,-8.807031E4,5.4475406E5,7.123702E4,5.635663E5,-1.7555584E5,4.54869E3,1.4600433E5,1.1045032E6,-1.5598072E4,2.1643484E5,4.5002438E5,1.1234616E6,-2.0179266E5,-7.530133E4,2.1228912E4,-2.5116875E5,-1.7518276E3,1.8418662E5,1.558621E4,4.294849E5,-8.426928E4,1.02866766E5,8.773439E4,3.3240384E5,3.112597E5,5.18704E5,1.2579431E6,2.1104832E3,-2.362182E3,-1.5265107E3,-9.563825E2,7.6620935E2,1.2947923E2,4.759054E3,-3.001803E3,-1.0326102E3,2.6451846E3,1.1909263E3,5.5864717E3,1.5716096E3,-9.730936E2,4.4378726E2,-9.217274E2,1.2824844E3,-8.78364E1,1.286822E3,1.78744E3,4.4912993E3,2.4011584E3,5.2024365E3,-1.4674479E3,5.359847E3,8.713287E3,1.6249377E4],"categories":[],"categories_nodes":[],"categories_segments":[],"categories_sizes":[],"default_left":[0,0,0,0,0,0,0,0,0,0,0,0,0,0,0,0,0,0,0,0,0,0,0,0,0,0,0,0,0,0,0,0,0,0,0,0,0,0,0,0,0,0,0,0,0,0,0,0,0,0,0,0,0,0,0,0,0],"id":8,"left_children":[1,3,5,7,9,11,13,15,17,19,21,23,25,27,29,31,33,35,37,-1,39,-1,41,43,45,47,49,51,53,55,-1,-1,-1,-1,-1,-1,-1,-1,-1,-1,-1,-1,-1,-1,-1,-1,-1,-1,-1,-1,-1,-1,-1,-1,-1,-1,-1],"loss_changes":[2.1247893E13,8.549361E12,1.0503705E13,5.956373E12,4.749134E12,1.1129035E12,5.025143E12,9.790795E11,1.5323537E12,2.039576E11,2.0894366E12,4.642354E11,4.6337045E11,5.437915E11,1.4523533E12,4.6976834E11,2.5449837E11,1.2627006E12,1.2848516E11,0E0,3.6476387E10,0E0,8.8072454E10,6.4711393E10,1.1578004E11,6.8317725E10,2.246346E11,2.76515E11,6.3062514E11,2.8677086E11,0E0,0E0,0E0,0E0,0E0,0E0,0E0,0E0,0E0,0E0,0E0,0E0,0E0,0E0,0E0,0E0,0E0,0E0,0E0,0E0,0E0,0E0,0E0,0E0,0E0,0E0,0E0],"parents":[2147483647,0,0,1,1,2,2,3,3,4,4,5,5,6,6,7,7,8,8,9,9,10,10,11,11,12,12,13,13,14,14,15,15,16,16,17,17,18,18,20,20,22,22,23,23,24,24,25,25,26,26,27,27,28,28,29,29],"right_children":[2,4,6,8,10,12,14,16,18,20,22,24,26,28,30,32,34,36,38,-1,40,-1,42,44,46,48,50,52,54,56,-1,-1,-1,-1,-1,-1,-1,-1,-1,-1,-1,-1,-1,-1,-1,-1,-1,-1,-1,-1,-1,-1,-1,-1,-1,-1,-1],"split_conditions":[7.0625657E-1,3.7799532E0,1.3803383E-2,-5.5923034E-2,-3.092702E-1,4E0,2.6250026E0,1.8374091E-1,2.540143E0,1E0,1E0,-5.017637E-1,1E0,1.0051088E0,1E0,1E0,2.008E3,3.9870825E-2,-3.270874E-2,-1.7518276E3,1E0,1.558621E4,1.921E3,2.5498135E0,1E0,-3.317281E-2,1.5390456E0,1E0,3E0,3.649095E0,2.1104832E3,-2.362182E3,-1.5265107E3,-9.563825E2,7.6620935E2,1.2947923E2,4.759054E3,-3.001803E3,-1.0326102E3,2.6451846E3,1.1909263E3,5.5864717E3,1.5716096E3,-9.730936E2,4.4378726E2,-9.217274E2,1.2824844E3,-8.78364E1,1.286822E3,1.78744E3,4.4912993E3,2.4011584E3,5.2024365E3,-1.4674479E3,5.359847E3,8.713287E3,1.6249377E4],"split_indices":[8,46,46,46,8,4,8,8,46,3,12,46,20,8,45,1,0,6,6,0,21,0,0,8,1,6,8,24,3,8,0,0,0,0,0,0,0,0,0,0,0,0,0,0,0,0,0,0,0,0,0,0,0,0,0,0,0],"split_type":[0,0,0,0,0,0,0,0,0,0,0,0,0,0,0,0,0,0,0,0,0,0,0,0,0,0,0,0,0,0,0,0,0,0,0,0,0,0,0,0,0,0,0,0,0,0,0,0,0,0,0,0,0,0,0,0,0],"sum_hessian":[9.28E2,7.55E2,1.73E2,7.34E2,2.1E1,8.7E1,8.6E1,3.77E2,3.57E2,1.3E1,8E0,5.5E1,3.2E1,7.3E1,1.3E1,2.98E2,7.9E1,3.36E2,2.1E1,1E0,1.2E1,4E0,4E0,3.5E1,2E1,1.6E1,1.6E1,2.6E1,4.7E1,1.1E1,2E0,1.73E2,1.25E2,7E1,9E0,3.31E2,5E0,1.5E1,6E0,4E0,8E0,2E0,2E0,3.2E1,3E0,2E0,1.8E1,5E0,1.1E1,8E0,8E0,2.1E1,5E0,1E0,4.6E1,7E0,4E0],"tree_param":{"num_deleted":"0","num_feature":"48","num_nodes":"57","size_leaf_vector":"1"}},{"base_weights":[-2.2882706E2,-6.986439E4,2.9334966E5,-8.739241E4,6.400066E5,9.70887E4,5.962893E5,-1.764592E5,4.913027E3,1.337181E5,1.2561525E6,7.323277E4,4.90434E5,4.9122675E5,9.136073E5,-2.144932E5,-1.1554155E5,-4.2082803E3,5.392109E5,-1.7430686E3,1.8195128E5,4.5725853E5,1.6440373E4,3.878593E4,2.8944588E5,1.9675765E3,7.1852446E3,-1.4601107E3,5.0600503E5,1.0618429E6,2.0343999E3,-2.6927112E3,-1.9261001E3,-1.5579241E3,-3.4324728E2,-4.9654025E2,1.192571E3,2.4578992E2,1.0456498E4,2.0373522E3,-7.0520935E1,5.5492285E3,8.2132745E2,-1.6938337E1,1.6398218E3,1.2309226E3,4.907353E3,5.3943535E3,1.5422814E3,1.2629551E4,6.167194E3],"categories":[],"categories_nodes":[],"categories_segments":[],"categories_sizes":[],"default_left":[0,0,0,0,0,0,0,0,0,0,0,0,0,0,0,0,0,0,0,0,0,0,0,0,0,0,0,0,0,0,0,0,0,0,0,0,0,0,0,0,0,0,0,0,0,0,0,0,0,0,0],"id":9,"left_children":[1,3,5,7,9,11,13,15,17,19,21,23,25,27,29,31,33,35,37,-1,39,41,-1,43,45,-1,-1,-1,47,49,-1,-1,-1,-1,-1,-1,-1,-1,-1,-1,-1,-1,-1,-1,-1,-1,-1,-1,-1,-1,-1],"loss_changes":[1.8767187E13,9.288365E12,1.0406226E13,5.9613454E12,5.4470865E12,9.775149E11,1.8515524E12,8.3016915E11,1.7421069E12,1.951426E11,1.7272794E12,7.5590304E11,2.6053352E11,5.8241476E11,1.4683315E12,2.1904438E11,4.653954E11,1.9809852E12,1.5380766E12,0E0,4.260918E10,1.009683E11,0E0,4.5639008E11,4.0838745E11,0E0,0E0,0E0,5.400848E11,3.848683E11,0E0,0E0,0E0,0E0,0E0,0E0,0E0,0E0,0E0,0E0,0E0,0E0,0E0,0E0,0E0,0E0,0E0,0E0,0E0,0E0,0E0],"parents":[2147483647,0,0,1,1,2,2,3,3,4,4,5,5,6,6,7,7,8,8,9,9,10,10,11,11,12,12,13,13,14,14,15,15,16,16,17,17,18,18,20,20,21,21,23,23,24,24,28,28,29,29],"right_children":[2,4,6,8,10,12,14,16,18,20,22,24,26,28,30,32,34,36,38,-1,40,42,-1,44,46,-1,-1,-1,48,50,-1,-1,-1,-1,-1,-1,-1,-1,-1,-1,-1,-1,-1,-1,-1,-1,-1,-1,-1,-1,-1],"split_conditions":[7.0625657E-1,3.7799532E0,2.6300332E-1,-5.5923034E-2,-3.092702E-1,4E0,5E0,-1.1511138E-1,3.9870825E-2,1.901E3,1.926E3,2.014E3,5E0,2E0,1E0,-7.6868534E-1,1.987E3,-3.3260114E-2,1E0,-1.7430686E3,1E0,1.921E3,1.6440373E4,-2.9966736E-1,1.3325139E0,1.9675765E3,7.1852446E3,-1.4601107E3,1E0,1.996E3,2.0343999E3,-2.6927112E3,-1.9261001E3,-1.5579241E3,-3.4324728E2,-4.9654025E2,1.192571E3,2.4578992E2,1.0456498E4,2.0373522E3,-7.0520935E1,5.5492285E3,8.2132745E2,-1.6938337E1,1.6398218E3,1.2309226E3,4.907353E3,5.3943535E3,1.5422814E3,1.2629551E4,6.167194E3],"split_indices":[7,46,47,46,7,1,4,7,6,0,0,0,4,5,31,47,0,7,38,0,35,0,0,47,7,0,0,0,42,0,0,0,0,0,0,0,0,0,0,0,0,0,0,0,0,0,0,0,0,0,0],"split_type":[0,0,0,0,0,0,0,0,0,0,0,0,0,0,0,0,0,0,0,0,0,0,0,0,0,0,0,0,0,0,0,0,0,0,0,0,0,0,0,0,0,0,0,0,0,0,0,0,0,0,0],"sum_hessian":[9.16E2,7.41E2,1.75E2,7.24E2,1.7E1,1.07E2,6.8E1,3.68E2,3.56E2,1E1,7E0,1.02E2,5E0,5.3E1,1.5E1,2.25E2,1.43E2,3.51E2,5E0,1E0,9E0,3E0,4E0,8.9E1,1.3E1,3E0,2E0,1E0,5.2E1,1.2E1,3E0,6.1E1,1.64E2,9.5E1,4.8E1,2.57E2,9.4E1,3E0,2E0,8E0,1E0,2E0,1E0,6.8E1,2.1E1,8E0,5E0,4.7E1,5E0,7E0,5E0],"tree_param":{"num_deleted":"0","num_feature":"48","num_nodes":"51","size_leaf_vector":"1"}},{"base_weights":[3.541089E3,-1.2077979E5,1.8310633E5,-1.6477053E5,-4.6134556E3,9.980368E4,7.152663E5,-2.185671E5,-1.1202252E5,-3.101268E4,2.200683E5,5.477238E4,5.8032575E5,4.9594344E5,1.0304196E6,-2.4125058E5,-1.327731E5,-1.3759278E5,-4.117851E4,-6.2447996E4,6.5129977E4,9.581655E4,5.6886944E5,7.711141E4,-2.4675325E5,2.8495638E5,1.0109006E6,7.7606016E3,3.7023534E5,1.367599E6,4.6635597E5,-3.22794E3,-2.2040251E3,-1.4207057E3,1.2886068E3,-1.4255609E3,2.9600674E3,-1.9824037E3,-2.4972868E2,-9.0953076E2,3.5170926E2,-7.5409845E2,1.3562335E3,-1.7682202E2,1.6896353E3,1.2056982E3,6.781127E3,-2.1116193E2,1.1363049E3,-3.0909485E3,-1.0681129E3,-1.7343533E3,3.2212266E3,4.4663823E3,1.5986878E4,1.9609393E3,5.0250156E3,1.583988E4,5.3882417E3,6.0602144E3,1.4026881E3],"categories":[],"categories_nodes":[],"categories_segments":[],"categories_sizes":[],"default_left":[0,0,0,0,0,0,0,0,0,0,0,0,0,0,0,0,0,0,0,0,0,0,0,0,0,0,0,0,0,0,0,0,0,0,0,0,0,0,0,0,0,0,0,0,0,0,0,0,0,0,0,0,0,0,0,0,0,0,0,0,0],"id":10,"left_children":[1,3,5,7,9,11,13,15,17,19,21,23,25,27,29,31,33,35,37,39,41,43,45,47,49,51,53,-1,55,57,59,-1,-1,-1,-1,-1,-1,-1,-1,-1,-1,-1,-1,-1,-1,-1,-1,-1,-1,-1,-1,-1,-1,-1,-1,-1,-1,-1,-1,-1,-1],"loss_changes":[2.0626897E13,2.789433E12,1.6685478E13,1.09922956E12,9.0247E11,7.0656543E12,3.0141086E12,3.4745824E11,3.6025716E11,4.1509664E11,6.389194E11,2.0464997E12,3.2729402E12,8.394889E11,3.1660263E12,1.8895969E11,1.2290641E11,3.60707E11,1.35040246E11,2.8981032E11,3.4706964E11,1.1091484E11,1.14134745E11,1.0103976E12,1.5019357E11,3.6252864E11,2.9342931E12,0E0,4.5425518E11,1.2985607E12,3.2488214E11,0E0,0E0,0E0,0E0,0E0,0E0,0E0,0E0,0E0,0E0,0E0,0E0,0E0,0E0,0E0,0E0,0E0,0E0,0E0,0E0,0E0,0E0,0E0,0E0,0E0,0E0,0E0,0E0,0E0,0E0],"parents":[2147483647,0,0,1,1,2,2,3,3,4,4,5,5,6,6,7,7,8,8,9,9,10,10,11,11,12,12,13,13,14,14,15,15,16,16,17,17,18,18,19,19,20,20,21,21,22,22,23,23,24,24,25,25,26,26,28,28,29,29,30,30],"right_children":[2,4,6,8,10,12,14,16,18,20,22,24,26,28,30,32,34,36,38,40,42,44,46,48,50,52,54,-1,56,58,60,-1,-1,-1,-1,-1,-1,-1,-1,-1,-1,-1,-1,-1,-1,-1,-1,-1,-1,-1,-1,-1,-1,-1,-1,-1,-1,-1,-1,-1,-1],"split_conditions":[1.1362089E-2,3E0,4E0,-5.86685E-1,-2.9015852E-2,3.7799532E0,5E0,1E0,-7.2975144E-2,4E0,5E0,2.540143E0,3E0,1.939E3,1E0,-1.1312069E0,-2.2127131E-2,6.144808E-1,2E0,2.008E3,-3.364396E-2,1.982E3,3E0,7E0,-3.2923326E-2,1E0,1.926E3,7.7606016E3,2E3,1E0,6E0,-3.22794E3,-2.2040251E3,-1.4207057E3,1.2886068E3,-1.4255609E3,2.9600674E3,-1.9824037E3,-2.4972868E2,-9.0953076E2,3.5170926E2,-7.5409845E2,1.3562335E3,-1.7682202E2,1.6896353E3,1.2056982E3,6.781127E3,-2.1116193E2,1.1363049E3,-3.0909485E3,-1.0681129E3,-1.7343533E3,3.2212266E3,4.4663823E3,1.5986878E4,1.9609393E3,5.0250156E3,1.583988E4,5.3882417E3,6.0602144E3,1.4026881E3],"split_indices":[46,4,4,46,6,46,4,15,47,4,4,46,4,0,29,46,6,6,5,0,6,0,1,5,6,3,0,0,0,11,3,0,0,0,0,0,0,0,0,0,0,0,0,0,0,0,0,0,0,0,0,0,0,0,0,0,0,0,0,0,0],"split_type":[0,0,0,0,0,0,0,0,0,0,0,0,0,0,0,0,0,0,0,0,0,0,0,0,0,0,0,0,0,0,0,0,0,0,0,0,0,0,0,0,0,0,0,0,0,0,0,0,0,0,0,0,0,0,0,0,0,0,0,0,0],"sum_hessian":[9.22E2,5.45E2,3.77E2,3.95E2,1.5E2,3.27E2,5E1,1.94E2,2.01E2,1.35E2,1.5E1,3E2,2.7E1,3.1E1,1.9E1,1.52E2,4.2E1,1.47E2,5.4E1,1.02E2,3.3E1,1.2E1,3E0,2.8E2,2E1,1.7E1,1E1,8E0,2.3E1,1.1E1,8E0,2.8E1,1.24E2,4.1E1,1E0,1.46E2,1E0,4E0,5E1,7.9E1,2.3E1,1.1E1,2.2E1,5E0,7E0,1E0,2E0,7.6E1,2.04E2,1.3E1,7E0,1E0,1.6E1,6E0,4E0,1.1E1,1.2E1,8E0,3E0,5E0,3E0],"tree_param":{"num_deleted":"0","num_feature":"48","num_nodes":"61","size_leaf_vector":"1"}},{"base_weights":[-6.631588E3,-5.9047953E4,3.6213166E5,-7.814812E4,6.3992394E5,7.547534E4,6.426501E5,-1.659019E5,1.6620853E3,2.620856E5,1.4121368E6,4.598799E4,3.282823E5,5.177786E5,1.1404734E6,-2.0640042E5,-8.4874586E4,-5.0059637E4,1.380861E5,1.8186727E5,5.4907593E3,1.0722993E3,1.6117495E4,-2.8567973E4,1.3361562E5,1.6341381E3,4.3867954E3,6.985971E5,3.7997366E5,2.999998E3,1.1945208E6,-2.733516E3,-1.8382335E3,-1.5185768E3,-5.3130466E1,-3.5879938E2,-2.4078984E3,1.0072209E3,2.5751846E3,2.221512E3,9.1130145E2,-6.7771094E2,1.0992385E3,9.337364E1,1.6421831E3,8.213647E3,4.11775E3,2.4030095E3,5.2243525E3,3.1676763E3,1.2568524E4],"categories":[],"categories_nodes":[],"categories_segments":[],"categories_sizes":[],"default_left":[0,0,0,0,0,0,0,0,0,0,0,0,0,0,0,0,0,0,0,0,0,0,0,0,0,0,0,0,0,0,0,0,0,0,0,0,0,0,0,0,0,0,0,0,0,0,0,0,0,0,0],"id":11,"left_children":[1,3,5,7,9,11,13,15,17,19,21,23,25,27,29,31,33,35,37,39,-1,-1,-1,41,43,-1,-1,45,47,-1,49,-1,-1,-1,-1,-1,-1,-1,-1,-1,-1,-1,-1,-1,-1,-1,-1,-1,-1,-1,-1],"loss_changes":[1.817153E13,1.1037455E13,9.359747E12,5.6172007E12,6.048874E12,4.2472496E11,3.0771616E12,1.236009E12,2.977524E12,2.6849123E11,1.6505048E12,3.5660785E11,3.751982E10,9.55517E11,1.4132288E11,3.3368834E11,6.8667015E11,8.1893655E11,4.91709E11,3.0928798E10,0E0,0E0,0E0,1.7032901E11,9.3547856E10,0E0,0E0,3.660327E11,4.7139835E11,0E0,1.4898797E11,0E0,0E0,0E0,0E0,0E0,0E0,0E0,0E0,0E0,0E0,0E0,0E0,0E0,0E0,0E0,0E0,0E0,0E0,0E0,0E0],"parents":[2147483647,0,0,1,1,2,2,3,3,4,4,5,5,6,6,7,7,8,8,9,9,10,10,11,11,12,12,13,13,14,14,15,15,16,16,17,17,18,18,19,19,23,23,24,24,27,27,28,28,30,30],"right_children":[2,4,6,8,10,12,14,16,18,20,22,24,26,28,30,32,34,36,38,40,-1,-1,-1,42,44,-1,-1,46,48,-1,50,-1,-1,-1,-1,-1,-1,-1,-1,-1,-1,-1,-1,-1,-1,-1,-1,-1,-1,-1,-1],"split_conditions":[9.6608675E-1,3.7799532E0,1.2660806E-2,-1.4395411E-1,3E0,-1.9395363E-2,2.6250026E0,5.4301705E-2,1.5518814E-1,1E0,1.926E3,4E0,1E0,1.975E3,1E0,-8.908927E-1,1.978E3,2.540143E0,1E0,-3.4387775E-2,5.4907593E3,1.0722993E3,1.6117495E4,-4.4449905E-1,-8.908927E-1,1.6341381E3,4.3867954E3,6E0,2.006E3,2.999998E3,1.907E3,-2.733516E3,-1.8382335E3,-1.5185768E3,-5.3130466E1,-3.5879938E2,-2.4078984E3,1.0072209E3,2.5751846E3,2.221512E3,9.1130145E2,-6.7771094E2,1.0992385E3,9.337364E1,1.6421831E3,8.213647E3,4.11775E3,2.4030095E3,5.2243525E3,3.1676763E3,1.2568524E4],"split_indices":[7,46,46,46,4,6,7,7,7,30,0,4,27,0,3,46,0,46,27,6,0,0,0,46,46,0,0,3,0,0,0,0,0,0,0,0,0,0,0,0,0,0,0,0,0,0,0,0,0,0,0],"split_type":[0,0,0,0,0,0,0,0,0,0,0,0,0,0,0,0,0,0,0,0,0,0,0,0,0,0,0,0,0,0,0,0,0,0,0,0,0,0,0,0,0,0,0,0,0,0,0,0,0,0,0],"sum_hessian":[9.38E2,8.22E2,1.16E2,8.01E2,2.1E1,5.8E1,5.8E1,3.81E2,4.2E2,1.5E1,6E0,5.3E1,5E0,4.8E1,1E1,2.53E2,1.28E2,3.05E2,1.15E2,1.3E1,2E0,1E0,5E0,2.9E1,2.4E1,3E0,2E0,1.9E1,2.9E1,1E0,9E0,6.1E1,1.92E2,6.9E1,5.9E1,2.85E2,2E1,8.9E1,2.6E1,8E0,5E0,2.3E1,6E0,5E0,1.9E1,1.2E1,7E0,1.6E1,1.3E1,1E0,8E0],"tree_param":{"num_deleted":"0","num_feature":"48","num_nodes":"51","size_leaf_vector":"1"}},{"base_weights":[-2.672479E3,-1.1585772E5,1.6040284E5,-1.6076639E5,3.0632955E4,7.700392E4,5.814066E5,-1.8461294E5,-6.2366676E4,-9.790017E3,2.2262834E5,3.773146E4,5.9102794E5,4.8446578E5,1.6284156E6,-2.572087E5,-1.609104E5,2.7696049E4,-9.235126E4,-5.9228086E4,1.3033798E5,1.2243228E5,4.341576E5,-2.8482492E4,1.6286333E5,1.2476836E5,1.0883321E6,-1.4637693E3,4.97639E5,1.929944E4,2.1115125E3,-2.6029192E3,-2.192E1,-1.879416E3,-1.0437706E3,1.8974169E3,-7.845444E2,-1.8068468E3,-5.914252E2,-1.2761813E3,-2.8728452E2,2.41045E1,1.5070996E3,5.834725E2,2.05647E3,1.0992242E3,6.4985337E3,-3.8561154E2,6.42844E3,1.3292563E3,3.479635E3,-1.7367891E3,1.641122E3,3.4189448E3,1.4660259E4,5.3675376E3,2.206954E3],"categories":[],"categories_nodes":[],"categories_segments":[],"categories_sizes":[],"default_left":[0,0,0,0,0,0,0,0,0,0,0,0,0,0,0,0,0,0,0,0,0,0,0,0,0,0,0,0,0,0,0,0,0,0,0,0,0,0,0,0,0,0,0,0,0,0,0,0,0,0,0,0,0,0,0,0,0],"id":12,"left_children":[1,3,5,7,9,11,13,15,17,19,21,23,25,27,29,31,33,35,37,39,41,43,45,47,49,51,53,-1,55,-1,-1,-1,-1,-1,-1,-1,-1,-1,-1,-1,-1,-1,-1,-1,-1,-1,-1,-1,-1,-1,-1,-1,-1,-1,-1,-1,-1],"loss_changes":[1.7479587E13,3.682419E12,1.3578399E13,9.9278547E11,1.0266347E12,6.538471E12,5.7069567E12,5.5053386E11,2.3209971E11,7.69762E11,4.3431638E11,2.5151377E12,5.1972863E12,5.7145714E11,1.7292161E12,6.4690323E10,3.8076206E11,3.9331303E11,1.7705409E11,1.6737518E11,7.5214684E10,7.8658945E10,4.1811968E11,1.3712375E12,5.3560082E11,1.8114966E11,2.5999463E12,0E0,5.2066307E11,0E0,0E0,0E0,0E0,0E0,0E0,0E0,0E0,0E0,0E0,0E0,0E0,0E0,0E0,0E0,0E0,0E0,0E0,0E0,0E0,0E0,0E0,0E0,0E0,0E0,0E0,0E0,0E0],"parents":[2147483647,0,0,1,1,2,2,3,3,4,4,5,5,6,6,7,7,8,8,9,9,10,10,11,11,12,12,13,13,14,14,15,15,16,16,17,17,18,18,19,19,20,20,21,21,22,22,23,23,24,24,25,25,26,26,28,28],"right_children":[2,4,6,8,10,12,14,16,18,20,22,24,26,28,30,32,34,36,38,40,42,44,46,48,50,52,54,-1,56,-1,-1,-1,-1,-1,-1,-1,-1,-1,-1,-1,-1,-1,-1,-1,-1,-1,-1,-1,-1,-1,-1,-1,-1,-1,-1,-1,-1],"split_conditions":[1.1046839E-2,4.3976405E-1,9.6608675E-1,-5.5923034E-2,-2.9015852E-2,3.7799532E0,3.649095E0,-7.6868534E-1,-3.4671612E-2,-2.9966736E-1,1E0,1.4327831E-2,-3.092702E-1,2E0,3E0,6.144808E-1,-1.1511138E-1,-4.393318E-2,-4.577446E-1,-6.8614763E-1,1E0,1E0,1E0,6.144808E-1,-3.050975E-2,1E0,1E0,-1.4637693E3,1E0,1.929944E4,2.1115125E3,-2.6029192E3,-2.192E1,-1.879416E3,-1.0437706E3,1.8974169E3,-7.845444E2,-1.8068468E3,-5.914252E2,-1.2761813E3,-2.8728452E2,2.41045E1,1.5070996E3,5.834725E2,2.05647E3,1.0992242E3,6.4985337E3,-3.8561154E2,6.42844E3,1.3292563E3,3.479635E3,-1.7367891E3,1.641122E3,3.4189448E3,1.4660259E4,5.3675376E3,2.206954E3],"split_indices":[46,7,7,46,6,46,7,47,6,47,14,7,7,5,1,6,7,46,7,47,15,33,12,6,6,3,10,0,36,0,0,0,0,0,0,0,0,0,0,0,0,0,0,0,0,0,0,0,0,0,0,0,0,0,0,0,0],"split_type":[0,0,0,0,0,0,0,0,0,0,0,0,0,0,0,0,0,0,0,0,0,0,0,0,0,0,0,0,0,0,0,0,0,0,0,0,0,0,0,0,0,0,0,0,0,0,0,0,0,0,0,0,0,0,0,0,0],"sum_hessian":[9.45E2,5.58E2,3.87E2,4.27E2,1.31E2,3.24E2,6.3E1,3.43E2,8.4E1,1.09E2,2.2E1,3.02E2,2.2E1,5.9E1,4E0,8.2E1,2.61E2,2.1E1,6.3E1,8.1E1,2.8E1,1.6E1,6E0,1.98E2,1.04E2,1.2E1,1E1,1E0,5.8E1,3E0,1E0,8.1E1,1E0,1.75E2,8.6E1,8E0,1.3E1,1.6E1,4.7E1,2.4E1,5.7E1,4E0,2.4E1,1E1,6E0,3E0,3E0,1.96E2,2E0,9.1E1,1.3E1,1E0,1.1E1,4E0,6E0,5E1,8E0],"tree_param":{"num_deleted":"0","num_feature":"48","num_nodes":"57","size_leaf_vector":"1"}},{"base_weights":[-4.333099E3,-5.521338E4,3.5761825E5,-1.362224E5,6.935533E4,9.558533E4,6.2257125E5,-1.7305805E5,-5.8501934E4,3.9639188E4,4.948142E5,-6.343705E4,1.419055E5,4.7536953E5,1.1349638E6,-1.9071805E5,-3.7606152E4,-9.5749164E4,6.0470152E4,-2.6626385E4,1.6304431E5,2.2842342E5,1.30158E6,-9.933128E4,5.1131344E4,3.1682028E5,9.079595E4,4.0048894E5,7.387131E5,1.3052181E6,1.8912782E3,-2.3652837E3,-1.5651567E3,9.559142E2,-1.1300452E3,-1.141236E3,1.7775217E2,-4.3383984E2,1.2036383E3,3.697898E3,-4.30908E2,3.1268235E3,1.3094849E3,-1.7281051E3,2.6430117E3,1.0587322E3,1.5740382E4,-1.5974176E3,-2.2365584E2,-3.0690952E2,8.8635754E2,3.497229E3,1.0348344E2,1.4695256E2,1.4201482E3,2.9502278E3,5.4253555E3,5.603765E2,8.1704287E3,5.1168784E3,1.5722042E4],"categories":[],"categories_nodes":[],"categories_segments":[],"categories_sizes":[],"default_left":[0,0,0,0,0,0,0,0,0,0,0,0,0,0,0,0,0,0,0,0,0,0,0,0,0,0,0,0,0,0,0,0,0,0,0,0,0,0,0,0,0,0,0,0,0,0,0,0,0,0,0,0,0,0,0,0,0,0,0,0,0],"id":13,"left_children":[1,3,5,7,9,11,13,15,17,19,21,23,25,27,29,31,33,35,37,39,41,43,45,47,49,51,53,55,57,59,-1,-1,-1,-1,-1,-1,-1,-1,-1,-1,-1,-1,-1,-1,-1,-1,-1,-1,-1,-1,-1,-1,-1,-1,-1,-1,-1,-1,-1,-1,-1],"loss_changes":[1.7183631E13,8.264042E12,7.924527E12,1.409866E12,4.0640737E12,4.435928E11,3.7597028E12,7.965665E11,7.1924226E11,2.482127E12,4.215902E12,6.2651773E10,3.8246554E11,6.112422E11,1.6855387E12,4.2832547E11,4.125174E11,2.5859981E11,2.478099E11,1.308233E12,4.6814724E11,2.9039552E11,1.4622539E12,4.7572173E10,1.4995106E10,9.72182E10,1.421314E11,4.09222E11,4.3547886E11,1.3141373E12,0E0,0E0,0E0,0E0,0E0,0E0,0E0,0E0,0E0,0E0,0E0,0E0,0E0,0E0,0E0,0E0,0E0,0E0,0E0,0E0,0E0,0E0,0E0,0E0,0E0,0E0,0E0,0E0,0E0,0E0,0E0],"parents":[2147483647,0,0,1,1,2,2,3,3,4,4,5,5,6,6,7,7,8,8,9,9,10,10,11,11,12,12,13,13,14,14,15,15,16,16,17,17,18,18,19,19,20,20,21,21,22,22,23,23,24,24,25,25,26,26,27,27,28,28,29,29],"right_children":[2,4,6,8,10,12,14,16,18,20,22,24,26,28,30,32,34,36,38,40,42,44,46,48,50,52,54,56,58,60,-1,-1,-1,-1,-1,-1,-1,-1,-1,-1,-1,-1,-1,-1,-1,-1,-1,-1,-1,-1,-1,-1,-1,-1,-1,-1,-1,-1,-1,-1,-1],"split_conditions":[1.0231923E0,1.0493361E-2,-1.0375937E-1,1E0,3.7799532E0,1E0,2.6250026E0,-7.2975144E-2,5.634927E-1,1.4327831E-2,3E0,2.0767894E0,-6.655743E-1,1.9537861E0,1E0,2E0,-4.393318E-2,-3.396069E-2,-5.017637E-1,-2.9966736E-1,-5.005683E-1,1E0,1E0,-5.492181E-1,1E0,1E0,4E0,1E0,4E0,5E0,1.8912782E3,-2.3652837E3,-1.5651567E3,9.559142E2,-1.1300452E3,-1.141236E3,1.7775217E2,-4.3383984E2,1.2036383E3,3.697898E3,-4.30908E2,3.1268235E3,1.3094849E3,-1.7281051E3,2.6430117E3,1.0587322E3,1.5740382E4,-1.5974176E3,-2.2365584E2,-3.0690952E2,8.8635754E2,3.497229E3,1.0348344E2,1.4695256E2,1.4201482E3,2.9502278E3,5.4253555E3,5.603765E2,8.1704287E3,5.1168784E3,1.5722042E4],"split_indices":[7,46,47,19,46,12,7,47,7,7,4,7,9,9,45,4,46,47,46,47,9,3,1,46,3,30,4,24,3,4,0,0,0,0,0,0,0,0,0,0,0,0,0,0,0,0,0,0,0,0,0,0,0,0,0,0,0,0,0,0,0],"split_type":[0,0,0,0,0,0,0,0,0,0,0,0,0,0,0,0,0,0,0,0,0,0,0,0,0,0,0,0,0,0,0,0,0,0,0,0,0,0,0,0,0,0,0,0,0,0,0,0,0,0,0,0,0,0,0,0,0,0,0,0,0],"sum_hessian":[9.31E2,8.17E2,1.14E2,4.95E2,3.22E2,5.8E1,5.6E1,3.35E2,1.6E2,3.02E2,2E1,1.3E1,4.5E1,4.5E1,1.1E1,2.96E2,3.9E1,1.22E2,3.8E1,1.97E2,1.05E2,1.6E1,4E0,1E1,3E0,9E0,3.6E1,3.7E1,8E0,9E0,2E0,1.24E2,1.72E2,1.4E1,2.5E1,1.05E2,1.7E1,1.4E1,2.4E1,7E0,1.9E2,1.7E1,8.8E1,1E0,1.5E1,1E0,3E0,5E0,5E0,1E0,2E0,8E0,1E0,1.5E1,2.1E1,2.3E1,1.4E1,1E0,7E0,3E0,6E0],"tree_param":{"num_deleted":"0","num_feature":"48","num_nodes":"61","size_leaf_vector":"1"}},{"base_weights":[2.3824197E3,-5.4481543E4,3.7333316E5,-1.3738594E5,7.600406E4,5.153294E4,5.987666E5,-1.8484519E5,-8.159692E4,4.2485332E4,5.0698575E5,-1.4398238E4,1.7027284E5,4.811937E5,1.0682799E6,-2.131945E5,-1.1065086E5,-1.1646866E5,2.3219184E4,6.807169E4,-2.6639816E5,1.7773234E5,8.500138E5,-9.3365734E4,2.0923389E4,-1.222871E4,2.5544502E5,-1.4712015E3,4.941176E5,1.1993598E6,1.8786697E3,-2.5797395E3,-1.7980033E3,-1.309369E3,-2.5126762E2,-1.484645E3,-4.7627023E2,-1.5505374E2,1.6143727E3,1.5350069E2,1.621765E3,-3.0791697E3,-9.744202E2,2.160827E3,7.315523E2,3.7097097E3,1.1873876E4,-1.7003406E3,-4.3360852E2,-5.0963773E2,5.171083E2,-1.359788E3,3.1059436E2,4.4270493E3,1.2302894E3,5.320931E3,2.198013E3,8.275461E3,1.5543895E4],"categories":[],"categories_nodes":[],"categories_segments":[],"categories_sizes":[],"default_left":[0,0,0,0,0,0,0,0,0,0,0,0,0,0,0,0,0,0,0,0,0,0,0,0,0,0,0,0,0,0,0,0,0,0,0,0,0,0,0,0,0,0,0,0,0,0,0,0,0,0,0,0,0,0,0,0,0,0,0],"id":14,"left_children":[1,3,5,7,9,11,13,15,17,19,21,23,25,27,29,31,33,35,37,39,41,43,45,47,49,51,53,-1,55,57,-1,-1,-1,-1,-1,-1,-1,-1,-1,-1,-1,-1,-1,-1,-1,-1,-1,-1,-1,-1,-1,-1,-1,-1,-1,-1,-1,-1,-1],"loss_changes":[1.9996101E13,8.9027E12,9.109757E12,1.3167116E12,4.6011683E12,4.1737073E11,3.5709004E12,5.464203E11,8.543472E11,2.3732887E12,2.4466177E12,9.9577635E10,2.9846077E11,5.680304E11,1.3903426E12,2.452137E11,1.3030084E11,3.7839176E11,3.1829675E11,1.3668457E12,1.3133768E11,3.632985E10,1.3372956E12,3.479888E10,5.7965924E10,4.1721807E10,2.6788528E11,0E0,5.0808436E11,2.9772952E11,0E0,0E0,0E0,0E0,0E0,0E0,0E0,0E0,0E0,0E0,0E0,0E0,0E0,0E0,0E0,0E0,0E0,0E0,0E0,0E0,0E0,0E0,0E0,0E0,0E0,0E0,0E0,0E0,0E0],"parents":[2147483647,0,0,1,1,2,2,3,3,4,4,5,5,6,6,7,7,8,8,9,9,10,10,11,11,12,12,13,13,14,14,15,15,16,16,17,17,18,18,19,19,20,20,21,21,22,22,23,23,24,24,25,25,26,26,28,28,29,29],"right_children":[2,4,6,8,10,12,14,16,18,20,22,24,26,28,30,32,34,36,38,40,42,44,46,48,50,52,54,-1,56,58,-1,-1,-1,-1,-1,-1,-1,-1,-1,-1,-1,-1,-1,-1,-1,-1,-1,-1,-1,-1,-1,-1,-1,-1,-1,-1,-1,-1,-1],"split_conditions":[1.0231923E0,1.0493361E-2,-1.4395411E-1,-5.492181E-1,3.7799532E0,1.995E3,2.6250026E0,1E0,1.9611378E-1,2.540143E0,-3.092702E-1,1E0,1E0,3E0,1E0,-7.6868534E-1,5.320847E-1,-7.2975144E-2,2.01E3,8.095095E-2,-3.270874E-2,-3.4504745E-2,1E0,-6.45593E-1,-3.316081E-2,1E0,1E0,-1.4712015E3,1E0,3.649095E0,1.8786697E3,-2.5797395E3,-1.7980033E3,-1.309369E3,-2.5126762E2,-1.484645E3,-4.7627023E2,-1.5505374E2,1.6143727E3,1.5350069E2,1.621765E3,-3.0791697E3,-9.744202E2,2.160827E3,7.315523E2,3.7097097E3,1.1873876E4,-1.7003406E3,-4.3360852E2,-5.0963773E2,5.171083E2,-1.359788E3,3.1059436E2,4.4270493E3,1.2302894E3,5.320931E3,2.198013E3,8.275461E3,1.5543895E4],"split_indices":[7,46,46,46,46,0,7,15,7,46,7,12,15,3,45,47,7,47,0,7,6,6,11,47,6,10,11,0,36,7,0,0,0,0,0,0,0,0,0,0,0,0,0,0,0,0,0,0,0,0,0,0,0,0,0,0,0,0,0],"split_type":[0,0,0,0,0,0,0,0,0,0,0,0,0,0,0,0,0,0,0,0,0,0,0,0,0,0,0,0,0,0,0,0,0,0,0,0,0,0,0,0,0,0,0,0,0,0,0,0,0,0,0,0,0,0,0,0,0,0,0],"sum_hessian":[9.46E2,8.21E2,1.25E2,5.02E2,3.19E2,5.2E1,7.3E1,2.7E2,2.32E2,2.97E2,2.2E1,3.4E1,1.8E1,6E1,1.3E1,1.94E2,7.6E1,1.74E2,5.8E1,2.75E2,2.2E1,1.2E1,1E1,1E1,2.4E1,6E0,1.2E1,1E0,5.9E1,1.1E1,2E0,8E1,1.14E2,6.1E1,1.5E1,1.18E2,5.6E1,4.6E1,1.2E1,1.77E2,9.8E1,1.7E1,5E0,8E0,4E0,5E0,5E0,3E0,7E0,7E0,1.7E1,1E0,5E0,4E0,8E0,5.1E1,8E0,7E0,4E0],"tree_param":{"num_deleted":"0","num_feature":"48","num_nodes":"59","size_leaf_vector":"1"}},{"base_weights":[-3.07E3,-4.8447797E4,3.8174653E5,-1.3765169E5,8.077796E4,1.0686329E5,5.6163775E5,-1.712245E5,-6.2854047E4,4.62045E4,6.037651E5,-3.2059293E4,2.0081414E5,4.4326194E5,8.5206894E5,-1.9525792E5,-6.0699992E4,-9.872644E4,4.185043E4,-1.800885E4,1.7067262E5,1.1127704E5,1.04136544E6,-7.3615266E4,8.2398086E4,1.242718E5,4.0972922E5,4.821022E5,2.0821802E5,9.762192E5,2.3556325E5,-2.4090803E3,-1.6205658E3,1.0977316E3,-1.0816782E3,-1.2315903E3,-3.6897064E2,1.563323E2,1.6321248E3,8.047764E1,-2.5538315E3,1.2990547E3,2.7865422E3,-1.2307854E3,1.7703145E3,4.8144897E3,1.6169753E4,-1.02545746E2,-1.0063617E3,9.822019E2,9.554828E1,2.4528599E3,4.9550928E2,9.6627576E2,4.53024E3,5.222741E3,1.8750132E3,2.639274E3,2.7393228E2,6.144327E3,1.1255316E4,2.662768E3,7.171126E2],"categories":[],"categories_nodes":[],"categories_segments":[],"categories_sizes":[],"default_left":[0,0,0,0,0,0,0,0,0,0,0,0,0,0,0,0,0,0,0,0,0,0,0,0,0,0,0,0,0,0,0,0,0,0,0,0,0,0,0,0,0,0,0,0,0,0,0,0,0,0,0,0,0,0,0,0,0,0,0,0,0,0,0],"id":15,"left_children":[1,3,5,7,9,11,13,15,17,19,21,23,25,27,29,31,33,35,37,39,41,43,45,47,49,51,53,55,57,59,61,-1,-1,-1,-1,-1,-1,-1,-1,-1,-1,-1,-1,-1,-1,-1,-1,-1,-1,-1,-1,-1,-1,-1,-1,-1,-1,-1,-1,-1,-1,-1,-1],"loss_changes":[1.6223348E13,9.590422E12,4.7859924E12,1.2247315E12,6.119805E12,5.285138E11,1.6507313E12,8.8862936E11,5.8255586E11,2.5606787E12,4.409891E12,8.6924345E10,3.328626E11,3.0130097E11,9.946687E11,3.8230766E11,5.135774E11,1.6918066E11,1.2471937E11,1.3133116E12,4.4362996E11,1.9129781E11,2.766738E12,2.1224841E10,4.824191E9,1.5964933E11,3.755947E10,3.3995725E11,7.335926E10,1.0686038E10,1.0348626E9,0E0,0E0,0E0,0E0,0E0,0E0,0E0,0E0,0E0,0E0,0E0,0E0,0E0,0E0,0E0,0E0,0E0,0E0,0E0,0E0,0E0,0E0,0E0,0E0,0E0,0E0,0E0,0E0,0E0,0E0,0E0,0E0],"parents":[2147483647,0,0,1,1,2,2,3,3,4,4,5,5,6,6,7,7,8,8,9,9,10,10,11,11,12,12,13,13,14,14,15,15,16,16,17,17,18,18,19,19,20,20,21,21,22,22,23,23,24,24,25,25,26,26,27,27,28,28,29,29,30,30],"right_children":[2,4,6,8,10,12,14,16,18,20,22,24,26,28,30,32,34,36,38,40,42,44,46,48,50,52,54,56,58,60,62,-1,-1,-1,-1,-1,-1,-1,-1,-1,-1,-1,-1,-1,-1,-1,-1,-1,-1,-1,-1,-1,-1,-1,-1,-1,-1,-1,-1,-1,-1,-1,-1],"split_conditions":[1.154535E0,1.0493361E-2,-1.4395411E-1,1E0,3.7799532E0,1E0,2.591691E0,-5.5923034E-2,5.634927E-1,8.095095E-2,-3.092702E-1,5E0,2.015E3,1E0,1E0,2E0,-4.393318E-2,2.002E3,-1.10220194E-1,2.540143E0,7.7192795E-1,1E0,1.987E3,1.3325139E0,7E0,-5.7605755E-1,2E0,1E0,5.8098125E-1,3.2683916E0,2.008E3,-2.4090803E3,-1.6205658E3,1.0977316E3,-1.0816782E3,-1.2315903E3,-3.6897064E2,1.563323E2,1.6321248E3,8.047764E1,-2.5538315E3,1.2990547E3,2.7865422E3,-1.2307854E3,1.7703145E3,4.8144897E3,1.6169753E4,-1.02545746E2,-1.0063617E3,9.822019E2,9.554828E1,2.4528599E3,4.9550928E2,9.6627576E2,4.53024E3,5.222741E3,1.8750132E3,2.639274E3,2.7393228E2,6.144327E3,1.1255316E4,2.662768E3,7.171126E2],"split_indices":[7,46,46,19,46,15,7,46,7,7,7,4,0,36,45,4,46,0,47,46,7,13,0,7,4,9,2,42,9,7,0,0,0,0,0,0,0,0,0,0,0,0,0,0,0,0,0,0,0,0,0,0,0,0,0,0,0,0,0,0,0,0,0],"split_type":[0,0,0,0,0,0,0,0,0,0,0,0,0,0,0,0,0,0,0,0,0,0,0,0,0,0,0,0,0,0,0,0,0,0,0,0,0,0,0,0,0,0,0,0,0,0,0,0,0,0,0,0,0,0,0,0,0,0,0,0,0,0,0],"sum_hessian":[9.27E2,8.3E2,9.7E1,4.91E2,3.39E2,3.9E1,5.8E1,3.38E2,1.53E2,3.19E2,2E1,1.6E1,2.3E1,4.3E1,1.5E1,2.77E2,6.1E1,1.14E2,3.9E1,2.11E2,1.08E2,1E1,1E1,1.2E1,4E0,1.8E1,5E0,3.6E1,7E0,1.2E1,3E0,1.14E2,1.63E2,1.3E1,4.8E1,8.1E1,3.3E1,3.3E1,6E0,1.91E2,2E1,8E1,2.8E1,2E0,8E0,6E0,4E0,4E0,8E0,3E0,1E0,6E0,1.2E1,1E0,4E0,3.1E1,5E0,5E0,2E0,5E0,7E0,2E0,1E0],"tree_param":{"num_deleted":"0","num_feature":"48","num_nodes":"63","size_leaf_vector":"1"}},{"base_weights":[1.4426012E3,-5.4767547E4,3.864701E5,-1.5612748E5,4.796541E4,6.183321E4,6.3381256E5,-1.8903361E5,-5.362018E4,1.8944605E4,5.3418656E5,2.9239035E4,2.718465E5,5.173542E5,1.4425809E6,-2.2360416E5,-1.4056516E5,-1.12303125E5,2.320718E4,3.716027E4,-2.4630462E5,2.4179661E5,1.1679641E6,-4.244978E4,6.4169727E4,1.26297836E5,4.238121E3,6.451704E5,3.4367184E5,1.5895555E4,2.0687913E3,-2.7667617E3,-2.0400918E3,-1.680652E3,-1.02107086E3,-1.352278E3,1.0891528E3,-7.6715485E1,1.6698022E3,-3.0397715E1,1.3210516E3,-2.9395525E3,-8.1780804E2,1.7288911E2,3.3390073E3,1.2294562E3,1.5613823E4,-8.081371E2,1.5073182E3,-3.2080426E2,9.2402985E2,8.811625E1,1.5346648E3,2.1444526E3,7.1203867E3,-1.0143444E3,3.818121E3],"categories":[],"categories_nodes":[],"categories_segments":[],"categories_sizes":[],"default_left":[0,0,0,0,0,0,0,0,0,0,0,0,0,0,0,0,0,0,0,0,0,0,0,0,0,0,0,0,0,0,0,0,0,0,0,0,0,0,0,0,0,0,0,0,0,0,0,0,0,0,0,0,0,0,0,0,0],"id":16,"left_children":[1,3,5,7,9,11,13,15,17,19,21,23,25,27,29,31,33,35,37,39,41,43,45,47,49,51,-1,53,55,-1,-1,-1,-1,-1,-1,-1,-1,-1,-1,-1,-1,-1,-1,-1,-1,-1,-1,-1,-1,-1,-1,-1,-1,-1,-1,-1,-1],"loss_changes":[2.0386712E13,8.5669797E12,9.596389E12,1.3863349E12,5.761087E12,3.548476E11,5.6584474E12,4.9302576E11,4.6246878E11,1.8790173E12,3.979725E12,1.2041855E11,1.0130217E11,1.132438E12,1.1240882E12,1.3178503E11,1.2349997E11,3.088671E11,2.0105981E11,1.3858961E12,1.7195152E11,3.457547E11,2.68594E12,1.3076051E11,8.992289E10,1.4607409E10,0E0,8.2656834E11,5.140704E11,0E0,0E0,0E0,0E0,0E0,0E0,0E0,0E0,0E0,0E0,0E0,0E0,0E0,0E0,0E0,0E0,0E0,0E0,0E0,0E0,0E0,0E0,0E0,0E0,0E0,0E0,0E0,0E0],"parents":[2147483647,0,0,1,1,2,2,3,3,4,4,5,5,6,6,7,7,8,8,9,9,10,10,11,11,12,12,13,13,14,14,15,15,16,16,17,17,18,18,19,19,20,20,21,21,22,22,23,23,24,24,25,25,27,27,28,28],"right_children":[2,4,6,8,10,12,14,16,18,20,22,24,26,28,30,32,34,36,38,40,42,44,46,48,50,52,-1,54,56,-1,-1,-1,-1,-1,-1,-1,-1,-1,-1,-1,-1,-1,-1,-1,-1,-1,-1,-1,-1,-1,-1,-1,-1,-1,-1,-1,-1],"split_conditions":[1.0231923E0,-5.5923034E-2,-1.4395411E-1,2.237148E-1,3.7799532E0,-1.9395363E-2,3.649095E0,1E0,1.987E3,2.540143E0,1.987E3,1E0,1E0,1.98E3,1E0,-9.654585E-1,-1.5889229E-1,-1.4395411E-1,2.018E3,1.0284141E-1,-3.270874E-2,1E0,-4.577446E-1,3E0,-3.316081E-2,1.975E3,4.238121E3,1.3803383E-2,2E0,1.5895555E4,2.0687913E3,-2.7667617E3,-2.0400918E3,-1.680652E3,-1.02107086E3,-1.352278E3,1.0891528E3,-7.6715485E1,1.6698022E3,-3.0397715E1,1.3210516E3,-2.9395525E3,-8.1780804E2,1.7288911E2,3.3390073E3,1.2294562E3,1.5613823E4,-8.081371E2,1.5073182E3,-3.2080426E2,9.2402985E2,8.811625E1,1.5346648E3,2.1444526E3,7.1203867E3,-1.0143444E3,3.818121E3],"split_indices":[7,46,46,7,46,6,7,1,0,46,0,12,27,0,33,46,7,46,0,7,6,2,7,2,6,0,0,46,1,0,0,0,0,0,0,0,0,0,0,0,0,0,0,0,0,0,0,0,0,0,0,0,0,0,0,0,0],"split_type":[0,0,0,0,0,0,0,0,0,0,0,0,0,0,0,0,0,0,0,0,0,0,0,0,0,0,0,0,0,0,0,0,0,0,0,0,0,0,0,0,0,0,0,0,0,0,0,0,0,0,0,0,0,0,0,0,0],"sum_hessian":[9.4E2,8.21E2,1.19E2,4.13E2,4.08E2,5.2E1,6.7E1,3.12E2,1.01E2,3.86E2,2.2E1,4.6E1,6E0,6E1,7E0,1.8E2,1.32E2,5.7E1,4.4E1,3.62E2,2.4E1,1.6E1,6E0,1.5E1,3.1E1,4E0,2E0,3.3E1,2.7E1,6E0,1E0,4.5E1,1.35E2,7.5E1,5.7E1,5.2E1,5E0,3.7E1,7E0,2.55E2,1.07E2,1.8E1,6E0,5E0,1.1E1,2E0,4E0,1.3E1,2E0,7E0,2.4E1,1E0,3E0,5E0,2.8E1,2E0,2.5E1],"tree_param":{"num_deleted":"0","num_feature":"48","num_nodes":"57","size_leaf_vector":"1"}},{"base_weights":[-2.854458E3,-1.1174071E5,1.5990636E5,-1.472311E5,1.9705266E4,6.3311617E4,5.1893038E5,-1.6915152E5,-2.7383855E4,-3.4462086E4,1.7143516E5,2.2997936E4,6.2453756E5,4.1552297E5,1.0702788E6,-2.4271316E5,-1.4616683E5,7.86195E4,-7.760663E4,-8.4125734E4,7.290373E4,1.09047234E5,3.44968E5,4.5336043E4,-2.6966428E5,3.06705E5,1.5166942E4,-1.4848876E3,4.260009E5,1.2291019E6,1.841087E3,-2.5913557E3,-1.5261626E3,-1.881287E3,-1.1257587E3,2.5096824E3,-7.3261694E2,-1.6837144E3,-4.607192E2,-9.82751E2,9.6832043E2,1.0365827E2,1.4907607E3,-8.2719246E1,1.3178763E3,4.495796E3,2.0755437E2,3.378929E2,5.304415E3,-2.8619246E3,-8.060718E2,6.643249E3,2.0816465E3,2.4672795E3,4.7641704E3,8.077279E3,1.6592309E4],"categories":[],"categories_nodes":[],"categories_segments":[],"categories_sizes":[],"default_left":[0,0,0,0,0,0,0,0,0,0,0,0,0,0,0,0,0,0,0,0,0,0,0,0,0,0,0,0,0,0,0,0,0,0,0,0,0,0,0,0,0,0,0,0,0,0,0,0,0,0,0,0,0,0,0,0,0],"id":17,"left_children":[1,3,5,7,9,11,13,15,17,19,21,23,25,27,29,31,33,35,37,39,41,43,45,47,49,51,-1,-1,53,55,-1,-1,-1,-1,-1,-1,-1,-1,-1,-1,-1,-1,-1,-1,-1,-1,-1,-1,-1,-1,-1,-1,-1,-1,-1,-1,-1],"loss_changes":[1.6712383E13,2.638665E12,1.3076122E13,1.1644279E12,1.0003835E12,6.7505367E12,4.116355E12,6.002605E11,3.787662E11,4.8602913E11,3.088255E11,1.8427315E12,5.205951E12,4.7102453E11,1.4626419E12,9.065726E10,3.8617796E11,6.204467E11,1.29630405E11,1.6826332E11,1.366008E11,6.778726E10,2.6200002E11,1.4440405E12,3.9426064E10,4.2555094E11,0E0,0E0,4.9705648E11,4.7224612E11,0E0,0E0,0E0,0E0,0E0,0E0,0E0,0E0,0E0,0E0,0E0,0E0,0E0,0E0,0E0,0E0,0E0,0E0,0E0,0E0,0E0,0E0,0E0,0E0,0E0,0E0,0E0],"parents":[2147483647,0,0,1,1,2,2,3,3,4,4,5,5,6,6,7,7,8,8,9,9,10,10,11,11,12,12,13,13,14,14,15,15,16,16,17,17,18,18,19,19,20,20,21,21,22,22,23,23,24,24,25,25,28,28,29,29],"right_children":[2,4,6,8,10,12,14,16,18,20,22,24,26,28,30,32,34,36,38,40,42,44,46,48,50,52,-1,-1,54,56,-1,-1,-1,-1,-1,-1,-1,-1,-1,-1,-1,-1,-1,-1,-1,-1,-1,-1,-1,-1,-1,-1,-1,-1,-1,-1,-1],"split_conditions":[1.1518229E-2,5.14953E-1,7.7192795E-1,-7.2975144E-2,4E0,3.7799532E0,2.6250026E0,-7.6868534E-1,-3.4671612E-2,-5.017637E-1,2.015E3,2.540143E0,3E0,2E0,1E0,1E0,-2.930903E-1,-4.393318E-2,-4.577446E-1,-1.9395363E-2,1E0,-3.364396E-2,2.019E3,4.8336345E-3,-3.182342E-2,1.905E3,1.5166942E4,-1.4848876E3,2.6300332E-1,3.649095E0,1.841087E3,-2.5913557E3,-1.5261626E3,-1.881287E3,-1.1257587E3,2.5096824E3,-7.3261694E2,-1.6837144E3,-4.607192E2,-9.82751E2,9.6832043E2,1.0365827E2,1.4907607E3,-8.2719246E1,1.3178763E3,4.495796E3,2.0755437E2,3.378929E2,5.304415E3,-2.8619246E3,-8.060718E2,6.643249E3,2.0816465E3,2.4672795E3,4.7641704E3,8.077279E3,1.6592309E4],"split_indices":[46,7,7,47,4,46,7,47,6,46,0,46,4,5,45,15,7,46,7,6,22,6,0,6,6,0,0,0,47,7,0,0,0,0,0,0,0,0,0,0,0,0,0,0,0,0,0,0,0,0,0,0,0,0,0,0,0],"split_type":[0,0,0,0,0,0,0,0,0,0,0,0,0,0,0,0,0,0,0,0,0,0,0,0,0,0,0,0,0,0,0,0,0,0,0,0,0,0,0,0,0,0,0,0,0,0,0,0,0,0,0,0,0,0,0,0,0],"sum_hessian":[9.41E2,5.64E2,3.77E2,4.44E2,1.2E2,2.98E2,7.9E1,3.75E2,6.9E1,8.9E1,3.1E1,2.79E2,1.9E1,6.8E1,1.1E1,8.7E1,2.88E2,2.2E1,4.7E1,6.1E1,2.8E1,2.4E1,7E0,2.6E2,1.9E1,1.5E1,4E0,1E0,6.7E1,9E0,2E0,7.2E1,1.5E1,1.26E2,1.62E2,1E1,1.2E1,1.1E1,3.6E1,5.7E1,4E0,1.6E1,1.2E1,4E0,2E1,5E0,2E0,2.55E2,5E0,1.7E1,2E0,2E0,1.3E1,1.6E1,5.1E1,6E0,3E0],"tree_param":{"num_deleted":"0","num_feature":"48","num_nodes":"57","size_leaf_vector":"1"}},{"base_weights":[-4.2557427E3,-6.360237E4,2.574496E5,-7.7556695E4,6.290512E5,9.43861E4,5.354888E5,-1.6079723E5,7.0255728E3,1.5927075E5,1.5367578E4,-4.0157293E4,1.640842E5,4.2186544E5,9.400507E5,-2.2287962E5,-1.2860699E5,-2.4312833E5,1.983396E4,-6.228983E4,2.501422E5,-1.2142509E5,3.9054984E4,1.18070375E5,4.3756288E5,-1.0100065E5,4.4526816E5,1.3211671E6,5.3670706E5,-2.2770825E3,-8.8355505E2,-2.139611E3,-1.1066747E3,-2.6946875E3,-2.1603218E2,1.4511339E2,6.324211E3,-1.7581954E3,3.4159924E2,8.930994E2,3.2877957E3,-1.6540553E3,3.4801227E2,1.6540403E3,-1.4088304E2,-9.646784E1,1.4527299E3,5.703433E3,9.580643E2,-3.7546406E1,-1.4774633E3,4.789283E3,1.7488857E3,2.9257734E3,1.4683694E4,5.9355156E3,6.9397766E2],"categories":[],"categories_nodes":[],"categories_segments":[],"categories_sizes":[],"default_left":[0,0,0,0,0,0,0,0,0,0,0,0,0,0,0,0,0,0,0,0,0,0,0,0,0,0,0,0,0,0,0,0,0,0,0,0,0,0,0,0,0,0,0,0,0,0,0,0,0,0,0,0,0,0,0,0,0],"id":18,"left_children":[1,3,5,7,9,11,13,15,17,19,-1,21,23,25,27,29,31,33,35,37,39,41,43,45,47,49,51,53,55,-1,-1,-1,-1,-1,-1,-1,-1,-1,-1,-1,-1,-1,-1,-1,-1,-1,-1,-1,-1,-1,-1,-1,-1,-1,-1,-1,-1],"loss_changes":[1.4367322E13,7.336583E12,7.7022647E12,5.211228E12,6.1515817E12,1.02872777E12,2.4993879E12,7.167573E11,1.1839194E12,2.3705017E11,0E0,2.4936373E11,8.5437055E11,6.690334E11,1.2892923E12,6.1726523E10,3.560618E11,9.920984E10,1.135283E12,4.9805636E10,7.1816086E10,1.3630344E11,1.3662233E11,2.2027855E11,3.991428E11,1.3082753E10,3.6219283E11,4.7885425E11,1.7132054E11,0E0,0E0,0E0,0E0,0E0,0E0,0E0,0E0,0E0,0E0,0E0,0E0,0E0,0E0,0E0,0E0,0E0,0E0,0E0,0E0,0E0,0E0,0E0,0E0,0E0,0E0,0E0,0E0],"parents":[2147483647,0,0,1,1,2,2,3,3,4,4,5,5,6,6,7,7,8,8,9,9,11,11,12,12,13,13,14,14,15,15,16,16,17,17,18,18,19,19,20,20,21,21,22,22,23,23,24,24,25,25,26,26,27,27,28,28],"right_children":[2,4,6,8,10,12,14,16,18,20,-1,22,24,26,28,30,32,34,36,38,40,42,44,46,48,50,52,54,56,-1,-1,-1,-1,-1,-1,-1,-1,-1,-1,-1,-1,-1,-1,-1,-1,-1,-1,-1,-1,-1,-1,-1,-1,-1,-1,-1,-1],"split_conditions":[7.186294E-1,3.7799532E0,2.6300332E-1,-5.5923034E-2,3E0,1E0,2.6250026E0,2E0,3E0,1E0,1.5367578E4,-5.492181E-1,5E0,3E0,1.933E3,-9.85993E-4,-8.908927E-1,1E0,6.144808E-1,1.901E3,1E0,4E0,8E0,-6.094297E-1,1E0,1.966E3,1E0,1.907E3,2.008E3,-2.2770825E3,-8.8355505E2,-2.139611E3,-1.1066747E3,-2.6946875E3,-2.1603218E2,1.4511339E2,6.324211E3,-1.7581954E3,3.4159924E2,8.930994E2,3.2877957E3,-1.6540553E3,3.4801227E2,1.6540403E3,-1.4088304E2,-9.646784E1,1.4527299E3,5.703433E3,9.580643E2,-3.7546406E1,-1.4774633E3,4.789283E3,1.7488857E3,2.9257734E3,1.4683694E4,5.9355156E3,6.9397766E2],"split_indices":[8,46,47,46,4,15,8,4,5,2,0,46,4,3,0,6,46,27,6,0,12,4,5,46,25,0,36,0,0,0,0,0,0,0,0,0,0,0,0,0,0,0,0,0,0,0,0,0,0,0,0,0,0,0,0,0,0],"split_type":[0,0,0,0,0,0,0,0,0,0,0,0,0,0,0,0,0,0,0,0,0,0,0,0,0,0,0,0,0,0,0,0,0,0,0,0,0,0,0,0,0,0,0,0,0,0,0,0,0,0,0,0,0,0,0,0,0],"sum_hessian":[9.23E2,7.53E2,1.7E2,7.39E2,1.4E1,1.08E2,6.2E1,3.72E2,3.67E2,1E1,4E0,3.7E1,7.1E1,5E1,1.2E1,1.25E2,2.47E2,1.7E1,3.5E2,3E0,7E0,1.8E1,1.9E1,6.2E1,9E0,2E0,4.8E1,5E0,7E0,1.2E2,5E0,4.1E1,2.06E2,1.5E1,2E0,3.48E2,2E0,1E0,2E0,3E0,4E0,1.4E1,4E0,5E0,1.4E1,1.1E1,5.1E1,6E0,3E0,1E0,1E0,4.2E1,6E0,1E0,4E0,6E0,1E0],"tree_param":{"num_deleted":"0","num_feature":"48","num_nodes":"57","size_leaf_vector":"1"}},{"base_weights":[8.141906E3,-4.3867535E4,3.7903984E5,-6.1573605E4,5.899113E5,6.537187E4,6.26945E5,-1.493153E5,2.3251055E4,1.0634445E5,1.0638105E6,2.695032E4,2.685189E5,4.816303E5,1.4453188E6,-1.8996627E5,-6.189173E4,-2.3841832E4,1.3599712E5,-1.7494045E3,1.4781948E5,4.367145E5,1.5136047E4,-1.0941973E4,1.4162192E5,1.4963523E5,4.1678E3,5.1854984E5,1.5438927E5,1.828987E4,7.725867E3,-2.3810088E3,-1.6311537E3,-1.0713606E3,4.738915E2,-4.1814007E1,-2.5689597E3,1.0235302E3,3.2986187E3,2.4910737E3,7.869811E2,4.722781E3,1.2944823E3,-7.487691E2,3.2202368E2,5.8836127E2,2.2919766E3,8.331641E1,1.7622963E3,5.4809854E3,1.4890137E3,1.8208917E3,-5.905078E1],"categories":[],"categories_nodes":[],"categories_segments":[],"categories_sizes":[],"default_left":[0,0,0,0,0,0,0,0,0,0,0,0,0,0,0,0,0,0,0,0,0,0,0,0,0,0,0,0,0,0,0,0,0,0,0,0,0,0,0,0,0,0,0,0,0,0,0,0,0,0,0,0,0],"id":19,"left_children":[1,3,5,7,9,11,13,15,17,19,21,23,25,27,29,31,33,35,37,-1,39,41,-1,43,45,47,-1,49,51,-1,-1,-1,-1,-1,-1,-1,-1,-1,-1,-1,-1,-1,-1,-1,-1,-1,-1,-1,-1,-1,-1,-1,-1],"loss_changes":[1.7725024E13,9.081039E12,8.745885E12,5.845959E12,4.9284325E12,3.908297E11,6.7959616E12,1.3600293E12,2.1270576E12,1.658552E11,2.441693E12,1.927371E11,7.864156E10,5.844291E11,9.099018E11,3.0107868E11,6.1817527E11,1.2956163E12,7.358811E11,0E0,5.7408487E10,4.429447E9,0E0,9.619786E10,6.6265203E10,2.1079024E10,0E0,4.535972E11,3.2156221E10,0E0,0E0,0E0,0E0,0E0,0E0,0E0,0E0,0E0,0E0,0E0,0E0,0E0,0E0,0E0,0E0,0E0,0E0,0E0,0E0,0E0,0E0,0E0,0E0],"parents":[2147483647,0,0,1,1,2,2,3,3,4,4,5,5,6,6,7,7,8,8,9,9,10,10,11,11,12,12,13,13,14,14,15,15,16,16,17,17,18,18,20,20,21,21,23,23,24,24,25,25,27,27,28,28],"right_children":[2,4,6,8,10,12,14,16,18,20,22,24,26,28,30,32,34,36,38,-1,40,42,-1,44,46,48,-1,50,52,-1,-1,-1,-1,-1,-1,-1,-1,-1,-1,-1,-1,-1,-1,-1,-1,-1,-1,-1,-1,-1,-1,-1,-1],"split_conditions":[1.0231923E0,3.7799532E0,-1.4395411E-1,-5.5923034E-2,-3.5685813E-1,-2.6592735E-2,3.2683916E0,1E0,1.0284141E-1,1E0,1.987E3,2.001E3,1E0,1E0,1E0,-7.6868534E-1,4.292947E-1,2.540143E0,-3.0737964E-2,-1.7494045E3,1E0,1.921E3,1.5136047E4,-5.492181E-1,1.3525009E0,1.975E3,4.1678E3,1E0,8E0,1.828987E4,7.725867E3,-2.3810088E3,-1.6311537E3,-1.0713606E3,4.738915E2,-4.1814007E1,-2.5689597E3,1.0235302E3,3.2986187E3,2.4910737E3,7.869811E2,4.722781E3,1.2944823E3,-7.487691E2,3.2202368E2,5.8836127E2,2.2919766E3,8.331641E1,1.7622963E3,5.4809854E3,1.4890137E3,1.8208917E3,-5.905078E1],"split_indices":[7,46,46,46,7,6,7,19,7,3,0,0,27,36,13,47,7,46,6,0,21,0,0,46,7,0,0,42,5,0,0,0,0,0,0,0,0,0,0,0,0,0,0,0,0,0,0,0,0,0,0,0,0],"split_type":[0,0,0,0,0,0,0,0,0,0,0,0,0,0,0,0,0,0,0,0,0,0,0,0,0,0,0,0,0,0,0,0,0,0,0,0,0,0,0,0,0,0,0,0,0,0,0,0,0,0,0,0,0],"sum_hessian":[9.17E2,8.05E2,1.12E2,7.84E2,2.1E1,5E1,6.2E1,3.85E2,3.99E2,1.1E1,1E1,4.3E1,7E0,5.4E1,8E0,2.62E2,1.23E2,2.82E2,1.17E2,1E0,1E1,5E0,5E0,3.3E1,1E1,5E0,2E0,4.8E1,6E0,4E0,4E0,9.1E1,1.71E2,8.7E1,3.6E1,2.61E2,2.1E1,1.01E2,1.6E1,3E0,7E0,4E0,1E0,1.3E1,2E1,6E0,4E0,1E0,4E0,4.4E1,4E0,5E0,1E0],"tree_param":{"num_deleted":"0","num_feature":"48","num_nodes":"53","size_leaf_vector":"1"}},{"base_weights":[-3.6294368E3,-1.02618586E5,1.4327592E5,-1.2331641E5,1.4669772E5,2.3558205E4,3.4320728E5,-1.7437889E5,-6.805053E4,8.570323E4,3.6759878E5,-1.212178E4,4.2982128E5,2.8760397E5,9.123422E5,-1.9187242E5,-8.6543016E4,-1.0567264E5,1.687225E4,-5.1126367E4,1.4248012E5,1.10866045E4,4.678756E5,1.2853068E4,-2.5876667E3,1.366233E5,8.158906E5,2.3558784E5,6.402437E5,3.0419734E3,1.1783899E6,-2.5449292E3,-1.7255326E3,-9.2219183E2,8.444226E2,4.9689944E2,-1.2879042E3,-5.0803787E2,6.6126404E2,-8.765101E2,1.0233406E2,1.0880408E3,2.920783E3,-3.109078E1,1.9738985E2,1.3210122E3,5.7576504E3,-8.099172E2,4.6831976E2,-1.7406575E3,1.8069191E3,1.100768E4,2.5582131E3,4.249802E3,1.8036122E3,7.5326484E3,1.1286392E3,1.3957979E4,3.5077725E3],"categories":[],"categories_nodes":[],"categories_segments":[],"categories_sizes":[],"default_left":[0,0,0,0,0,0,0,0,0,0,0,0,0,0,0,0,0,0,0,0,0,0,0,0,0,0,0,0,0,0,0,0,0,0,0,0,0,0,0,0,0,0,0,0,0,0,0,0,0,0,0,0,0,0,0,0,0,0,0],"id":20,"left_children":[1,3,5,7,9,11,13,15,17,19,21,23,25,27,29,31,33,35,37,39,41,43,45,47,-1,49,51,53,55,-1,57,-1,-1,-1,-1,-1,-1,-1,-1,-1,-1,-1,-1,-1,-1,-1,-1,-1,-1,-1,-1,-1,-1,-1,-1,-1,-1,-1,-1],"loss_changes":[1.3509713E13,2.8820588E12,8.943726E12,1.4358267E12,5.4786667E11,3.4116435E12,4.1680162E12,3.921197E11,7.941367E11,2.7919106E11,3.1656195E11,1.3400284E12,2.0392308E12,2.2154073E12,1.5830834E12,2.2344735E11,5.243211E10,6.241613E11,2.6002557E11,2.5549554E10,9.4167564E10,4.2984938E8,1.7752654E11,6.351642E11,0E0,1.957519E11,9.948082E11,1.1157326E12,8.68665E11,0E0,9.4982426E11,0E0,0E0,0E0,0E0,0E0,0E0,0E0,0E0,0E0,0E0,0E0,0E0,0E0,0E0,0E0,0E0,0E0,0E0,0E0,0E0,0E0,0E0,0E0,0E0,0E0,0E0,0E0,0E0],"parents":[2147483647,0,0,1,1,2,2,3,3,4,4,5,5,6,6,7,7,8,8,9,9,10,10,11,11,12,12,13,13,14,14,15,15,16,16,17,17,18,18,19,19,20,20,21,21,22,22,23,23,25,25,26,26,27,27,28,28,30,30],"right_children":[2,4,6,8,10,12,14,16,18,20,22,24,26,28,30,32,34,36,38,40,42,44,46,48,-1,50,52,54,56,-1,58,-1,-1,-1,-1,-1,-1,-1,-1,-1,-1,-1,-1,-1,-1,-1,-1,-1,-1,-1,-1,-1,-1,-1,-1,-1,-1,-1,-1],"split_conditions":[1.1046839E-2,4E0,2.9224142E-1,-5.492181E-1,1E0,3.7799532E0,3.7799532E0,3E0,1.9611378E-1,8.290335E-1,1E0,2.540143E0,-3.092702E-1,5E0,1.3577385E0,-9.654585E-1,1.9140387E0,1E0,1E0,2E0,1E0,1E0,-8.465111E-1,5E0,-2.5876667E3,1E0,2.3198092E-2,-5.005683E-1,6E0,3.0419734E3,1E0,-2.5449292E3,-1.7255326E3,-9.2219183E2,8.444226E2,4.9689944E2,-1.2879042E3,-5.0803787E2,6.6126404E2,-8.765101E2,1.0233406E2,1.0880408E3,2.920783E3,-3.109078E1,1.9738985E2,1.3210122E3,5.7576504E3,-8.099172E2,4.6831976E2,-1.7406575E3,1.8069191E3,1.100768E4,2.5582131E3,4.249802E3,1.8036122E3,7.5326484E3,1.1286392E3,1.3957979E4,3.5077725E3],"split_indices":[46,4,7,46,26,46,46,4,7,7,15,46,7,4,9,46,7,4,15,1,44,1,9,5,0,3,9,9,3,0,25,0,0,0,0,0,0,0,0,0,0,0,0,0,0,0,0,0,0,0,0,0,0,0,0,0,0,0,0],"split_type":[0,0,0,0,0,0,0,0,0,0,0,0,0,0,0,0,0,0,0,0,0,0,0,0,0,0,0,0,0,0,0,0,0,0,0,0,0,0,0,0,0,0,0,0,0,0,0,0,0,0,0,0,0,0,0,0,0,0,0],"sum_hessian":[9.27E2,5.54E2,3.73E2,5.12E2,4.2E1,2.34E2,1.39E2,2.65E2,2.47E2,3.4E1,8E0,2.16E2,1.8E1,1.28E2,1.1E1,2.2E2,4.5E1,1.71E2,7.6E1,1E1,2.4E1,2E0,6E0,1.97E2,1.9E1,1.1E1,7E0,1.13E2,1.5E1,4E0,7E0,4.9E1,1.71E2,4.4E1,1E0,2.2E1,1.49E2,3.2E1,4.4E1,6E0,4E0,2.1E1,3E0,1E0,1E0,2E0,4E0,5.2E1,1.45E2,1E0,1E1,4E0,3E0,2.4E1,8.9E1,1.2E1,3E0,5E0,2E0],"tree_param":{"num_deleted":"0","num_feature":"48","num_nodes":"59","size_leaf_vector":"1"}},{"base_weights":[4.0673474E3,-1.0436876E5,1.6207166E5,-1.4139208E5,3.227543E4,8.014002E4,5.576758E5,-1.6599261E5,-8.351124E3,-6.664054E4,1.07087945E5,4.187022E4,5.5752406E5,4.184401E5,1.1261606E6,-2.0750423E5,-1.2425443E5,1.340161E5,-6.2283645E4,-1.1763409E5,-4.3713647E3,5.7954195E4,2.6007966E5,6.518993E4,-2.3066162E5,8.8216984E4,9.8037075E5,5.403748E5,2.902707E5,1.3579026E6,3.2320112E5,-2.5395452E3,-1.8558147E3,-1.6390012E3,-7.116184E2,2.3268389E3,-3.0737613E2,-1.368466E3,-2.9485645E2,-1.6269264E3,-4.39983E2,-1.9049069E2,1.0472227E3,3.0275522E2,2.0640244E3,4.141724E3,1.2620676E3,5.44458E2,5.234851E3,-2.8756558E3,-1.101926E3,-1.7319542E3,1.2772678E3,4.0277712E3,1.4908349E4,4.1012656E3,9.061812E3,-1.506499E3,3.1218071E3,1.8339312E4,8.1423296E3,3.8785247E3,6.462353E2],"categories":[],"categories_nodes":[],"categories_segments":[],"categories_sizes":[],"default_left":[0,0,0,0,0,0,0,0,0,0,0,0,0,0,0,0,0,0,0,0,0,0,0,0,0,0,0,0,0,0,0,0,0,0,0,0,0,0,0,0,0,0,0,0,0,0,0,0,0,0,0,0,0,0,0,0,0,0,0,0,0,0,0],"id":21,"left_children":[1,3,5,7,9,11,13,15,17,19,21,23,25,27,29,31,33,35,37,39,41,43,45,47,49,51,53,55,57,59,61,-1,-1,-1,-1,-1,-1,-1,-1,-1,-1,-1,-1,-1,-1,-1,-1,-1,-1,-1,-1,-1,-1,-1,-1,-1,-1,-1,-1,-1,-1,-1,-1],"loss_changes":[1.5745351E13,2.7617295E12,1.207758E13,1.4026785E12,8.729542E11,5.6584375E12,4.5945874E12,6.0142544E11,5.3046614E11,1.6142742E11,4.8857016E11,1.8517366E12,4.4777477E12,6.714441E11,1.7940779E12,1.3616808E11,3.7353187E11,3.16014E11,1.1824077E11,8.5743665E10,4.0424727E10,2.0741131E11,2.7779006E11,1.2862015E12,1.2598116E11,1.4606192E11,2.937615E12,8.6713775E11,3.1752638E11,8.359741E11,4.1805185E10,0E0,0E0,0E0,0E0,0E0,0E0,0E0,0E0,0E0,0E0,0E0,0E0,0E0,0E0,0E0,0E0,0E0,0E0,0E0,0E0,0E0,0E0,0E0,0E0,0E0,0E0,0E0,0E0,0E0,0E0,0E0,0E0],"parents":[2147483647,0,0,1,1,2,2,3,3,4,4,5,5,6,6,7,7,8,8,9,9,10,10,11,11,12,12,13,13,14,14,15,15,16,16,17,17,18,18,19,19,20,20,21,21,22,22,23,23,24,24,25,25,26,26,27,27,28,28,29,29,30,30],"right_children":[2,4,6,8,10,12,14,16,18,20,22,24,26,28,30,32,34,36,38,40,42,44,46,48,50,52,54,56,58,60,62,-1,-1,-1,-1,-1,-1,-1,-1,-1,-1,-1,-1,-1,-1,-1,-1,-1,-1,-1,-1,-1,-1,-1,-1,-1,-1,-1,-1,-1,-1,-1,-1],"split_conditions":[1.1362089E-2,5.14953E-1,9.6608675E-1,-7.2975144E-2,1E0,3.7799532E0,2.6250026E0,-3.1022197E-1,1E0,-5.492181E-1,2.01E3,2.540143E0,-3.092702E-1,1.978E3,1E0,-7.6868534E-1,-5.492181E-1,-4.393318E-2,-3.396069E-2,1E0,1E1,-1.0375937E-1,-4.8349115E-1,4.8336345E-3,-3.306347E-2,1E0,1.987E3,1.969E3,3E0,1E0,2.008E3,-2.5395452E3,-1.8558147E3,-1.6390012E3,-7.116184E2,2.3268389E3,-3.0737613E2,-1.368466E3,-2.9485645E2,-1.6269264E3,-4.39983E2,-1.9049069E2,1.0472227E3,3.0275522E2,2.0640244E3,4.141724E3,1.2620676E3,5.44458E2,5.234851E3,-2.8756558E3,-1.101926E3,-1.7319542E3,1.2772678E3,4.0277712E3,1.4908349E4,4.1012656E3,9.061812E3,-1.506499E3,3.1218071E3,1.8339312E4,8.1423296E3,3.8785247E3,6.462353E2],"split_indices":[46,8,8,47,15,46,8,8,3,46,0,46,8,0,33,47,46,46,47,18,3,47,46,6,6,3,0,0,3,12,0,0,0,0,0,0,0,0,0,0,0,0,0,0,0,0,0,0,0,0,0,0,0,0,0,0,0,0,0,0,0,0,0],"split_type":[0,0,0,0,0,0,0,0,0,0,0,0,0,0,0,0,0,0,0,0,0,0,0,0,0,0,0,0,0,0,0,0,0,0,0,0,0,0,0,0,0,0,0,0,0,0,0,0,0,0,0,0,0,0,0,0,0,0,0,0,0,0,0],"sum_hessian":[9.17E2,5.44E2,3.73E2,4.28E2,1.16E2,3.1E2,6.3E1,3.61E2,6.7E1,5E1,6.6E1,2.88E2,2.2E1,5.2E1,1.1E1,1.79E2,1.82E2,1.8E1,4.9E1,2.7E1,2.3E1,5.1E1,1.5E1,2.66E2,2.2E1,1.1E1,1.1E1,2.5E1,2.7E1,8E0,3E0,5.4E1,1.25E2,1.03E2,7.9E1,1.1E1,7E0,1.4E1,3.5E1,1.6E1,1.1E1,2.1E1,2E0,4.4E1,7E0,6E0,9E0,2.61E2,5E0,1.4E1,8E0,1E0,1E1,6E0,5E0,2E1,5E0,1E0,2.6E1,3E0,5E0,2E0,1E0],"tree_param":{"num_deleted":"0","num_feature":"48","num_nodes":"63","size_leaf_vector":"1"}},{"base_weights":[3.9052485E3,-5.856505E4,2.897883E5,-7.6564836E4,6.3419325E5,2.3330331E5,1.3550221E6,-1.5339981E5,4.5981196E3,1.28442586E5,1.313545E6,7.884978E4,4.2193406E5,1.5302251E4,6.43004E2,-1.9857772E5,-1.02537766E5,-3.1786246E4,8.810483E4,1.4472567E5,3.1351428E4,3.091312E3,1.4128711E4,-5.6413203E4,1.4745392E5,3.0980562E5,5.454052E5,-2.5449893E3,-1.7885477E3,-1.1820391E3,3.478436E2,-1.6002219E2,-2.32582E3,1.8481871E3,6.800642E2,1.5576626E3,2.2680171E2,-1.4209187E2,6.123633E2,-8.1705444E2,5.837332E2,1.0781665E3,2.9041204E3,4.6228438E3,2.1578606E3,7.7415E3,4.2223765E3],"categories":[],"categories_nodes":[],"categories_segments":[],"categories_sizes":[],"default_left":[0,0,0,0,0,0,0,0,0,0,0,0,0,0,0,0,0,0,0,0,0,0,0,0,0,0,0,0,0,0,0,0,0,0,0,0,0,0,0,0,0,0,0,0,0,0,0],"id":22,"left_children":[1,3,5,7,9,11,13,15,17,19,21,23,25,-1,-1,27,29,31,33,35,37,-1,-1,39,41,43,45,-1,-1,-1,-1,-1,-1,-1,-1,-1,-1,-1,-1,-1,-1,-1,-1,-1,-1,-1,-1],"loss_changes":[1.6233126E13,9.350803E12,9.491534E12,4.5406256E12,6.3593544E12,4.511742E12,1.710713E12,8.390307E11,1.0814107E12,1.4433976E10,3.6135292E11,8.156437E11,8.0015367E11,0E0,0E0,1.7175885E11,3.8704434E11,7.822809E11,1.9736101E11,9.941746E9,4.954842E9,0E0,0E0,9.186567E10,2.9734378E11,4.593489E11,5.7469095E11,0E0,0E0,0E0,0E0,0E0,0E0,0E0,0E0,0E0,0E0,0E0,0E0,0E0,0E0,0E0,0E0,0E0,0E0,0E0,0E0],"parents":[2147483647,0,0,1,1,2,2,3,3,4,4,5,5,6,6,7,7,8,8,9,9,10,10,11,11,12,12,15,15,16,16,17,17,18,18,19,19,20,20,23,23,24,24,25,25,26,26],"right_children":[2,4,6,8,10,12,14,16,18,20,22,24,26,-1,-1,28,30,32,34,36,38,-1,-1,40,42,44,46,-1,-1,-1,-1,-1,-1,-1,-1,-1,-1,-1,-1,-1,-1,-1,-1,-1,-1,-1,-1],"split_conditions":[7.3861635E-1,3.7799532E0,3.649095E0,-5.5923034E-2,-3.5685813E-1,1.5539651E-2,2.018E3,-1.9410737E-1,-3.040484E-2,3E0,2E0,1E0,4E0,1.5302251E4,6.43004E2,-8.908927E-1,2.009E3,2.540143E0,-4.6722677E-1,1E0,1.921E3,3.091312E3,1.4128711E4,4E0,2.015E3,2E0,1.939E3,-2.5449893E3,-1.7885477E3,-1.1820391E3,3.478436E2,-1.6002219E2,-2.32582E3,1.8481871E3,6.800642E2,1.5576626E3,2.2680171E2,-1.4209187E2,6.123633E2,-8.1705444E2,5.837332E2,1.0781665E3,2.9041204E3,4.6228438E3,2.1578606E3,7.7415E3,4.2223765E3],"split_indices":[7,46,7,46,7,46,0,7,7,3,3,15,4,0,0,46,0,46,9,15,0,0,0,4,0,2,0,0,0,0,0,0,0,0,0,0,0,0,0,0,0,0,0,0,0,0,0],"split_type":[0,0,0,0,0,0,0,0,0,0,0,0,0,0,0,0,0,0,0,0,0,0,0,0,0,0,0,0,0,0,0,0,0,0,0,0,0,0,0,0,0,0,0,0,0,0,0],"sum_hessian":[9.07E2,7.45E2,1.62E2,7.27E2,1.8E1,1.55E2,7E0,3.73E2,3.54E2,1.1E1,7E0,8.6E1,6.9E1,6E0,1E0,1.96E2,1.77E2,2.47E2,1.07E2,9E0,2E0,1E0,6E0,2.9E1,5.7E1,3.8E1,3.1E1,4.8E1,1.48E2,1.59E2,1.8E1,2.3E2,1.7E1,1.7E1,9E1,8E0,1E0,1E0,1E0,2.4E1,5E0,4.6E1,1.1E1,1.3E1,2.5E1,9E0,2.2E1],"tree_param":{"num_deleted":"0","num_feature":"48","num_nodes":"47","size_leaf_vector":"1"}},{"base_weights":[3.764516E3,-1.0184811E5,1.5911633E5,-1.4599919E5,2.6406762E4,7.797034E4,5.8219175E5,-1.7050014E5,-4.0963953E4,-2.3045268E4,1.7003953E5,3.7226117E4,5.789314E5,4.7435425E5,1.3463162E6,-2.0540016E5,-1.2667185E5,1.0779005E5,-7.695011E4,-9.6210945E4,4.16874E4,1.4172502E5,5.9468105E3,-2.4861766E4,1.5440972E5,1.2056806E5,9.5750275E5,5.0764022E5,1.7358745E5,1.5108841E4,1.7945477E3,-2.9284648E3,-1.931003E3,-1.5567218E3,-8.9531274E2,2.520495E3,-1.1369348E3,-1.8130306E3,-4.990221E2,-1.5600354E3,-2.7786487E2,-5.574319E0,1.2198044E3,2.2223535E3,9.221003E2,5.3589795E3,-3.9411172E2,6.636343E2,1.9683306E3,-1.7310826E3,1.6300302E3,3.3783984E3,1.3025621E4,3.7552188E3,6.01384E3,1.6800677E2,2.3294202E3],"categories":[],"categories_nodes":[],"categories_segments":[],"categories_sizes":[],"default_left":[0,0,0,0,0,0,0,0,0,0,0,0,0,0,0,0,0,0,0,0,0,0,0,0,0,0,0,0,0,0,0,0,0,0,0,0,0,0,0,0,0,0,0,0,0,0,0,0,0,0,0,0,0,0,0,0,0],"id":23,"left_children":[1,3,5,7,9,11,13,15,17,19,21,23,25,27,29,31,33,35,37,39,41,43,-1,45,47,49,51,53,55,-1,-1,-1,-1,-1,-1,-1,-1,-1,-1,-1,-1,-1,-1,-1,-1,-1,-1,-1,-1,-1,-1,-1,-1,-1,-1,-1,-1],"loss_changes":[1.5406078E13,3.1692444E12,1.3000339E13,1.0635759E12,1.0267408E12,6.5100547E12,4.387848E12,4.8945955E11,4.365412E11,5.1552138E11,3.6058903E11,2.1647165E12,4.0491134E12,4.6250276E11,1.0730592E12,1.4350864E11,1.497799E11,5.3987397E11,1.7441686E11,2.0432034E11,1.9680205E11,1.2302051E11,0E0,1.6120708E12,3.7166514E11,1.7776291E11,2.339609E12,3.8104623E11,6.12285E10,0E0,0E0,0E0,0E0,0E0,0E0,0E0,0E0,0E0,0E0,0E0,0E0,0E0,0E0,0E0,0E0,0E0,0E0,0E0,0E0,0E0,0E0,0E0,0E0,0E0,0E0,0E0,0E0],"parents":[2147483647,0,0,1,1,2,2,3,3,4,4,5,5,6,6,7,7,8,8,9,9,10,10,11,11,12,12,13,13,14,14,15,15,16,16,17,17,18,18,19,19,20,20,21,21,23,23,24,24,25,25,26,26,27,27,28,28],"right_children":[2,4,6,8,10,12,14,16,18,20,22,24,26,28,30,32,34,36,38,40,42,44,-1,46,48,50,52,54,56,-1,-1,-1,-1,-1,-1,-1,-1,-1,-1,-1,-1,-1,-1,-1,-1,-1,-1,-1,-1,-1,-1,-1,-1,-1,-1,-1,-1],"split_conditions":[1.1362089E-2,4.1216305E-1,9.6608675E-1,-5.5923034E-2,4E0,3.7799532E0,3.2683916E0,1E0,1E0,1E0,3.8841796E0,1.4327831E-2,-3.092702E-1,1E0,1E0,-1.1312069E0,-1.3605008E-1,-4.393318E-2,-4.577446E-1,-5.492181E-1,-3.090309E-1,1E0,5.9468105E3,-2.9966736E-1,2.6300332E-1,1E0,1E0,4E0,1E0,1.5108841E4,1.7945477E3,-2.9284648E3,-1.931003E3,-1.5567218E3,-8.9531274E2,2.520495E3,-1.1369348E3,-1.8130306E3,-4.990221E2,-1.5600354E3,-2.7786487E2,-5.574319E0,1.2198044E3,2.2223535E3,9.221003E2,5.3589795E3,-3.9411172E2,6.636343E2,1.9683306E3,-1.7310826E3,1.6300302E3,3.3783984E3,1.3025621E4,3.7552188E3,6.01384E3,1.6800677E2,2.3294202E3],"split_indices":[46,7,7,46,4,46,7,1,3,15,7,7,7,36,34,46,7,46,7,46,46,11,0,47,47,3,11,4,12,0,0,0,0,0,0,0,0,0,0,0,0,0,0,0,0,0,0,0,0,0,0,0,0,0,0,0,0],"split_type":[0,0,0,0,0,0,0,0,0,0,0,0,0,0,0,0,0,0,0,0,0,0,0,0,0,0,0,0,0,0,0,0,0,0,0,0,0,0,0,0,0,0,0,0,0,0,0,0,0,0,0,0,0,0,0,0,0],"sum_hessian":[9.37E2,5.58E2,3.79E2,4.15E2,1.43E2,3.19E2,6E1,3.36E2,7.9E1,1.07E2,3.6E1,2.96E2,2.3E1,5.4E1,6E0,1.85E2,1.51E2,1.5E1,6.4E1,5E1,5.7E1,3.5E1,1E0,1.94E2,1.02E2,1.1E1,1.2E1,4.8E1,6E0,5E0,1E0,2E1,1.65E2,8.3E1,6.8E1,9E0,6E0,1.2E1,5.2E1,2.6E1,2.4E1,3.8E1,1.9E1,1.2E1,2.3E1,4E0,1.9E2,3.4E1,6.8E1,1E0,1E1,5E0,7E0,2.2E1,2.6E1,2E0,4E0],"tree_param":{"num_deleted":"0","num_feature":"48","num_nodes":"57","size_leaf_vector":"1"}},{"base_weights":[-6.826323E2,-4.8532402E4,3.660268E5,-1.4828214E5,2.6847408E4,9.151605E4,5.932605E5,-1.9657625E5,-8.913785E4,5.7617495E3,4.4647656E5,2.7744389E4,2.9646188E5,4.7283453E5,1.2231372E6,-2.4268358E5,-1.7133478E5,-1.5215797E5,-5.7957277E4,-3.2927707E4,1.4861708E5,1.086824E5,8.0509906E5,-1.0688751E5,7.618461E4,2.8015367E4,3.8283125E5,3.2227572E5,6.0030475E5,5.642448E2,1.3619234E6,-2.465987E3,9.814547E1,-1.9603656E3,-1.3842535E3,-1.6935385E3,-8.48976E2,-7.363837E2,4.073171E2,-4.2056934E2,5.157491E3,7.9936334E2,2.103437E3,-1.7224271E3,1.4644639E3,9.972881E3,2.1944614E3,-1.7236237E3,-6.078914E2,4.3718396E2,2.2977197E3,6.465409E2,-5.748906E1,2.1499507E3,5.3887773E3,4.844539E3,2.0791936E3,3.9424436E3,7.173309E3,1.5054674E4,1.785575E3],"categories":[],"categories_nodes":[],"categories_segments":[],"categories_sizes":[],"default_left":[0,0,0,0,0,0,0,0,0,0,0,0,0,0,0,0,0,0,0,0,0,0,0,0,0,0,0,0,0,0,0,0,0,0,0,0,0,0,0,0,0,0,0,0,0,0,0,0,0,0,0,0,0,0,0,0,0,0,0,0,0],"id":24,"left_children":[1,3,5,7,9,11,13,15,17,19,21,23,25,27,29,31,33,35,37,39,41,43,45,47,49,51,53,55,57,-1,59,-1,-1,-1,-1,-1,-1,-1,-1,-1,-1,-1,-1,-1,-1,-1,-1,-1,-1,-1,-1,-1,-1,-1,-1,-1,-1,-1,-1,-1,-1],"loss_changes":[1.6722472E13,6.342597E12,6.807301E12,1.0193218E12,4.2533915E12,6.583314E11,3.972872E12,1.900198E11,3.1540694E11,2.5417844E12,2.6987332E12,2.6900711E11,2.6750144E11,8.045063E11,1.380464E12,6.9642486E10,8.016914E10,4.807865E10,1.7632523E11,1.8349469E12,3.986501E11,1.6313939E11,1.0192657E12,2.272337E10,1.3954672E11,5.32001E9,1.1985617E11,3.8147142E11,3.6828715E11,0E0,1.09010905E12,0E0,0E0,0E0,0E0,0E0,0E0,0E0,0E0,0E0,0E0,0E0,0E0,0E0,0E0,0E0,0E0,0E0,0E0,0E0,0E0,0E0,0E0,0E0,0E0,0E0,0E0,0E0,0E0,0E0,0E0],"parents":[2147483647,0,0,1,1,2,2,3,3,4,4,5,5,6,6,7,7,8,8,9,9,10,10,11,11,12,12,13,13,14,14,15,15,16,16,17,17,18,18,19,19,20,20,21,21,22,22,23,23,24,24,25,25,26,26,27,27,28,28,30,30],"right_children":[2,4,6,8,10,12,14,16,18,20,22,24,26,28,30,32,34,36,38,40,42,44,46,48,50,52,54,56,58,-1,60,-1,-1,-1,-1,-1,-1,-1,-1,-1,-1,-1,-1,-1,-1,-1,-1,-1,-1,-1,-1,-1,-1,-1,-1,-1,-1,-1,-1,-1,-1],"split_conditions":[1.0231923E0,-4.0893552E-1,-1.10220194E-1,-1.01786755E-1,3.7987096E0,-2.8659487E-2,3.649095E0,-7.6868534E-1,-7.34191E-1,2.8462738E-1,-3.092702E-1,3E0,-6.1575675E-1,4E0,-3.2177057E-2,6.144808E-1,1E0,3E0,1E0,-9.85993E-4,2.6300332E-1,1E0,4E0,-6.45593E-1,1E0,1E0,1.8378979E0,1E0,5.309539E-1,5.642448E2,1E0,-2.465987E3,9.814547E1,-1.9603656E3,-1.3842535E3,-1.6935385E3,-8.48976E2,-7.363837E2,4.073171E2,-4.2056934E2,5.157491E3,7.9936334E2,2.103437E3,-1.7224271E3,1.4644639E3,9.972881E3,2.1944614E3,-1.7236237E3,-6.078914E2,4.3718396E2,2.2977197E3,6.465409E2,-5.748906E1,2.1499507E3,5.3887773E3,4.844539E3,2.0791936E3,3.9424436E3,7.173309E3,1.5054674E4,1.785575E3],"split_indices":[7,47,47,7,47,6,7,47,47,7,7,4,47,4,6,6,10,4,22,6,47,3,3,47,44,2,7,10,47,0,34,0,0,0,0,0,0,0,0,0,0,0,0,0,0,0,0,0,0,0,0,0,0,0,0,0,0,0,0,0,0],"split_type":[0,0,0,0,0,0,0,0,0,0,0,0,0,0,0,0,0,0,0,0,0,0,0,0,0,0,0,0,0,0,0,0,0,0,0,0,0,0,0,0,0,0,0,0,0,0,0,0,0,0,0,0,0,0,0,0,0,0,0,0,0],"sum_hessian":[9.51E2,8.42E2,1.09E2,3.62E2,4.8E2,5E1,5.9E1,1.98E2,1.64E2,4.58E2,2.2E1,3.9E1,1.1E1,5.1E1,8E0,6.7E1,1.31E2,5.3E1,1.11E2,3.61E2,9.7E1,1.2E1,1E1,1E1,2.9E1,3E0,8E0,2.5E1,2.6E1,1E0,7E0,6.6E1,1E0,7.2E1,5.9E1,4.1E1,1.2E1,9.6E1,1.5E1,3.56E2,5E0,4.7E1,5E1,1E0,1.1E1,7E0,3E0,3E0,7E0,2.5E1,4E0,1E0,2E0,5E0,3E0,9E0,1.6E1,1.1E1,1.5E1,6E0,1E0],"tree_param":{"num_deleted":"0","num_feature":"48","num_nodes":"61","size_leaf_vector":"1"}},{"base_weights":[5.821118E3,-3.814681E4,4.306063E5,-1.1683431E5,8.5345164E4,3.3158256E5,1.0756245E6,-1.474689E5,-3.6051594E4,5.109382E4,4.7595306E5,1.3207423E5,5.078382E5,1.262695E6,1.5587139E3,-1.6773703E5,-1.8199592E4,-1.421498E5,-1.00964514E3,-9.433355E3,2.1690489E5,2.9871706E5,1.1606009E6,6.980198E4,2.9322916E5,1.869279E5,6.23117E5,2.6641467E3,1.3539281E6,-2.3191125E3,-1.455543E3,1.0621614E3,-8.353146E2,-1.7417529E3,-7.455467E2,-1.25552E2,1.9543306E3,-2.3925792E2,5.114512E3,1.5337567E3,3.880881E3,1.4472267E3,4.6903804E3,1.1190502E3,1.3947984E4,9.57588E1,1.0820852E3,3.0672015E2,4.0137192E3,9.2758826E2,3.5207637E3,6.89008E3,1.6903848E3,1.4415327E4,3.7034824E3],"categories":[],"categories_nodes":[],"categories_segments":[],"categories_sizes":[],"default_left":[0,0,0,0,0,0,0,0,0,0,0,0,0,0,0,0,0,0,0,0,0,0,0,0,0,0,0,0,0,0,0,0,0,0,0,0,0,0,0,0,0,0,0,0,0,0,0,0,0,0,0,0,0,0,0],"id":25,"left_children":[1,3,5,7,9,11,13,15,17,19,21,23,25,27,-1,29,31,33,35,37,39,41,43,45,47,49,51,-1,53,-1,-1,-1,-1,-1,-1,-1,-1,-1,-1,-1,-1,-1,-1,-1,-1,-1,-1,-1,-1,-1,-1,-1,-1,-1,-1],"loss_changes":[1.712449E13,8.085027E12,5.1363436E12,1.251854E12,4.3104272E12,2.6054261E12,1.6958274E12,9.611253E11,5.240786E11,3.0028328E12,2.8082585E12,3.508448E11,1.3632893E12,4.5733747E11,0E0,4.1893547E11,4.234163E11,6.2781325E10,2.45134E11,1.6729923E12,8.104882E11,5.0914604E11,1.0719257E12,6.3729934E10,2.7162562E11,1.5396435E11,7.5120194E11,0E0,1.5545978E11,0E0,0E0,0E0,0E0,0E0,0E0,0E0,0E0,0E0,0E0,0E0,0E0,0E0,0E0,0E0,0E0,0E0,0E0,0E0,0E0,0E0,0E0,0E0,0E0,0E0,0E0],"parents":[2147483647,0,0,1,1,2,2,3,3,4,4,5,5,6,6,7,7,8,8,9,9,10,10,11,11,12,12,13,13,15,15,16,16,17,17,18,18,19,19,20,20,21,21,22,22,23,23,24,24,25,25,26,26,28,28],"right_children":[2,4,6,8,10,12,14,16,18,20,22,24,26,28,-1,30,32,34,36,38,40,42,44,46,48,50,52,-1,54,-1,-1,-1,-1,-1,-1,-1,-1,-1,-1,-1,-1,-1,-1,-1,-1,-1,-1,-1,-1,-1,-1,-1,-1,-1,-1],"split_conditions":[4E0,1.0493361E-2,3.2683916E0,1.9611378E-1,3.7799532E0,1.4099358E-2,1E0,-7.2975144E-2,-7.1223366E-1,2.9224142E-1,1E0,2.015E3,1.0051088E0,-3.3839732E-2,1.5587139E3,-7.6868534E-1,1E0,1E0,-1.5000923E-2,4.8336345E-3,1E0,-3.092702E-1,-4.577446E-1,-5.492181E-1,6.434405E-1,3E0,1E0,2.6641467E3,1E0,-2.3191125E3,-1.455543E3,1.0621614E3,-8.353146E2,-1.7417529E3,-7.455467E2,-1.25552E2,1.9543306E3,-2.3925792E2,5.114512E3,1.5337567E3,3.880881E3,1.4472267E3,4.6903804E3,1.1190502E3,1.3947984E4,9.57588E1,1.0820852E3,3.0672015E2,4.0137192E3,9.2758826E2,3.5207637E3,6.89008E3,1.6903848E3,1.4415327E4,3.7034824E3],"split_indices":[4,46,7,7,46,46,45,47,46,7,39,0,7,6,0,47,3,18,6,6,27,7,7,46,7,1,36,0,17,0,0,0,0,0,0,0,0,0,0,0,0,0,0,0,0,0,0,0,0,0,0,0,0,0,0],"split_type":[0,0,0,0,0,0,0,0,0,0,0,0,0,0,0,0,0,0,0,0,0,0,0,0,0,0,0,0,0,0,0,0,0,0,0,0,0,0,0,0,0,0,0,0,0,0,0,0,0,0,0,0,0,0,0],"sum_hessian":[9.15E2,8.3E2,8.5E1,5.07E2,3.23E2,7.5E1,1E1,3.67E2,1.4E2,2.98E2,2.5E1,3.6E1,3.9E1,8E0,2E0,3.17E2,5E1,3.4E1,1.06E2,2.19E2,7.9E1,2.1E1,4E0,2.7E1,9E0,1.1E1,2.8E1,1E0,7E0,7.9E1,2.38E2,1.7E1,3.3E1,2.2E1,1.2E1,1.01E2,5E0,2.14E2,5E0,5.9E1,2E1,1.2E1,9E0,1E0,3E0,1.1E1,1.6E1,3E0,6E0,8E0,3E0,2.4E1,4E0,6E0,1E0],"tree_param":{"num_deleted":"0","num_feature":"48","num_nodes":"55","size_leaf_vector":"1"}},{"base_weights":[-3.8478118E3,-4.879057E4,3.334643E5,-1.3811814E5,3.702078E4,1.1430651E5,6.426153E5,-1.6619097E5,-4.4665477E4,1.4231081E4,4.465885E5,6.5047395E4,3.2644697E5,4.2937728E5,9.3861806E5,-2.1214642E5,-1.3770897E5,-1.103421E5,2.335885E4,-3.1625512E4,1.0758588E5,1.5174564E5,7.852254E5,2.684342E3,1.7978542E5,4.116558E5,5.311535E4,2.5352172E5,6.127858E5,1.3498739E6,6.205007E5,-2.1758162E3,-7.623749E2,-2.0745405E3,-1.2461614E3,-1.5817296E3,-5.147493E2,-3.936977E2,9.052652E2,-1.4381006E2,-2.3294775E3,8.415617E2,2.831652E3,2.368193E3,8.762186E2,2.933559E3,1.0642457E4,-7.0212006E2,7.948136E2,1.9966039E3,7.2320625E1,4.9832974E3,7.219799E2,-2.330953E1,7.237444E2,-1.5589215E3,2.9120876E3,2.644681E2,6.594435E3,1.5158909E4,1.7688538E3,6.622659E3,8.0541266E2],"categories":[],"categories_nodes":[],"categories_segments":[],"categories_sizes":[],"default_left":[0,0,0,0,0,0,0,0,0,0,0,0,0,0,0,0,0,0,0,0,0,0,0,0,0,0,0,0,0,0,0,0,0,0,0,0,0,0,0,0,0,0,0,0,0,0,0,0,0,0,0,0,0,0,0,0,0,0,0,0,0,0,0],"id":26,"left_children":[1,3,5,7,9,11,13,15,17,19,21,23,25,27,29,31,33,35,37,39,41,43,45,47,49,51,53,55,57,59,61,-1,-1,-1,-1,-1,-1,-1,-1,-1,-1,-1,-1,-1,-1,-1,-1,-1,-1,-1,-1,-1,-1,-1,-1,-1,-1,-1,-1,-1,-1,-1,-1],"loss_changes":[1.4054187E13,6.2753436E12,7.311604E12,1.04459194E12,3.8952252E12,6.5800575E11,2.4373352E12,3.7392744E11,4.225326E11,1.7029328E12,2.077428E12,3.8590972E11,2.5761795E11,7.477411E11,1.5172989E12,6.9100634E10,1.5038782E11,1.27010144E11,2.015908E11,9.235945E11,5.150743E11,5.0167644E10,1.0602131E12,2.0711653E11,6.3716393E10,2.2882104E11,4.4400814E9,2.9227096E11,3.382035E11,1.09501533E12,2.172791E11,0E0,0E0,0E0,0E0,0E0,0E0,0E0,0E0,0E0,0E0,0E0,0E0,0E0,0E0,0E0,0E0,0E0,0E0,0E0,0E0,0E0,0E0,0E0,0E0,0E0,0E0,0E0,0E0,0E0,0E0,0E0,0E0],"parents":[2147483647,0,0,1,1,2,2,3,3,4,4,5,5,6,6,7,7,8,8,9,9,10,10,11,11,12,12,13,13,14,14,15,15,16,16,17,17,18,18,19,19,20,20,21,21,22,22,23,23,24,24,25,25,26,26,27,27,28,28,29,29,30,30],"right_children":[2,4,6,8,10,12,14,16,18,20,22,24,26,28,30,32,34,36,38,40,42,44,46,48,50,52,54,56,58,60,62,-1,-1,-1,-1,-1,-1,-1,-1,-1,-1,-1,-1,-1,-1,-1,-1,-1,-1,-1,-1,-1,-1,-1,-1,-1,-1,-1,-1,-1,-1,-1,-1],"split_conditions":[1.0231923E0,-5.5923034E-2,2.6300332E-1,2.237148E-1,3.7799532E0,5E0,-3.210944E-2,2E0,1E0,-3.040484E-2,-3.092702E-1,-3.090309E-1,6E0,1.3949195E0,1E0,2.3361884E-2,-8.908927E-1,3E0,-5.017637E-1,2.540143E0,-3.0737964E-2,1E0,1E0,1E0,1E0,1E0,-3.3862088E-2,2E0,4E0,1E0,1E0,-2.1758162E3,-7.623749E2,-2.0745405E3,-1.2461614E3,-1.5817296E3,-5.147493E2,-3.936977E2,9.052652E2,-1.4381006E2,-2.3294775E3,8.415617E2,2.831652E3,2.368193E3,8.762186E2,2.933559E3,1.0642457E4,-7.0212006E2,7.948136E2,1.9966039E3,7.2320625E1,4.9832974E3,7.219799E2,-2.330953E1,7.237444E2,-1.5589215E3,2.9120876E3,2.644681E2,6.594435E3,1.5158909E4,1.7688538E3,6.622659E3,8.0541266E2],"split_indices":[7,46,47,7,46,4,6,4,15,7,7,46,3,9,20,6,46,4,46,46,6,21,11,15,45,25,6,5,3,11,42,0,0,0,0,0,0,0,0,0,0,0,0,0,0,0,0,0,0,0,0,0,0,0,0,0,0,0,0,0,0,0,0],"split_type":[0,0,0,0,0,0,0,0,0,0,0,0,0,0,0,0,0,0,0,0,0,0,0,0,0,0,0,0,0,0,0,0,0,0,0,0,0,0,0,0,0,0,0,0,0,0,0,0,0,0,0,0,0,0,0,0,0,0,0,0,0,0,0],"sum_hessian":[9.25E2,8.17E2,1.08E2,4E2,4.17E2,6.4E1,4.4E1,3.07E2,9.3E1,3.96E2,2.1E1,5.3E1,1.1E1,2.7E1,1.7E1,1.15E2,1.92E2,4.7E1,4.6E1,2.66E2,1.3E2,1.2E1,9E0,3.5E1,1.8E1,8E0,3E0,1.5E1,1.2E1,6E0,1.1E1,1.1E2,5E0,2.8E1,1.64E2,2.5E1,2.2E1,2.4E1,2.2E1,2.46E2,2E1,1.16E2,1.4E1,4E0,8E0,4E0,5E0,1.8E1,1.7E1,1.6E1,2E0,6E0,2E0,1E0,2E0,1E0,1.4E1,1E0,1.1E1,5E0,1E0,1E1,1E0],"tree_param":{"num_deleted":"0","num_feature":"48","num_nodes":"63","size_leaf_vector":"1"}},{"base_weights":[1.630282E3,-1.0353881E5,1.5356766E5,-1.3725339E5,2.776039E4,7.901949E4,5.74621E5,-1.7771783E5,-8.79657E4,-7.8700734E4,1.1049939E5,4.035578E4,5.832551E5,4.262818E5,8.7234025E5,-2.2602567E5,-1.5056669E5,-1.1594781E5,-4.015597E4,-1.3549544E5,-2.530172E4,9.394824E4,5.7661074E3,-2.7658998E4,1.5598495E5,1.2099071E5,9.9691494E5,-8.586541E4,4.5549656E5,1.4615596E6,5.995947E5,-2.3116377E3,-6.547275E2,-1.6366853E3,-6.7687787E2,-1.6177307E3,-3.9066187E2,-5.42661E2,3.8444406E2,-1.7344785E3,-1.8546996E2,-4.6011902E2,7.502546E2,6.1364404E2,2.1455037E3,-3.4309288E1,-2.2362761E3,1.1699347E3,2.8045703E3,-1.732892E3,1.63497E3,4.819039E3,1.4316087E4,-1.551127E3,2.6314594E2,4.778244E3,1.462534E3,1.738949E4,1.7600093E3,6.3742397E3,5.390695E2],"categories":[],"categories_nodes":[],"categories_segments":[],"categories_sizes":[],"default_left":[0,0,0,0,0,0,0,0,0,0,0,0,0,0,0,0,0,0,0,0,0,0,0,0,0,0,0,0,0,0,0,0,0,0,0,0,0,0,0,0,0,0,0,0,0,0,0,0,0,0,0,0,0,0,0,0,0,0,0,0,0],"id":27,"left_children":[1,3,5,7,9,11,13,15,17,19,21,23,25,27,29,31,33,35,37,39,41,43,-1,45,47,49,51,53,55,57,59,-1,-1,-1,-1,-1,-1,-1,-1,-1,-1,-1,-1,-1,-1,-1,-1,-1,-1,-1,-1,-1,-1,-1,-1,-1,-1,-1,-1,-1,-1],"loss_changes":[1.4844521E13,2.4340673E12,1.1882323E13,8.559185E11,1.0040554E12,6.2930435E12,2.1454515E12,2.7944393E11,2.6156964E11,1.4821075E11,4.3956778E11,2.3793914E12,4.277446E12,6.376013E11,2.0163823E12,5.4159737E10,1.5831715E11,4.3407022E11,8.526586E10,1.0330649E11,5.955251E10,2.3440405E11,0E0,9.060895E11,5.1076347E11,1.7843723E11,1.9965684E12,2.7386214E10,1.9249653E11,1.4769455E12,2.5463987E11,0E0,0E0,0E0,0E0,0E0,0E0,0E0,0E0,0E0,0E0,0E0,0E0,0E0,0E0,0E0,0E0,0E0,0E0,0E0,0E0,0E0,0E0,0E0,0E0,0E0,0E0,0E0,0E0,0E0,0E0],"parents":[2147483647,0,0,1,1,2,2,3,3,4,4,5,5,6,6,7,7,8,8,9,9,10,10,11,11,12,12,13,13,14,14,15,15,16,16,17,17,18,18,19,19,20,20,21,21,23,23,24,24,25,25,26,26,27,27,28,28,29,29,30,30],"right_children":[2,4,6,8,10,12,14,16,18,20,22,24,26,28,30,32,34,36,38,40,42,44,-1,46,48,50,52,54,56,58,60,-1,-1,-1,-1,-1,-1,-1,-1,-1,-1,-1,-1,-1,-1,-1,-1,-1,-1,-1,-1,-1,-1,-1,-1,-1,-1,-1,-1,-1,-1],"split_conditions":[1.1362089E-2,5.14953E-1,1.154535E0,-5.017637E-1,1E0,3.7799532E0,5E0,-7.6868534E-1,-1.2082194E-1,3E0,3.105641E0,1.4327831E-2,-3.092702E-1,7E0,1E0,3.1508365E-1,2.001E3,-7.2975144E-2,2.015E3,1E0,2.7668147E0,2.01E3,5.7661074E3,2.540143E0,7.3861635E-1,1E0,1.987E3,2.005E3,1E0,3E0,3.649095E0,-2.3116377E3,-6.547275E2,-1.6366853E3,-6.7687787E2,-1.6177307E3,-3.9066187E2,-5.42661E2,3.8444406E2,-1.7344785E3,-1.8546996E2,-4.6011902E2,7.502546E2,6.1364404E2,2.1455037E3,-3.4309288E1,-2.2362761E3,1.1699347E3,2.8045703E3,-1.732892E3,1.63497E3,4.819039E3,1.4316087E4,-1.551127E3,2.6314594E2,4.778244E3,1.462534E3,1.738949E4,1.7600093E3,6.3742397E3,5.390695E2],"split_indices":[46,7,7,46,15,46,4,47,7,4,7,7,7,5,12,7,0,47,0,18,7,0,0,46,7,3,0,0,42,1,7,0,0,0,0,0,0,0,0,0,0,0,0,0,0,0,0,0,0,0,0,0,0,0,0,0,0,0,0,0,0],"split_type":[0,0,0,0,0,0,0,0,0,0,0,0,0,0,0,0,0,0,0,0,0,0,0,0,0,0,0,0,0,0,0,0,0,0,0,0,0,0,0,0,0,0,0,0,0,0,0,0,0,0,0,0,0,0,0,0,0,0,0,0,0],"sum_hessian":[9.27E2,5.48E2,3.79E2,4.36E2,1.12E2,3.23E2,5.6E1,2.38E2,1.98E2,4.9E1,6.3E1,3.01E2,2.2E1,3.9E1,1.7E1,8.3E1,1.55E2,1.24E2,7.4E1,2.3E1,2.6E1,6.2E1,1E0,1.9E2,1.11E2,1.1E1,1.1E1,2E0,3.7E1,4E0,1.3E1,8E1,3E0,1.33E2,2.2E1,7.7E1,4.7E1,6.3E1,1.1E1,1.7E1,6E0,2.2E1,4E0,5E1,1.2E1,1.7E2,2E1,8.6E1,2.5E1,1E0,1E1,6E0,5E0,1E0,1E0,3.4E1,3E0,3E0,1E0,1.2E1,1E0],"tree_param":{"num_deleted":"0","num_feature":"48","num_nodes":"61","size_leaf_vector":"1"}},{"base_weights":[-6.666231E2,-4.8781824E4,3.3408928E5,-6.20518E4,5.414933E5,4.975644E4,5.855175E5,-1.4106173E5,1.2869921E4,4.2476484E4,9.364591E5,2.60026E3,1.6748438E5,4.0016356E5,9.547526E5,-1.7389873E5,-5.8589324E4,-2.9450863E4,1.13016125E5,-1.267249E5,1.0892329E5,3.9316447E5,1.4011208E4,-3.1396412E4,1.7221216E5,3.9191768E3,1.0742835E5,7.1428294E5,3.2992038E5,1.3355568E6,5.2177128E5,-2.2509233E3,-1.5006255E3,-1.2420001E3,1.679239E2,-3.6076675E2,6.1423555E3,8.967654E2,2.3482144E3,-1.7242274E3,-1.7664594E2,2.1097874E2,1.2004454E3,5.0268706E3,1.160795E3,-1.2316915E3,1.0239454E2,5.564556E2,2.0770967E3,-1.3040392E3,1.3575421E3,7.684962E3,1.9450162E3,-8.5436066E2,3.5609604E3,1.6101036E4,5.212106E3,5.6322095E3,5.363742E2],"categories":[],"categories_nodes":[],"categories_segments":[],"categories_sizes":[],"default_left":[0,0,0,0,0,0,0,0,0,0,0,0,0,0,0,0,0,0,0,0,0,0,0,0,0,0,0,0,0,0,0,0,0,0,0,0,0,0,0,0,0,0,0,0,0,0,0,0,0,0,0,0,0,0,0,0,0,0,0],"id":28,"left_children":[1,3,5,7,9,11,13,15,17,19,21,23,25,27,29,31,33,35,37,39,41,43,-1,45,47,-1,49,51,53,55,57,-1,-1,-1,-1,-1,-1,-1,-1,-1,-1,-1,-1,-1,-1,-1,-1,-1,-1,-1,-1,-1,-1,-1,-1,-1,-1,-1,-1],"loss_changes":[1.4995667E13,6.409611E12,8.335115E12,4.7197056E12,3.507925E12,3.1045412E11,3.8611714E12,1.0405722E12,1.7410174E12,1.1498932E11,1.9736114E12,2.4182266E11,1.7355407E11,7.131271E11,2.6007684E12,3.042349E11,5.560204E11,1.2547289E12,3.257742E11,1.1905688E10,4.304421E9,1.2373072E11,0E0,1.3499751E11,1.7406657E10,0E0,1.12018145E11,4.7779676E10,4.326962E11,1.3965564E12,1.832342E11,0E0,0E0,0E0,0E0,0E0,0E0,0E0,0E0,0E0,0E0,0E0,0E0,0E0,0E0,0E0,0E0,0E0,0E0,0E0,0E0,0E0,0E0,0E0,0E0,0E0,0E0,0E0,0E0],"parents":[2147483647,0,0,1,1,2,2,3,3,4,4,5,5,6,6,7,7,8,8,9,9,10,10,11,11,12,12,13,13,14,14,15,15,16,16,17,17,18,18,19,19,20,20,21,21,23,23,24,24,26,26,27,27,28,28,29,29,30,30],"right_children":[2,4,6,8,10,12,14,16,18,20,22,24,26,28,30,32,34,36,38,40,42,44,-1,46,48,-1,50,52,54,56,58,-1,-1,-1,-1,-1,-1,-1,-1,-1,-1,-1,-1,-1,-1,-1,-1,-1,-1,-1,-1,-1,-1,-1,-1,-1,-1,-1,-1],"split_conditions":[1.0231923E0,3.7799532E0,1.3803383E-2,-1.4395411E-1,-3.092702E-1,1.999E3,5E0,1.987E3,8.095095E-2,1E0,1.926E3,-1.4395411E-1,-3.2923326E-2,1.901E3,1E0,-7.6868534E-1,5.810874E-2,6.144808E-1,8.290335E-1,1.901E3,1.901E3,1E0,1.4011208E4,3E0,1.91E3,3.9191768E3,-3.2816444E-2,7E0,7E0,1E0,2.016E3,-2.2509233E3,-1.5006255E3,-1.2420001E3,1.679239E2,-3.6076675E2,6.1423555E3,8.967654E2,2.3482144E3,-1.7242274E3,-1.7664594E2,2.1097874E2,1.2004454E3,5.0268706E3,1.160795E3,-1.2316915E3,1.0239454E2,5.564556E2,2.0770967E3,-1.3040392E3,1.3575421E3,7.684962E3,1.9450162E3,-8.5436066E2,3.5609604E3,1.6101036E4,5.212106E3,5.6322095E3,5.363742E2],"split_indices":[7,46,46,46,7,0,4,0,7,2,0,46,6,0,11,47,7,6,7,0,0,20,0,4,0,0,6,3,5,37,0,0,0,0,0,0,0,0,0,0,0,0,0,0,0,0,0,0,0,0,0,0,0,0,0,0,0,0,0],"split_type":[0,0,0,0,0,0,0,0,0,0,0,0,0,0,0,0,0,0,0,0,0,0,0,0,0,0,0,0,0,0,0,0,0,0,0,0,0,0,0,0,0,0,0,0,0,0,0,0,0,0,0,0,0,0,0,0,0,0,0],"sum_hessian":[9.29E2,8.13E2,1.16E2,7.96E2,1.7E1,